tree
version=v4
num_class=1
num_tree_per_iteration=1
label_index=0
max_feature_idx=89
objective=regression_l1
feature_names=b1f_eh_current b1f_eh_lag_5m b1f_eh_lag_10m b1f_eh_lag_15m b1f_eh_lag_30m b1f_eh_lag_60m b1f_eh_lag_120m b1f_eh_lag_180m 1f_eh_current 1f_eh_lag_5m 1f_eh_lag_10m 1f_eh_lag_15m 1f_eh_lag_30m 1f_eh_lag_60m 1f_eh_lag_120m 1f_eh_lag_180m 301_current 301_lag_5m 301_lag_10m 301_lag_15m 301_lag_30m 301_lag_60m 301_lag_120m 301_lag_180m 3f_eh_current 3f_eh_lag_5m 3f_eh_lag_10m 3f_eh_lag_15m 3f_eh_lag_30m 3f_eh_lag_60m 3f_eh_lag_120m 3f_eh_lag_180m 401_current 401_lag_5m 401_lag_10m 401_lag_15m 401_lag_30m 401_lag_60m 401_lag_120m 401_lag_180m 403_current 403_lag_5m 403_lag_10m 403_lag_15m 403_lag_30m 403_lag_60m 403_lag_120m 403_lag_180m 4f_eh_current 4f_eh_lag_5m 4f_eh_lag_10m 4f_eh_lag_15m 4f_eh_lag_30m 4f_eh_lag_60m 4f_eh_lag_120m 4f_eh_lag_180m target_mean_15m target_std_15m target_min_15m target_max_15m target_mean_30m target_std_30m target_min_30m target_max_30m target_mean_60m target_std_60m target_min_60m target_max_60m target_mean_180m target_std_180m target_min_180m target_max_180m target_delta_15m target_delta_60m baseline_co2 residual_co2 hour minute dayofweek month dayofyear is_weekend time_sin time_cos dow_sin dow_cos cal_source_present cal_has_schedule_marker cal_is_class_or_event_day cal_marker_count
feature_infos=[390:1400] [390:1400] [390:1400] [390:1400] [390:1400] [390:1400] [390:1400] [390:1400] [384:597] [384:597] [384:597] [384:597] [384:597] [384:597] [384:597] [384:597] [388:1715] [388:1715] [388:1715] [388:1715] [388:1715] [388:1715] [388:1715] [388:1715] [390:891] [390:891] [390:891] [390:891] [390:891] [390:891] [390:891] [390:891] [389:1166] [389:1166] [389:1166] [389:1166] [389:1166] [389:1166] [389:1166] [389:1166] [390:972] [390:972] [390:972] [390:972] [390:972] [390:972] [390:972] [390:972] [388:762] [388:762] [388:762] [388:762] [388:762] [388:762] [388:762] [388:762] [390.33333333333331:1398] [0:116.64190213355289] [390:1395] [391:1400] [391.33333333333331:1392.6666666666667] [4.5380208753577151e-05:84.182341774667663] [390:1382] [393:1400] [392.83333333333331:1380.5833333333333] [0.15275620787562325:113.44398564397564] [390:1356] [394:1400] [394.38888888888891:1334.1666666666667] [0.44636348197613235:188.34863612502443] [390:1275] [398:1400] [-187:208] [-234:293] [425.03519771815354:800.45132453191275] [-372.45132453191275:713.49565083221307] [0:23] [0:55] [0:6] [1:12] [1:365] [0:1] [-1:1] [-1:1] [-0.97492791218182362:0.97492791218182362] [-0.90096886790241903:1] [0:1] [0:1] [0:1] [0:1]
tree_sizes=2631 2868 2878 2895 2888 2882 2895 2890 2900 2897 2900 2906 2897 2907 2918 2909 2934 2920 2920 2927 2932 2945 2946 2942 2937 2950 2944 2953 2953 2947 2944 2957 2939 2969 2960 2953 2967 2958 2956 2958 2935 2942 2968 2952 2969 2956 2976 2976 2969 2962 2975 2965 2966 2973 2972 2960 2980 2970 2969 2976 2963 2967 2967 2964 2972 2964 2962 2951 2973 2970 2968 2959 2963 2964 2976 2965 2974 2972 2961 2966 2967 2979 2987 2965 2981 2984 2976 2968 2982 2977 2976 2964 2975 2961 2982 2971 2977 2979 2962 2965 2964 2980 2972 2998 2965 2970 2978 2987 2966 2995 2972 2976 2979 2984 2969 2976 2974 2982 2967 2987 2977 2976 2976 2979 2965 2975 2953 2996 2966 2964 2937 2968 3001 2982 2955 2997 2938 2964 2976 2964 2971 2982 2976 2957 2965 2985 2956 2975 2980 2936 2950 2959 2946 2973 2940 2981 3002 2989 2983 2951 2991 2972 2993 2973 2971 2994 2969 2937 2982 2965 2993 2931 2959 3012 2956 2933 2967 2960 2962 2971 2980 2982 2935 2966 2980 2962 2974 2993 2999 2978 2996 2952 2979 2951 3016 3025 2977 2986 2995 2983 2965 2978 2960 3003 3012 2970 2994 2964 2959 2946 2977 2967 3011 2946 2959 2984 2936 3014 2961 2997 2971 2972 2924 2977 2931 2958 2957 2956 2972 2962 2978 3014 2957 2978 2973 2945 2929 2955 2981 3004 2911 2877 2914 2948 2993 2933 2985 2967 2959 2981 2938 2967 2883 2979 2938 2899 2925 2929 2976 2976 2896 2890 2984 2888 3005 2971 3009 2929 2960 2957 2988 2977 3008 3005 2983 2968 2989 2930 2895 2922 2954 2939 2939 2911 2902 2983 2879 2883 2867 2925 2974 2977 2917 2964 2978 2926 2961 2905 2901 2899 2956 2897 2872 2897 2899 2960 2927 2951 2883 2933 2872 2920 2921 2938 2944 2896 2954 2890 2911 3015 2964 2892 2908 2961 2947 2992 2951 2955 2889 2886 2891 2887 2963 2934 2940 2943 2911 2991 2959 2912 2938 2890 2933 2912 2950 2881 2895 2896 2931 2877 2858 2951 3011 2921 2890 3004 2947 2910 2914 2865 2916 2944 2897 2880 3019 2957 2962 2869 2885 2896 2924 2961 2902 3000 2975 2983 2957 2879 2898 2864 2935 2923 3014 2945 2903 2945 2875 2925 2985 2973 2897 2884 2960 2882 2864 2949 2886 2869 2978 2936 2900 2948 2862 2889 2890 2857 2878 2935 2891 2816 2869 2931 2977 2852 3010 2926 2935 2947 2942 2963 2980 2917 2919 2929 2904 2848 2840 2942 2864 2927 2931 2945 2848 2826 2897 2955 2955 2869 2866 2928 2859 2913 2862 2928 2864 2897 2886 2903 2952 2887 2928 2936 2873 2858 2832 2904 2876 2883 2864 2904 2894 2870 2872 2903 2905 2887 2922 2813 2893 2830 2837 2835 2844 2847 2994 2969 2815 2867 2863 2861 2939 2828 2870 2899 2907 2919 2850 2954 2972 2972 2884 2897 2907 2886 2954 2908 2924 2883 2942 2895 2899 2869 2989 2862 2913 2861 2896 2897 2853 2836 2861 2955 2877 2896 2912 2850 2890 2877 2859 2871 2853 2938 2883 2916 2894 2874 2988 2899 2981 2876 2925 2861 2866 2813 2835 2869 2903 2871 3001 2923 2868 2933 2862 2846 2990 2918 2901 2934 2847 2849 2861 2878 2941 2943 2926 2926 3000 2873 2883 2895 2879 2875 2888 2948 2904 2849 2928 2935 2908 2897 2932 2827 2925 2925 2907 2868 2906 2937 2896 2938 2945 2907 2962 2885 2925 2831 2876 2890 2841 2870 2851 2885 2980 2862 2837 2883 2909 2943 2937 2900 2959 2876 2885 2904 2815 2900 2850 2921 2920 2928 2947 2941 2968 2894 2865 2899 2921 2964 2954 2888 2851 2816 2922 2931 2880 2843 2836 2852 2871 2884 2919 2894 2948 2962 2959 2962 2914 2868 2889 2883 2843 2875 2864 2873 2826 2809 2828 2828 2863 2831 2923 2845 2847 2917 2908 2934 2926 2910 2877 2855 2907 2867 2839 2922 2918 2838 2933 2855 2948 2885 2932 2934 2890 2875 2931 2885 2875 2851 2944 2882 2926 2907 2918 2909 2905 2865 2897 2881 2875 2938 2941 2928 2858 2892 2944 2860 2929 2895 2913 2888 2837 2870 2858 2868 2902 2837 2874 2859 2876 2903 2877 2881 2953 2888 2961 2896 2895 2841 2873 2948 2932 2878 2879 2833 2889 2928 2901 2860 2957 2951 2849 2825 2837 2851 2818 2838 2870 2820 2846 2851 2822 2858 2870 2814 2923 2943 2918 2859 2936 2910 2949 2925 2914 2850 2932 2821 2898 2963 2885 2902 2922 2919 2822 2932 2927 2899 2840 2887 2968 2927 2918 2896 2946 2891 2829 2902 2879 2825 2807 2811 2828 2830 2807 2959 2870 2889 2910 2848 2881 2904 2817 2853 2853 2889 2873 2887 2873 2838 2850 2885 2866 2892 2884 2842 2819 2823 2829 2846 2926 2892 2818 2841 2918 2810 2857 2816 2838 2835 2857 2933 2928 2818 2823 2890 2848 2869 2888 2874 2872 2849 2898 2830 2829 2915 2948 2841 2823 2803 2881 2882 2846 2914 2933 2891 2880 2870 2923 2833 2908 2930 2898 2904 2888 2875 2937 2832 2880 2840 2853 2894 2949 2892 2889 2961 2911 2921 2853 2835 2862 2968 2886 2794 2939 2861 2919 2852 2876 2819 2854 2848 2848 2918 2842 2859 2837 2822 2827 2826 2812 2907 2813 2867 2901 2916 2869 2875 2878 2965 2849 2918 2867 2833 2837 2880 2833 2866 2935 2895 2915 2881 2851 2919 2939 2874 2911 2826 2839 2888 2903 2853 2902 2915 2849 2922 2847 2883 2835 2887 2831 2923 2860 2895 2870 2953 2809 2891 2924 2833 2898 2892 2883 2903 2899 2924 2826 2918 2864 2836 2907 2897 2943 2847 2815 2805 2820 2827 2861 2858 2934 2883 2837 2864 2837 2908 2933 2865 2858 2805 2852 2843 2839 2850 2905 2840 2794 2911 2825 2801 2888 2824 2848 2831 2820 2897 2894 2922 2839 2833 2890 2902 2875 2844 2795 2832 2841 2843 2856 2902 2818 2843 2809 2917 2838 2833 2911 2908 2839 2853 2889 2923 2883 2931 2913 2902 2834 2831 2848 2876 2862 2940 2958 2869 2901 2906 2851 2887 2905 2887 2898 2869 2901 2908 2885 2908 2915 2913 2853 2953 2870 2864 2978 2862 2856 2874 2837 2868 2830 2888 2920 2876 2917 2851 2840 2830 2894 2819 2901 2819 2908 2827 2894 2846 2933 2854 2882 2872 2887 2863 2832 2872 2876 2872 2917 2943 2880 2917 2823 2905 2860 2897 2918 2902 2907 2869 2876 2886 2861 2841 2854 2850 2853 2873 2833 2890 2835 2942 2845 2964 2898 2880 2881 2854 2824 2789 2906 2938 2875 2892 2857 2893 2801 2909 2879 2876 2852 2934 2823 2903 2840 2852 2869 2818 2846 2953 2900 2929 2937 2830 2887 2889 2852 2863 2932 2860 2899 2814 2881 2838 2826 2797 2840 2808 2841 2904 2801 2796 2849 2851 2786 2960 2930 2966 2876 2872 2852 2845 2873 2886 2834 2834 2833 2836 2829 2918 2834 2858 2799 2849

Tree=0
num_leaves=31
num_cat=0
split_feature=0 0 0 73 73 72 0 83 83 83 25 0 0 82 0 83 0 83 0 67 76 36 58 19 65 72 72 73 72 58
split_gain=90161.1 1114.94 914.008 595.859 327.409 192.377 123.998 116.671 89.7487 78.226 75.2835 68.0169 59.0922 62.342 57.1374 87.8054 55.3725 50.5072 40.9684 37.2831 37.1284 36.361 33.837 32.9905 26.5032 26.0123 25.9559 25.1385 24.4643 24.2847
threshold=488.25000000000006 480.50000000000006 493.50000000000006 6.2894736842105496 -12.499999999999998 9.5000000000000018 468.18421052631584 -0.23768589232617318 -0.96298784033749829 -0.9568834025670776 470.34210526315798 498.50000000000006 486.50000000000006 -0.50938662908026078 474.22368421052641 -0.92794370089704259 484.50000000000006 0.92794370089704281 483.50000000000006 519.25000000000011 5.5000000000000009 476.50000000000006 489.50000000000006 750.40410958904124 3.2227881779713008 4.5000000000000009 17.500000000000004 -1.2499999999999998 3.7500000000000004 491.50000000000006
decision_type=2 2 2 2 2 2 2 2 2 2 2 2 2 2 2 2 2 2 2 2 2 2 2 2 2 2 2 2 2 2
left_child=1 5 4 7 10 14 23 18 -5 -8 29 19 27 -14 -1 21 25 20 -3 -4 22 -16 -6 26 -15 -10 -7 -9 -17 -2
right_child=2 3 11 8 17 6 9 12 16 -11 -12 -13 13 24 15 28 -18 -19 -20 -21 -22 -23 -24 -25 -26 -27 -28 -29 -30 -31
leaf_value=485.64999999999998 486.91000000000003 486.81999999999999 487.24000000000001 487.30000000000001 486.97000000000003 486.13 487.24000000000001 486.79000000000002 486.88 486.75999999999999 487.08999999999997 490.32999999999998 487.02999999999997 486.97000000000003 487.06 486.63999999999999 487.08999999999997 487 486.97000000000003 487.06 487.14999999999998 486.79000000000002 487.06 487.13499999999999 486.88 487.02999999999997 486.57999999999998 486.88 486.75999999999999 486.97000000000003
leaf_weight=43156 313 307 1896 280 68 631 150 1350 209 223 176 45280 102 134 121 2481 383 126 472 199 1433 174 119 30 257 181 109 269 367 186
leaf_count=43156 313 307 1896 280 68 631 150 1350 209 223 176 45280 102 134 121 2481 383 126 472 199 1433 174 119 30 257 181 109 269 367 186
internal_value=487 486.972 487.029 486.987 487.011 486.971 486.983 486.98 487.007 486.997 486.993 487.03 486.977 486.986 486.97 486.974 487.001 487.018 486.99 487.024 487.019 486.99 487.006 486.976 486.98 486.993 486.975 486.974 486.973 486.987
internal_weight=101182 51386 49796 3944 2421 47442 1143 2891 1053 373 675 47375 2112 493 46299 3143 773 1746 779 2095 1620 295 187 770 391 390 740 1619 2848 499
internal_count=101182 51386 49796 3944 2421 47442 1143 2891 1053 373 675 47375 2112 493 46299 3143 773 1746 779 2095 1620 295 187 770 391 390 740 1619 2848 499
is_linear=0
shrinkage=1


Tree=1
num_leaves=31
num_cat=0
split_feature=0 0 0 72 76 72 76 0 0 0 0 67 0 72 67 76 28 76 6 12 37 72 68 71 19 0 11 72 72 76
split_gain=89241.9 1170.33 931.647 456.148 234.818 195.099 148.204 124.062 123.269 101.972 83.2826 74.9498 65.2946 67.8739 60.5876 55.4198 43.172 40.406 37.1031 33.6842 32.1912 31.6365 31.5956 30.9638 30.702 30.6131 30.5993 30.4815 27.1499 24.6705
threshold=488.25000000000006 480.50000000000006 494.50000000000006 4.5000000000000009 5.5000000000000009 9.5000000000000018 5.5000000000000009 468.18421052631584 486.50000000000006 491.50000000000006 502.50000000000006 503.50000000000006 471.06578947368428 3.7500000000000004 523.25000000000011 15.500000000000002 442.25000000000006 22.500000000000004 539.50000000000011 463.16666666666669 528.30000000000007 -10.499999999999998 487.98611111111114 508.50000000000006 736.25000000000011 490.50000000000006 436.40434782608702 9.5000000000000018 17.500000000000004 21.500000000000004
decision_type=2 2 2 2 2 2 2 2 2 2 2 2 2 2 2 2 2 2 2 2 2 2 2 2 2 2 2 2 2 2
left_child=1 5 4 6 9 12 22 24 15 -2 14 17 -1 -14 -4 19 -13 25 -11 23 -21 -18 -3 -8 28 -6 -9 -5 -7 -10
right_child=2 3 10 27 11 7 8 26 29 18 -12 16 13 -15 -16 -17 21 -19 -20 20 -22 -23 -24 -25 -26 -27 -28 -29 -30 -31
leaf_value=-1.3694999999999993 -0.059100000000000819 -0.089100000000000817 0.26010000000000044 0.035849999999999792 0.11550000000000067 -0.84389999999999987 0.030899999999999182 0.17279999999999973 0.029100000000000816 0.052799999999999722 3.4701000000000004 -0.087300000000000752 -0.37919999999999959 -0.23279999999999973 0.080100000000000476 -0.14639999999999986 -0.094499999999999321 -0.029999999999999999 -0.029100000000000816 -0.13319999999999993 0.065400000000000208 0.087300000000000752 -0.2037000000000006 -0.17910000000000081 0.071025000000000199 0.20550000000000068 -0.11279999999999972 0.26910000000000078 -0.40739999999999948 -0.086399999999999866
leaf_weight=41379 348 102 3043 402 620 626 203 105 390 278 43592 97 4182 738 296 801 43 69 115 466 31 304 1066 106 36 991 268 296 108 81
leaf_count=41379 348 102 3043 402 620 626 203 105 390 278 43592 97 4182 738 296 801 43 69 115 466 31 304 1066 106 36 991 268 296 108 81
internal_value=-9.39585e-05 -0.0278288 0.0285264 -0.0121209 0.011911 -0.0291343 -0.0168516 -0.0168593 -0.0120332 -0.00262399 0.0295403 0.0169821 -0.0294369 -0.0261404 0.0249422 -0.0159869 0.00599326 0.0198792 0.00783503 -0.0104052 -0.0152349 0.0109397 -0.0254038 -0.00260323 -0.0237315 0.0208418 -0.00263904 0.00986695 -0.0250571 0.00145551
internal_weight=101182 51386 49796 3944 2865 47442 3246 1143 2078 741 46931 2124 46299 4920 3339 1607 444 1680 393 806 497 347 1168 309 770 1611 373 698 734 471
internal_count=101182 51386 49796 3944 2865 47442 3246 1143 2078 741 46931 2124 46299 4920 3339 1607 444 1680 393 806 497 347 1168 309 770 1611 373 698 734 471
is_linear=0
shrinkage=0.03


Tree=2
num_leaves=31
num_cat=0
split_feature=0 0 0 73 73 73 83 0 83 73 0 83 26 83 0 0 0 76 36 63 0 71 64 0 0 72 75 61 71 71
split_gain=88732.7 1163.19 951.436 542.471 295.46 210.625 119.314 104.872 97.8478 95.7766 75.8781 117.927 72.9701 69.2533 64.3341 54.1125 50.5278 49.6391 46.6707 43.2623 39.1144 35.5767 31.6737 30.3889 30.0041 29.1744 27.1004 24.7092 23.8491 22.1947
threshold=488.25000000000006 480.50000000000006 494.50000000000006 2.2500000000000004 -11.118421052631588 23.250000000000004 -0.96298784033749829 505.50000000000006 -0.23768589232617318 -22.499999999999996 473.17105263157902 -0.92794370089704259 469.04385964912285 -0.96298784033749829 484.50000000000006 486.50000000000006 492.50000000000006 5.5000000000000009 475.41739130434786 463.19736842105266 486.50000000000006 521.50000000000011 477.45833333333343 491.50000000000006 489.50000000000006 4.5000000000000009 22.724383408889825 7.5894663846030701 478.50000000000006 555.50000000000011
decision_type=2 2 2 2 2 2 2 2 2 2 2 2 2 2 2 2 2 2 2 2 2 2 2 2 2 2 2 2 2 2
left_child=1 5 4 8 12 10 -5 9 20 27 -1 18 16 19 22 -10 26 23 28 -7 -3 -17 -8 -6 -19 -13 -2 -4 -12 -14
right_child=2 3 7 6 17 13 14 -9 15 -11 11 25 29 -15 -16 21 -18 24 -20 -21 -22 -23 -24 -25 -26 -27 -28 -29 -30 -31
leaf_value=-1.2984149999999988 -0.085527000000000727 -0.11510400000000118 0.077697000000000002 0.28292700000000026 -0.027327000000000792 -0.42858299999999927 -0.027326999999999088 3.4859970000000002 -0.19758899999999982 0.25499699999999903 -0.082619999999999721 -0.33782399999999879 0.085716000000001027 -0.51782399999999884 0.049227000000001339 -0.026508000000000038 0.023673000000000569 0.08203500000000076 -0.22232399999999983 0.12219900000000052 0.030026999999998336 -0.11028899999999907 -0.14200800000000072 0.08121600000000001 0.16933499999999979 -0.22581599999999979 0.06008099999999842 -0.11910300000000006 0.13572600000000107 -0.029045999999999877
leaf_weight=42938 381 444 436 306 120 87 299 42413 1522 4044 74 3080 205 445 545 219 209 334 214 180 137 244 228 123 1408 350 31 38 74 54
leaf_count=42938 381 444 436 306 120 87 299 42413 1522 4044 74 3080 205 445 545 219 209 334 214 180 137 244 228 123 1408 350 31 38 74 54
internal_value=-0.000140508 -0.0277961 0.028398 -0.0121361 0.0116075 -0.0290976 0.00304351 0.0294227 -0.0202871 0.0250536 -0.0293445 -0.0252457 -0.00285698 -0.012871 -0.00167474 -0.0234577 -0.00843569 0.0180196 -0.00891736 -0.000772388 -0.00942784 -0.0144116 -0.00914205 0.00527459 0.0197917 -0.026965 -0.0145206 0.0122463 0.00400671 0.0104885
internal_weight=101182 51386 49796 3944 2865 47442 1378 46931 2566 4518 46730 3792 880 712 1072 1985 621 1985 362 267 581 463 527 243 1742 3430 412 474 148 259
internal_count=101182 51386 49796 3944 2865 47442 1378 46931 2566 4518 46730 3792 880 712 1072 1985 621 1985 362 267 581 463 527 243 1742 3430 412 474 148 259
is_linear=0
shrinkage=0.03


Tree=3
num_leaves=31
num_cat=0
split_feature=0 0 0 73 73 73 0 83 73 0 83 83 0 83 0 0 83 24 13 63 7 81 82 0 76 73 8 0 72 75
split_gain=87787.6 1133.16 902.27 536.565 286.307 216.088 162.271 119.003 109.297 97.3718 137.576 91.3224 69.2061 67.9786 59.5797 56.5512 53.7271 42.6394 42.1286 40.9913 39.2067 37.5786 36.9412 36.1623 31.3767 30.8972 28.5263 28.1861 28.1242 28.0996
threshold=488.25000000000006 480.50000000000006 494.50000000000006 2.2500000000000004 -11.118421052631588 23.250000000000004 510.50000000000006 -0.96298784033749829 -21.499999999999996 468.18421052631584 -0.92794370089704259 -0.23768589232617318 491.50000000000006 -0.96298784033749829 484.50000000000006 486.50000000000006 0.93585024503435366 472.14035087719304 468.13478260869573 463.19736842105266 555.50000000000011 1.0000000180025095e-35 -0.24825246871434689 490.50000000000006 5.5000000000000009 0.48301820728295303 443.40000000000003 487.50000000000006 -8.8000000000000096 0.71500301830255364
decision_type=2 2 2 2 2 2 2 2 2 2 2 2 2 2 2 2 2 2 2 2 2 2 2 2 2 2 2 2 2 2
left_child=1 5 4 11 12 9 8 -5 26 -1 18 27 17 19 -9 -13 23 -2 21 -7 -14 -11 -17 24 -6 -12 -4 -3 -10 -24
right_child=2 3 6 7 16 13 -8 14 28 10 25 15 20 -15 -16 22 -18 -19 -20 -21 -22 -23 29 -25 -26 -27 -28 -29 -30 -31
leaf_value=-1.3194625499999995 -0.082961190000000323 -0.10695288000000033 0.045366089999999984 0.27443919000000105 -0.026507190000000378 -0.41572550999999919 3.5914170900000002 -0.07814376000000095 0.12869708999999943 0.003308220000000972 -0.3891715499999992 -0.19166133000000002 0.060846809999998752 -0.50228927999999828 0.047750190000002135 -0.00097776000000067138 -0.0040204799999992245 0.049463520000001038 -0.24565427999999939 0.11853302999999982 -0.0094941899999992068 -0.22004628000000023 -0.13698032999999837 0.16425495000000012 0.10695495000000108 -0.27904151999999954 0.10536608999999998 0.089126189999997787 0.26834709000000029 -0.046980329999998391
leaf_weight=39969 316 514 272 306 65 87 40559 527 184 244 4100 1522 267 445 545 143 127 105 383 180 192 53 202 1189 604 1981 568 67 5348 118
leaf_count=39969 316 514 272 306 65 87 40559 527 184 244 4100 1522 267 445 545 143 127 105 383 180 192 53 202 1189 604 1981 568 67 5348 118
internal_value=-0.000176087 -0.027684 0.0282101 -0.0122274 0.0118587 -0.0289686 0.0292079 0.00286947 0.0247414 -0.0292187 -0.0258691 -0.0203339 -0.00238025 -0.0125344 -0.0018425 -0.0233973 0.0181707 -0.011154 -0.0130352 -0.000548507 0.00566739 -0.00452013 -0.014153 0.0194605 0.0138313 -0.0273014 0.0146219 -0.00984021 0.0262745 -0.0198037
internal_weight=101182 51386 49796 3944 2865 47442 46931 1378 6372 46730 6761 2566 880 712 1072 1985 1985 421 680 267 459 297 463 1858 669 6081 840 581 5532 320
internal_count=101182 51386 49796 3944 2865 47442 46931 1378 6372 46730 6761 2566 880 712 1072 1985 1985 421 680 267 459 297 463 1858 669 6081 840 581 5532 320
is_linear=0
shrinkage=0.03


Tree=4
num_leaves=31
num_cat=0
split_feature=0 0 0 73 73 72 0 0 83 83 73 83 0 83 25 0 58 0 83 76 64 0 71 9 83 72 39 80 0 0
split_gain=87127.2 1133.35 904.73 530.247 276.085 222.858 205.028 128.865 111.288 100.045 97.4594 97.0041 87.2926 103.174 66.6124 56.5512 53.1512 52.2508 52.0212 39.391 34.9332 34.389 33.511 32.0035 31.2876 30.5975 30.4915 28.1901 27.7772 25.4647
threshold=488.25000000000006 480.50000000000006 494.50000000000006 2.2500000000000004 -11.118421052631588 9.5000000000000018 513.50000000000011 461.09210526315798 -0.96298784033749829 -0.9568834025670776 -21.499999999999996 -0.23768589232617318 468.18421052631584 -0.91959550581536675 470.34210526315798 486.50000000000006 491.50000000000006 484.50000000000006 0.93585024503435366 5.5000000000000009 477.45833333333343 486.50000000000006 521.50000000000011 443.40000000000003 0.36243803828370164 3.7500000000000004 455.50000000000006 280.50000000000006 491.50000000000006 474.22368421052641
decision_type=2 2 2 2 2 2 2 2 2 2 2 2 2 2 2 2 2 2 2 2 2 2 2 2 2 2 2 2 2 2
left_child=1 5 4 11 14 12 10 -7 -5 -9 23 21 -1 27 16 -13 24 20 19 28 -10 -3 -17 26 -2 -15 -4 29 -6 -14
right_child=2 3 6 8 18 7 -8 9 17 -11 -12 15 13 25 -16 22 -18 -19 -20 -21 -22 -23 -24 -25 -26 -27 -28 -29 -30 -31
leaf_value=-1.2798786734999987 -0.020472354300000575 -0.10844229360000213 0.050056107300000006 0.26620601430000079 -0.0041348384999992044 -0.85834417349999936 3.6036745773000005 0.16399703909999999 -0.024162877199999003 -0.27427027439999901 0.26029667729999972 -0.18591149010000038 -0.26927079659999947 -0.3567938539499988 0.080284115700000588 -0.025683427200000324 0.0021666356999998013 0.046317684300002493 -0.0038998655999989747 0.15932730150000055 -0.13540344720000178 0.026452404299997737 -0.10557092009999848 0.10825610729999993 -0.11047235430000057 -0.26188840349999964 -0.045994892700000491 0.033067088400000839 0.079251871500001125 -0.1439379609000008
leaf_weight=39614 96 444 261 306 103 568 39582 224 299 351 6331 1522 357 5260 248 219 299 545 127 1655 228 137 244 712 237 707 45 64 100 297
leaf_count=39614 96 444 261 306 103 568 39582 224 299 351 6331 1522 357 5260 248 219 299 545 127 1655 228 137 244 712 237 707 45 64 100 297
internal_value=-0.000235385 -0.0276396 0.0280438 -0.0121817 0.0116703 -0.0289243 0.029043 -0.0158103 0.00282596 -0.00577604 0.0244282 -0.0202404 -0.0292477 -0.0260555 -0.00231215 -0.0233973 -0.00748341 -0.00173066 0.0178686 0.0191377 -0.00846023 -0.00942784 -0.014153 0.0157772 -0.0157096 -0.0273504 0.00761238 -0.015267 0.00660294 -0.0171252
internal_weight=101182 51386 49796 3944 2865 47442 46931 1143 1378 575 7349 2566 46299 6685 880 1985 632 1072 1985 1858 527 581 463 1018 333 5967 306 718 203 654
internal_count=101182 51386 49796 3944 2865 47442 46931 1143 1378 575 7349 2566 46299 6685 880 1985 632 1072 1985 1858 527 581 463 1018 333 5967 306 718 203 654
is_linear=0
shrinkage=0.03


Tree=5
num_leaves=31
num_cat=0
split_feature=59 59 58 73 73 72 58 59 73 72 83 59 83 76 58 72 24 57 72 58 9 72 58 75 72 80 58 83 58 30
split_gain=85135.5 1278.55 1104.6 705.718 629.845 299.761 251.259 160.08 133.131 110.958 109.376 106.197 123.745 97.2478 94.2181 90.1053 81.2981 61.1095 51.1087 49.0784 45.8532 45.6362 43.2313 39.3251 38.1006 33.5257 31.2732 31.0471 30.9384 28.8882
threshold=490.50000000000006 482.50000000000006 493.50000000000006 2.2500000000000004 -11.118421052631588 9.5000000000000018 516.50000000000011 461.09210526315798 -21.499999999999996 5.7500000000000009 -0.94331137514050678 471.06578947368428 -0.92794370089704259 6.5000000000000009 485.50000000000006 0.52631578947367086 470.34210526315798 3.4641016151377579 2.7500000000000004 491.50000000000006 443.40000000000003 -8.8000000000000096 484.50000000000006 21.648636062896319 4.5000000000000009 280.50000000000006 489.50000000000006 0.90159026428466904 486.50000000000006 501.0087719298246
decision_type=2 2 2 2 2 2 2 2 2 2 2 2 2 2 2 2 2 2 2 2 2 2 2 2 2 2 2 2 2 2
left_child=1 5 4 13 16 11 8 -7 20 22 -9 -1 25 -3 24 17 19 26 -14 23 -4 -10 -5 -2 -15 -13 -6 -16 -18 -20
right_child=2 3 6 9 15 7 -8 10 21 -11 -12 12 18 14 27 -17 28 -19 29 -21 -22 -23 -24 -25 -26 -27 -28 -29 -30 -31
leaf_value=-1.2114823132949992 -0.11605333367100086 -0.18033414539700005 0.030803424080999661 -0.041737343784000701 0.027946854603000018 -0.83429634829499999 3.7055643399810001 0.15525377162699952 0.10556433998100033 0.22158548245500015 -0.26604216616799875 -0.18478266612899916 -0.3400964887814979 -0.15475314539700094 0.015571090929000206 0.32148777698099817 -0.14476509631050277 -0.11654333147099948 -0.22948350229499878 -0.0011743633710000268 0.1050084240809997 0.25878777698099897 0.055419833870999469 0.054423775768499355 0.060682418529000297 0.094412960748001068 0.094547482455000137 -0.092053145396999977 0.051659950928998909 0.021085781218503144
leaf_weight=40226 470 1194 355 485 291 567 37847 290 254 538 355 539 4518 962 275 1416 38 106 890 216 893 7055 351 44 52 47 565 59 247 37
leaf_count=40226 470 1194 355 485 291 567 37847 290 254 538 355 539 4518 962 275 1416 38 106 890 216 893 7055 351 44 52 47 565 59 247 37
internal_value=-0.000296463 -0.0273862 0.0276571 -0.0109055 0.0111276 -0.0287455 0.0288654 -0.0139959 0.0242121 0.00641236 -0.00375697 -0.0291315 -0.025399 -0.0202662 -0.0147198 0.01957 -0.00864862 0.0124579 -0.02681 -0.0139494 0.0151297 0.0257602 -0.000426523 -0.0189845 -0.019268 -0.0122606 0.015119 -0.000886567 0.00491958 -0.0203308
internal_weight=101182 51385 49797 3916 3393 47469 46404 1212 8557 1374 645 46257 6031 2542 1348 2378 1015 962 5445 730 1248 7309 836 514 1014 586 856 334 285 927
internal_count=101182 51385 49797 3916 3393 47469 46404 1212 8557 1374 645 46257 6031 2542 1348 2378 1015 962 5445 730 1248 7309 836 514 1014 586 856 334 285 927
is_linear=0
shrinkage=0.03


Tree=6
num_leaves=31
num_cat=0
split_feature=0 0 0 83 0 71 0 68 83 6 61 83 66 83 65 14 0 83 0 0 67 58 80 15 83 81 83 61 65 83
split_gain=85309.6 1206.67 923.453 490.733 315.521 216.184 197.925 159.18 128.776 119.358 104.61 126.841 103.068 68.0135 67.7206 65.9482 64.4911 87.4952 49.3024 47.993 45.4579 36.5531 35.9321 30.8135 29.9172 28.1219 26.5561 26.3091 25.9935 33.9003
threshold=488.25000000000006 477.50000000000006 494.50000000000006 -0.91959550581536675 520.50000000000011 553.50000000000011 484.50000000000006 501.45833333333343 0.91959550581536709 551.50000000000011 6.250333324758679 -0.9568834025670776 473.50000000000006 0.85491187067294649 10.525582111736343 468.13478260869573 465.02631578947376 -0.90159026428466904 491.50000000000006 463.19736842105266 492.50000000000006 492.50000000000006 88.500000000000014 442.31739130434789 -0.23768589232617318 1.0000000180025095e-35 -0.076279435988900912 2.5884358212213576 4.3693144877855143 -0.9503235401216662
decision_type=2 2 2 2 2 2 2 2 2 2 2 2 2 2 2 2 2 2 2 2 2 2 2 2 2 2 2 2 2 2
left_child=1 10 5 15 9 8 12 13 18 28 16 19 -5 -8 23 -3 -1 22 20 -12 -2 26 -18 -11 -14 -24 -7 -17 -4 -30
right_child=2 3 4 6 -6 21 7 -9 -10 14 11 -13 24 -15 -16 27 17 -19 -20 -21 -22 -23 25 -25 -26 -27 -28 -29 29 -31
leaf_value=-1.2351378438961496 0.18730388743887147 0.2337572388548699 0.24780070667156961 -0.11255130199460212 3.6243974097815705 0.059748863055942819 0.0025894489649107297 -0.1227331595850896 -0.013676583660870847 0.061248791358570427 -0.36513784389614956 -0.66513784389614949 -0.15565043043008983 -0.087689996140109083 0.0243974097815709 -0.098296430430091564 -0.27513784389614954 -0.36513784389614956 0.14490284914557094 0.20413763762555959 0.038811383033131218 0.016497193613070352 -0.11212304271812797 0.1037241436715675 -0.23492412103508967 -0.2584230327891282 -0.085406132469870499 0.06728560754052125 0.80779414367156899 0.20439740978157089
leaf_weight=37819 445 412 3717 696 37415 47 905 594 286 222 125 804 519 212 325 136 424 6054 1031 137 680 140 369 1025 1889 132 236 159 871 3356
leaf_count=37819 445 412 3717 696 37415 47 905 594 286 222 125 804 519 212 325 136 424 6054 1031 137 680 140 369 1025 1889 132 236 159 871 3356
internal_value=-0.000356947 -0.0274738 0.0276257 -0.01422 0.0286352 0.0110841 -0.0176468 -0.00944334 0.0145137 0.0237488 -0.0290692 -0.0197348 -0.0221633 -0.00276118 0.016171 0.00910593 -0.0292908 -0.026617 0.0170223 -0.00158555 0.0126528 -0.00869575 -0.0179773 0.0193486 -0.0251046 -0.0124841 -0.0148838 -0.00171284 0.0252457 0.0236062
internal_weight=101182 51386 49796 5522 46931 2865 4815 1711 2442 9516 45864 1066 3104 1117 1572 707 44798 6979 2156 262 1125 423 925 1247 2408 501 283 295 7944 4227
internal_count=101182 51386 49796 5522 46931 2865 4815 1711 2442 9516 45864 1066 3104 1117 1572 707 44798 6979 2156 262 1125 423 925 1247 2408 501 283 295 7944 4227
is_linear=0
shrinkage=0.03


Tree=7
num_leaves=31
num_cat=0
split_feature=0 0 0 73 0 73 73 72 0 0 72 68 0 8 24 0 73 76 0 76 21 0 72 80 73 76 73 80 82 82
split_gain=84556.1 1210.59 930.581 565.336 350.658 248.55 205.412 171.324 123.348 105.273 101.294 93.4145 62.2232 61.7208 60.7373 58.724 57.0865 54.4401 46.1833 43.2782 42.797 41.2887 40.4446 36.6824 36.0394 33.9312 32.867 32.5192 30.5092 44.3432
threshold=488.25000000000006 477.50000000000006 494.50000000000006 6.2894736842105496 524.50000000000011 -12.499999999999998 -21.499999999999996 8.5000000000000018 484.50000000000006 461.09210526315798 5.7500000000000009 501.45833333333343 462.14473684210532 443.40000000000003 471.25000000000006 484.50000000000006 2.2500000000000004 6.5000000000000009 492.50000000000006 5.5000000000000009 568.25000000000011 491.50000000000006 -8.8000000000000096 80.500000000000014 -30.499999999999996 22.500000000000004 21.500000000000004 277.50000000000006 0.31107263240371752 -0.25881904510252046
decision_type=2 2 2 2 2 2 2 2 2 2 2 2 2 2 2 2 2 2 2 2 2 2 2 2 2 2 2 2 2 2
left_child=1 7 5 8 6 14 13 12 17 -9 15 27 -1 -4 18 -5 -14 -3 -2 21 -18 -7 -8 -11 -15 -21 -12 -10 29 -25
right_child=2 3 4 10 -6 19 22 9 11 23 26 -13 16 24 -16 -17 20 -19 -20 25 -22 -23 -24 28 -26 -27 -28 -29 -30 -31
leaf_value=-1.2580837085792649 -0.071114399686774729 -0.22805969958699959 0.035447399065122336 -0.094460558284428092 3.6656654874881234 -0.021342246274082866 0.12195852347977279 -0.80221332252926458 -0.040912830644352312 -0.3259360475792647 0.037257201906760996 -0.1165500562475367 -0.40415328790116745 0.052475586479773996 0.075502950910135952 0.055652875285926481 -0.29077557839576229 -0.17036282740403691 0.017080468098178016 0.13785576367120256 -0.022528216507585058 0.057482596571204567 0.25696338858142381 -0.20678316496607407 0.099302362948423026 -0.0097726710137149547 0.24541668269629213 0.028618727457573809 -0.27497498190926423 0.11969451064942405
leaf_weight=35716 402 1207 484 494 36205 132 314 815 674 101 356 594 6164 354 205 282 2503 1439 205 1710 95 143 8707 107 867 68 318 158 171 192
leaf_count=35716 402 1207 484 494 36205 132 314 815 674 101 356 594 6164 354 205 282 2503 1439 205 1710 95 143 8707 107 867 68 318 158 171 192
internal_value=-0.000378888 -0.0273757 0.0274799 -0.0141005 0.0284933 0.0108747 0.0237212 -0.0289737 -0.0198274 -0.0185559 0.00198277 -0.0126959 -0.0292978 0.0141542 -0.00316974 -0.00540154 -0.027011 -0.0236634 -0.00793914 0.0164299 -0.0232462 0.00531522 0.0255273 -0.0086486 0.0177471 0.0181433 0.0104844 -0.00619088 -0.00508917 0.00069
internal_weight=101182 51386 49796 5522 46931 2865 10726 45864 4072 1386 1450 1426 44478 1705 812 776 8762 2646 607 2053 2598 275 9021 571 1221 1778 674 832 470 299
internal_count=101182 51386 49796 5522 46931 2865 10726 45864 4072 1386 1450 1426 44478 1705 812 776 8762 2646 607 2053 2598 275 9021 571 1221 1778 674 832 470 299
is_linear=0
shrinkage=0.03


Tree=8
num_leaves=31
num_cat=0
split_feature=0 0 0 73 0 73 73 72 83 0 83 65 0 0 83 76 0 76 71 83 71 72 83 8 83 83 0 8 64 72
split_gain=83432.5 1282.13 956.866 493.056 413.412 309.263 207.129 175.308 169.015 104.003 88.5949 85.0451 81.8376 69.1983 94.4302 68.796 67.0796 77.22 63.0167 51.2647 44.7959 44.2206 43.1221 40.9166 38.1921 32.4032 30.7924 30.1766 26.8534 26.4066
threshold=487.50000000000006 495.50000000000006 477.50000000000006 0.48301820728295303 528.50000000000011 -11.118421052631588 -16.374999999999996 9.5000000000000018 -0.92794370089704259 491.50000000000006 -0.9503235401216662 10.199153262706345 482.50000000000006 463.19736842105266 -0.89194178735545482 6.5000000000000009 491.50000000000006 5.5000000000000009 463.19736842105266 0.37256073532439582 555.50000000000011 -7.4999999999999991 0.6835516316989646 444.48260869565223 0.95032354012166631 0.81279832427823717 482.50000000000006 466.06000000000006 477.45833333333343 7.2500000000000009
decision_type=2 2 2 2 2 2 2 2 2 2 2 2 2 2 2 2 2 2 2 2 2 2 2 2 2 2 2 2 2 2
left_child=2 5 7 15 6 9 11 13 29 19 18 23 -10 -1 27 -4 17 -7 -9 -2 -11 -8 26 -3 -19 -13 -17 -15 -14 -5
right_child=1 4 3 8 -6 16 21 10 12 20 -12 25 28 14 -16 22 -18 24 -20 -21 -22 -23 -24 -25 -26 -27 -28 -29 -30 -31
leaf_value=-1.1903411973218874 -0.0021183102839870569 0.058665941369514196 -0.19447260641642913 0.043352461905255664 3.7056955228634796 -0.026950408885861064 0.12574245523550501 -0.47424692285338665 -0.12115174265960661 0.061710944013784963 -0.55853391550879561 0.10626309849345034 0.0635487887006667 -0.19595910994222945 -0.36351095926413279 -0.19294881476487774 0.14800231972067934 0.090830043580219802 0.099270864629941113 -0.089043696011890452 -0.0046763088840492623 0.28395331972067933 -0.1682305288241642 0.1056955228634797 -0.039271220670399884 -0.0055823192529251744 -0.057776227006488622 -0.26196260996760201 -0.032027825735455623 0.30943766064421763
leaf_weight=36644 202 466 1584 286 35112 170 348 181 773 326 671 374 211 529 7065 477 1233 1154 191 349 266 8101 510 1821 61 280 473 583 511 230
leaf_count=36644 202 466 1584 286 35112 170 348 181 773 326 671 374 211 529 7065 477 1233 1154 191 349 266 8101 510 1821 61 280 473 583 511 230
internal_value=-0.000511123 0.0269077 -0.0275767 -0.0151833 0.0282704 0.010055 0.0232971 -0.0289423 -0.00365159 -0.00296066 -0.01675 0.0164266 -0.00876136 -0.0292255 -0.0267091 -0.022797 0.0157377 0.0111883 -0.00497855 -0.0123315 0.00576223 0.025686 -0.0180678 0.0191552 0.013838 0.00686565 -0.0142555 -0.0185418 -0.00148963 0.0111354
internal_weight=101182 50263 50919 5055 46502 3761 11390 45864 2011 1143 1043 2941 1495 44821 8177 3044 2618 1385 372 551 592 8449 1460 2287 1215 654 950 1112 722 516
internal_count=101182 50263 50919 5055 46502 3761 11390 45864 2011 1143 1043 2941 1495 44821 8177 3044 2618 1385 372 551 592 8449 1460 2287 1215 654 950 1112 722 516
is_linear=0
shrinkage=0.03


Tree=9
num_leaves=31
num_cat=0
split_feature=1 1 1 73 1 73 73 73 73 1 1 1 72 65 20 72 24 76 10 64 1 76 72 76 51 68 12 76 62 76
split_gain=82573.3 1239.45 1020.82 551.116 463.102 252.521 227.659 187.797 141.305 112.434 99.9311 90.6551 101.448 81.9213 62.8972 57.7029 54.9611 53.7066 50.1322 48.1946 50.6791 44.7808 41.9123 33.5794 29.4471 30.4714 28.7983 24.739 23.7013 23.552
threshold=488.25000000000006 477.50000000000006 532.50000000000011 0.48301820728295303 493.50000000000006 -16.374999999999996 -12.499999999999998 23.250000000000004 18.250000000000004 483.50000000000006 486.50000000000006 460.03947368421058 3.7500000000000004 10.199153262706345 572.50000000000011 -7.4999999999999991 470.34210526315798 6.5000000000000009 444.48260869565223 486.04166666666669 490.50000000000006 5.5000000000000009 12.500000000000002 20.500000000000004 450.14035087719304 599.79166666666686 458.10000000000008 22.500000000000004 474.50000000000006 7.5000000000000009
decision_type=2 2 2 2 2 2 2 2 2 2 2 2 2 2 2 2 2 2 2 2 2 2 2 2 2 2 2 2 2 2
left_child=1 7 4 10 6 13 16 11 9 28 17 -1 29 18 26 -7 -2 -3 -6 -8 -21 -12 -9 -19 -15 -26 -14 -17 -5 -13
right_child=2 3 -4 8 5 15 19 22 -10 -11 21 12 14 24 -16 27 -18 23 -20 20 -22 -23 -24 -25 25 -27 -28 -29 -30 -31
leaf_value=-1.1846309614022299 -0.053027227238650311 -0.2152004282239352 3.714524657177575 -0.064094418540216788 0.05452465717757491 0.11994739512666455 0.2268421583048621 -0.35988871297946673 0.13937351956028066 0.016314232311538886 -0.083981093467617146 -0.40024887402257203 -0.24630745144946728 -0.0084203659145910582 -0.0057264055556854026 0.2810626212223582 0.067862291379045134 -0.13272065062346655 0.10252465717757558 0.023658296161728175 0.081342849587915683 -0.0028935178193989939 -0.1018765756089573 -0.18790189890015313 0.072507629908677693 -0.04084125024985269 -0.30845511244946749 0.14763027225496755 -0.12291803289004746 -0.33115378116430516
leaf_weight=34981 499 1436 34129 380 537 405 539 383 569 702 264 3984 723 166 144 9002 176 859 2125 476 731 301 249 462 551 64 791 396 549 4609
leaf_count=34981 499 1436 34129 380 537 405 539 383 569 702 264 3984 723 166 144 9002 176 859 2125 476 731 301 249 462 551 64 791 396 549 4609
internal_value=-0.000582875 -0.0272613 0.0269473 -0.0138289 0.0206042 0.0228095 0.00853303 -0.0288782 -0.00217946 -0.00667096 -0.0215399 -0.0291052 -0.0266082 0.0158092 -0.0197812 0.0252659 -0.00625296 -0.0238967 0.0183166 0.0142513 0.0108998 -0.0100124 -0.0126019 -0.0194909 0.0072468 0.0102711 -0.0215822 0.025745 -0.0135129 -0.0279226
internal_weight=101182 51386 49796 5522 15667 13246 2421 45864 2200 1631 3322 45232 10251 3443 1658 9803 675 2757 2662 1746 1207 565 632 1321 781 615 1514 9398 929 8593
internal_count=101182 51386 49796 5522 15667 13246 2421 45864 2200 1631 3322 45232 10251 3443 1658 9803 675 2757 2662 1746 1207 565 632 1321 781 615 1514 9398 929 8593
is_linear=0
shrinkage=0.03


Tree=10
num_leaves=31
num_cat=0
split_feature=0 0 0 73 0 73 76 73 0 0 73 65 73 73 21 0 64 58 76 76 8 24 0 75 12 61 37 71 76 82
split_gain=81746.4 1256.53 1089.14 531.048 456.663 297.028 212.104 190.573 110.661 99.6245 97.4221 94.3905 94.1306 76.5158 72.0092 66.9609 63.5596 52.2954 50.8804 47.5516 40.629 38.4573 37.5304 33.9188 32.0988 31.3341 30.9611 29.1291 28.3885 25.7044
threshold=488.25000000000006 477.50000000000006 534.50000000000011 4.2500000000000009 492.50000000000006 -15.249999999999998 5.5000000000000009 23.250000000000004 484.50000000000006 461.09210526315798 3.5000000000000004 10.199153262706345 19.500000000000004 -8.1710526315789576 568.25000000000011 482.50000000000006 486.04166666666669 496.50000000000006 21.500000000000004 6.5000000000000009 444.48260869565223 471.25000000000006 496.50000000000006 21.648636062896319 456.22000000000008 7.3325757186671323 507.10434782608701 500.50000000000006 19.500000000000004 -0.81279832427823717
decision_type=2 2 2 2 2 2 2 2 2 2 2 2 2 2 2 2 2 2 2 2 2 2 2 2 2 2 2 2 2 2
left_child=1 7 4 8 6 11 21 9 19 -1 -11 17 15 23 24 -5 -8 -6 -18 -3 -19 -2 27 -10 26 -9 -12 -7 -21 -13
right_child=2 3 -4 12 5 22 16 25 13 10 14 29 -14 -15 -16 -17 18 20 -20 28 -22 -23 -24 -25 -26 -27 -28 -29 -30 -31
leaf_value=-1.1490920325601637 -0.059205175651636632 -0.20892771756018019 3.6630889174622485 -0.098112909387519376 0.032041643762472628 0.28513037149238868 0.21561789355571534 -0.33552549848198621 -0.11378732658950581 -0.37059816426553138 -0.23716588890598359 0.18308891746224845 0.15043905544486222 -0.028695279222182818 0.016466726435526196 0.021025121306542473 0.062012412223521093 0.054952187689447096 -0.023049930763728809 -0.14141894873341471 0.1046367143194476 0.020996934857515723 0.27570730558568812 0.022224339353890912 -0.2719453243209688 -0.12562717209873767 0.048792902644836426 0.094938142096563635 -0.18456796975018505 0.018197440790236497
leaf_weight=35609 374 1192 33623 551 383 515 450 349 653 6960 1015 197 527 616 109 615 853 521 172 855 2214 109 8890 54 1486 283 53 837 459 658
leaf_count=35609 374 1192 33623 551 383 515 450 349 653 6960 1015 197 527 616 109 615 853 521 172 855 2214 109 8890 54 1486 283 53 837 459 658
internal_value=-0.000635057 -0.0271796 0.026757 -0.0136551 0.0203566 0.0222276 0.00676723 -0.0288075 -0.0198399 -0.0290363 -0.026312 0.0152559 0.000334711 -0.0127998 -0.0214065 -0.00441902 0.0124167 0.0176778 0.00827193 -0.0235489 0.0191327 -0.010469 0.0249299 -0.0195297 -0.0224254 -0.0124123 -0.0184069 0.0202195 -0.0195719 0.00641005
internal_weight=101182 51386 49796 5522 16173 14215 1958 45864 3829 45232 9623 3973 1693 1323 2663 1166 1475 3118 1025 2506 2735 483 10242 707 2554 632 1068 1352 1314 855
internal_count=101182 51386 49796 5522 16173 14215 1958 45864 3829 45232 9623 3973 1693 1323 2663 1166 1475 3118 1025 2506 2735 483 10242 707 2554 632 1068 1352 1314 855
is_linear=0
shrinkage=0.03


Tree=11
num_leaves=31
num_cat=0
split_feature=0 0 0 0 73 73 76 73 83 0 83 0 83 83 65 73 76 11 72 9 58 83 83 69 83 62 57 72 0 64
split_gain=80546.7 1349.83 1012.58 646.175 479.092 361.721 268.988 192.086 167.741 88.188 82.4009 79.0527 138.002 74.9281 70.0128 69.0787 68.3605 59.4116 49.7862 45.0731 44.2957 43.5494 43.1829 40.1393 39.4534 39.3303 37.292 36.3887 35.9993 32.7355
threshold=487.50000000000006 538.50000000000011 476.50000000000006 492.50000000000006 0.48301820728295303 -20.499999999999996 5.5000000000000009 19.500000000000004 -0.97381903846659723 482.50000000000006 0.91080963307804841 459.26315789473693 -0.92794370089704259 -0.9568834025670776 10.199153262706345 -11.118421052631588 6.5000000000000009 459.04000000000002 -6.8000000000000105 443.40000000000003 495.50000000000006 0.6835516316989646 -0.90159026428466904 18.067839533158971 0.72982064943493985 466.0789473684211 6.5064070986477089 -18.978816526610668 482.50000000000006 477.45833333333343
decision_type=2 2 2 2 2 2 2 2 2 2 2 2 2 2 2 2 2 2 2 2 2 2 2 2 2 2 2 2 2 2
left_child=2 3 7 6 16 14 23 11 -6 25 22 -1 17 26 19 20 -4 -13 -17 -5 -7 28 -8 -2 27 -10 -9 -16 -18 -11
right_child=1 -3 4 5 8 15 10 13 9 29 -12 12 -14 -15 24 18 21 -19 -20 -21 -22 -23 -24 -25 -26 -27 -28 -29 -30 -31
leaf_value=-1.1446192715833581 -0.01763412112928819 3.6731962499383815 -0.187914986815681 0.038410891489374419 0.19120949600617448 0.040299835468020719 0.34139012427852067 -0.21012252186235855 0.0079617290001391429 0.066497831939851149 -0.035333228540011988 -0.094619271583358117 -0.35977121933756617 -0.41537757473988446 -0.13993395107210943 0.13526402216739283 -0.18123929015826262 -0.26288954982524954 0.283348025096536 0.08336147134585474 0.12273488843482028 -0.17903093065768019 0.058716813277992795 -0.086142024783561047 -0.001703000316124985 -0.1212179893001587 0.20494853682227415 0.11759409316667017 -0.04968508487914107 -0.028964271689476389
leaf_weight=34049 320 32712 1739 461 346 320 306 299 157 270 178 359 9183 703 64 488 591 655 9160 1512 2219 570 1320 301 482 910 74 420 473 541
leaf_count=34049 320 32712 1739 461 346 320 306 299 157 270 178 359 9183 703 64 488 591 655 9160 1512 2219 570 1320 301 482 910 74 420 473 541
internal_value=-0.000739423 0.026201 -0.0273328 0.0194865 -0.0152889 0.0217913 0.00510594 -0.0288197 -0.00447506 -0.0080133 0.0109679 -0.0291246 -0.0267903 -0.0162646 0.0123357 0.0240702 -0.0224146 -0.0162532 0.0252334 0.015576 0.0196406 -0.0179798 0.0130897 -0.0119084 0.00570527 -0.013677 -0.00536631 0.0117464 -0.0143634 -0.000550493
internal_weight=101182 50263 50919 17551 5597 15126 2425 45322 2224 1878 1804 44246 10197 1076 2939 12187 3373 1014 9648 1973 2539 1634 1626 621 966 1067 373 484 1064 811
internal_count=101182 50263 50919 17551 5597 15126 2425 45322 2224 1878 1804 44246 10197 1076 2939 12187 3373 1014 9648 1973 2539 1634 1626 621 966 1067 373 484 1064 811
is_linear=0
shrinkage=0.03


Tree=12
num_leaves=31
num_cat=0
split_feature=0 0 0 73 73 0 0 72 73 0 0 72 0 0 73 73 25 72 20 8 76 80 73 25 82 82 0 37 68 74
split_gain=79255.7 1333.34 1318.81 495.591 473.318 327.925 226.565 224.992 144.658 123.584 117.567 96.9072 96.8012 75.6977 73.6489 70.0814 67.358 59.012 53.6636 52.2411 45.9696 44.4696 40.2791 40.1413 34.0435 60.5081 31.7042 28.4927 28.1299 27.4227
threshold=488.25000000000006 542.50000000000011 477.50000000000006 4.2500000000000009 -11.118421052631588 493.50000000000006 493.50000000000006 8.5000000000000018 -30.499999999999996 483.50000000000006 456.1052631578948 9.5000000000000018 462.14473684210532 482.50000000000006 2.2500000000000004 -6.1184210526315885 470.34210526315798 -7.4999999999999991 658.08904109589059 444.48260869565223 6.5000000000000009 74.500000000000014 14.500000000000002 475.23684210526318 0.34202014332566882 -0.36243803828370164 490.50000000000006 602.37826086956534 605.20833333333337 474.07467493830052
decision_type=2 2 2 2 2 2 2 2 2 2 2 2 2 2 2 2 2 2 2 2 2 2 2 2 2 2 2 2 2 2
left_child=2 4 7 9 5 16 22 12 28 20 -9 13 -1 -5 27 23 -2 -8 -16 -10 -4 -12 26 29 25 -23 -6 -14 -7 -11
right_child=1 -3 3 11 6 8 17 10 19 15 21 -13 14 -15 18 -17 -18 -19 -20 -21 -22 24 -24 -25 -26 -27 -28 -29 -30 -31
leaf_value=-1.080280693435858 -0.045622739843502701 3.6530003624402285 -0.22683913424594265 -0.091532982426890036 0.029035468685150362 0.039098388936833428 0.10845896149508974 -0.76291624749768849 0.051156989480538186 -0.04960897285133626 -0.30885825265942285 0.1985135336315946 -0.3486870827574387 0.024915447942782405 -0.2414681359891358 -0.026360002737950479 0.043165486430021646 0.28585908266522098 0.013522050700311752 0.10328813895465544 -0.16809970243641487 -0.24040314097840051 0.25435981035256927 -0.056404364118746456 -0.2804567639755069 0.065674531392551208 0.077623980020127867 -0.070493471192548895 -0.03699963755977137 -0.11640436411874645
leaf_weight=35716 529 31854 1045 606 565 939 360 657 743 122 110 380 6107 707 2515 655 204 9470 83 3886 1143 133 382 199 210 276 741 57 123 665
leaf_count=35716 529 31854 1045 606 565 939 360 657 743 122 110 380 6107 707 2515 655 204 9470 83 3886 1143 133 382 199 210 276 741 57 123 665
internal_value=-0.000862764 0.0261087 -0.0269998 -0.0131445 0.0195651 0.0130361 0.0232049 -0.0286675 0.0154686 -0.0191193 -0.016739 0.00037013 -0.0290388 -0.00349087 -0.0261962 -0.0128788 -0.0058406 0.0249493 -0.0219304 0.0177596 -0.0237903 -0.00842055 0.0130355 -0.0179301 -0.00526935 -0.000212195 0.0105103 -0.0279898 0.00547225 -0.0209734
internal_weight=101182 49796 51386 5522 17942 6424 11518 45864 5691 3829 1386 1693 44478 1313 8762 1641 733 9830 2598 4629 2188 729 1688 986 619 409 1306 6164 1062 787
internal_count=101182 49796 51386 5522 17942 6424 11518 45864 5691 3829 1386 1693 44478 1313 8762 1641 733 9830 2598 4629 2188 729 1688 986 619 409 1306 6164 1062 787
is_linear=0
shrinkage=0.03


Tree=13
num_leaves=31
num_cat=0
split_feature=0 0 0 0 73 73 76 72 83 83 83 72 0 83 0 73 0 0 61 0 76 11 83 83 76 0 65 8 65 69
split_gain=78334.9 1563.11 1069.63 612.824 459.993 424.217 251.286 203.338 153.774 113.942 96.3141 89.7271 88.9779 136.947 79.5867 76.4351 72.649 66.2902 63.8214 63.0132 43.7669 43.6758 41.516 39.9024 39.389 36.8119 36.0105 35.9389 34.9618 33.0184
threshold=487.50000000000006 546.50000000000011 476.50000000000006 493.50000000000006 0.48301820728295303 -22.499999999999996 5.5000000000000009 8.5000000000000018 -0.97381903846659723 -0.9503235401216662 0.75894212529897775 -1.2499999999999998 457.15789473684214 -0.90159026428466904 482.50000000000006 -32.499999999999993 482.50000000000006 456.1052631578948 4.6475800156664162 491.50000000000006 5.5000000000000009 461.13913043478266 -0.90159026428466904 -0.99512551815703254 9.5000000000000018 496.50000000000006 22.288738833566274 442.31739130434789 5.2936497121242967 21.291141313025658
decision_type=2 2 2 2 2 2 2 2 2 2 2 2 2 2 2 2 2 2 2 2 2 2 2 2 2 2 2 2 2 2
left_child=2 3 7 6 16 15 19 12 -6 17 22 18 -1 21 -10 -5 -4 -9 25 -2 -18 23 -8 -14 26 -7 -13 -17 -21 -27
right_child=1 -3 4 5 8 11 10 9 14 -11 -12 24 13 -15 -16 27 20 -19 -20 28 -22 -23 -24 -25 -26 29 -28 -29 -30 -31
leaf_value=-1.1078722726327828 -0.05898974179029267 3.6634103515670211 -0.22021726240152645 0.018505546661711492 0.184184139914193 0.063304006407804536 0.3332044849182591 -0.51569921102229666 -0.10017946300849814 -0.50106931759242679 -0.0030351267806844359 0.18004372916654232 0.047083049999507978 -0.34419737213895557 -0.0018546085068715001 0.033410351567021053 -0.114712233195184 0.045451401908347289 0.093403981900894453 0.038038953735666611 -0.071531036369494247 -0.25041133301135232 0.072033051783745916 -0.19410607253739043 0.36339761223476785 0.16358331018526315 -0.14021902790803381 0.07517505086711708 -0.024016283373961753 0.093410351567021044
leaf_weight=32483 486 30973 1917 938 346 449 362 176 1067 906 384 1756 88 10058 811 473 673 268 654 125 783 824 1393 519 6176 3477 31 1486 138 962
leaf_count=32483 486 30973 1917 938 346 449 362 176 1067 906 384 1756 88 10058 811 473 673 268 654 125 783 824 1393 519 6176 3477 31 1486 138 962
internal_value=-0.000926806 0.0256412 -0.0271525 0.0189351 -0.0147744 0.0211789 0.00618795 -0.0286807 -0.00417843 -0.017185 0.0114238 0.0234138 -0.0290332 -0.0267491 -0.00756626 0.0107547 -0.0217567 -0.00471236 0.0204685 -0.008756 -0.016676 -0.0180356 0.0144003 -0.0118865 0.0254604 0.021648 0.0214916 0.014126 0.00305682 0.0224791
internal_weight=101182 50263 50919 19290 5597 16402 2888 45322 2224 1350 2139 13505 43972 11489 1878 2897 3373 444 5542 749 1456 1431 1755 607 7963 4888 1787 1959 263 4439
internal_count=101182 50263 50919 19290 5597 16402 2888 45322 2224 1350 2139 13505 43972 11489 1878 2897 3373 444 5542 749 1456 1431 1755 607 7963 4888 1787 1959 263 4439
is_linear=0
shrinkage=0.03


Tree=14
num_leaves=31
num_cat=0
split_feature=0 0 0 0 73 73 72 73 83 73 0 0 83 83 83 0 0 24 72 82 9 83 11 75 58 83 83 62 83 5
split_gain=77173.6 1679.62 1080.54 598.371 477.593 449.365 216.521 208.761 141.966 127.149 108.76 95.5075 134.562 85.9399 76.9205 76.8172 76.0402 75.3142 55.7341 54.0621 52.4198 50.6554 44.8926 43.8911 39.6446 38.0384 37.2447 35.8401 35.0259 33.7741
threshold=487.50000000000006 550.50000000000011 476.50000000000006 492.50000000000006 -17.499999999999996 0.48301820728295303 8.5000000000000018 -8.1710526315789576 -0.97381903846659723 -32.499999999999993 456.1052631578948 458.21052631578954 -0.88186879444286459 -0.94331137514050678 -0.13052619222005149 496.50000000000006 482.50000000000006 472.14035087719304 -5.1999999999999877 -0.72982064943493985 441.2347826086957 -0.81915204428899169 459.04000000000002 21.648636062896319 483.50000000000006 -0.99512551815703254 -0.87137607974597298 466.0789473684211 0.98990318592078574 454.27631578947376
decision_type=2 2 2 2 2 2 2 2 2 2 2 2 2 2 2 2 2 2 2 2 2 2 2 2 2 2 2 2 2 2
left_child=2 3 6 7 9 14 11 17 -7 -5 -8 -1 22 -12 -4 28 27 23 -17 -16 -11 -9 25 -2 -21 -13 -20 -10 -6 -28
right_child=1 -3 5 4 15 8 10 21 16 20 13 12 -14 -15 19 18 -18 -19 26 24 -22 -23 -24 -25 -26 -27 29 -29 -30 -31
leaf_value=-1.0446361044537991 -0.060607042242089619 3.6735080410200109 -0.11327465113593803 0.013508041020011205 0.11480388166580269 0.17865861571676758 -0.72499668054498445 0.26922774843808411 0.0047728550114419475 0.036961892300276987 0.037745183528724621 0.081126623148226995 -0.3300509244919641 -0.26182574800111214 -0.10360730109799732 0.14121253739997314 -0.0017989702516661055 0.036021557287561734 0.65249568386772583 -0.21342744234651775 0.07852692949412414 0.042290550359585947 -0.23956551919903177 0.040911217239322464 -0.08542238409782299 -0.18669610844312387 -0.059754211410511855 -0.110389306954917 -0.060119498884432118 0.21398348072491954
leaf_weight=33126 578 30168 840 1068 1395 346 657 376 157 626 281 78 9305 412 288 1179 811 262 2480 1591 2973 1139 930 70 654 533 42 910 35 7872
leaf_count=33126 578 30168 840 1068 1395 346 657 376 157 626 281 78 9305 412 288 1179 811 262 2480 1591 2973 1139 930 70 654 533 42 910 35 7872
internal_value=-0.00103473 0.0253356 -0.0270653 0.018614 0.0205318 -0.0146243 -0.0286013 0.00463603 -0.00415146 0.0122937 -0.0167409 -0.028965 -0.0265066 -0.00842507 -0.0215255 0.0234872 -0.0074066 -0.0067146 0.0242999 -0.0241385 0.0149908 0.0114558 -0.0182665 -0.0121988 -0.025711 -0.0119069 0.025004 -0.0126657 0.0168952 0.0239845
internal_weight=101182 50263 50919 20095 17670 5597 45322 2425 2224 4667 1350 43972 10846 693 3373 13003 1878 910 11573 2533 3599 1515 1541 648 2245 611 10394 1067 1430 7914
internal_count=101182 50263 50919 20095 17670 5597 45322 2425 2224 4667 1350 43972 10846 693 3373 13003 1878 910 11573 2533 3599 1515 1541 648 2245 611 10394 1067 1430 7914
is_linear=0
shrinkage=0.03


Tree=15
num_leaves=31
num_cat=0
split_feature=0 0 0 73 73 0 0 72 65 0 73 0 0 76 0 72 72 0 2 24 76 76 14 79 72 65 7 76 82 69
split_gain=75962.4 1798.5 1112.45 608.671 445.379 360.381 340.444 224.055 188.739 129.016 121.427 93.3096 77.0477 76.9764 72.434 66.872 61.4664 60.7752 58.9348 52.4743 51.6939 47.8798 47.6612 47.2933 42.5125 41.1392 39.0917 37.8279 36.5053 32.9923
threshold=487.50000000000006 556.50000000000011 476.50000000000006 -11.118421052631588 0.48301820728295303 492.50000000000006 496.50000000000006 7.2500000000000009 9.9132601739023567 453.22368421052641 16.250000000000004 457.15789473684214 482.50000000000006 7.5000000000000009 483.50000000000006 3.7500000000000004 -7.4999999999999991 491.50000000000006 496.50000000000006 472.14035087719304 12.500000000000002 5.5000000000000009 457.16000000000003 3.5000000000000004 1.8289473684210693 6.7554691649399254 555.50000000000011 5.5000000000000009 -0.81279832427823717 10.138524672678406
decision_type=2 2 2 2 2 2 2 2 2 2 2 2 2 2 2 2 2 2 2 2 2 2 2 2 2 2 2 2 2 2
left_child=2 3 7 5 12 19 15 11 18 -9 14 -1 -4 -13 -6 17 -8 27 26 -2 22 -14 24 -11 -15 -20 -7 -5 -10 -25
right_child=1 -3 4 6 10 8 16 9 28 23 -12 13 21 20 -16 -17 -18 -19 25 -21 -22 -23 -24 29 -26 -27 -28 -29 -30 -31
leaf_value=-1.0432970213201855 -0.056973892919602059 3.683302799789411 -0.20720792125908416 -0.024178636558072241 -0.095909601787190574 0.066629189934805877 0.11676912700867319 -0.80685089129286292 0.15195872356390508 -0.27578026509907916 0.088071313429577455 -0.3480765439714571 -0.10818845460037835 -0.28865555740502796 0.0030707017735824137 0.24107567229774418 0.28607617944597902 0.08174377735442874 0.11330279978941121 0.033693507753011713 -0.29007187416153496 -0.064657061916475411 -0.26770375744504005 -0.17705683158303145 -0.10553642535950387 0.071152233135186399 -0.016003699451562738 0.041865552555223076 0.013228075926354279 -0.0011207867038234554
leaf_weight=32207 530 29166 1917 152 1039 204 384 810 383 208 640 4847 673 498 545 893 10047 1025 2412 178 3799 783 1755 449 416 2511 147 823 1408 333
leaf_count=32207 530 29166 1917 152 1039 204 384 810 383 208 640 4847 673 498 545 893 10047 1025 2412 178 3799 783 1755 449 416 2511 147 823 1408 333
internal_value=-0.00113257 0.02503 -0.0269581 0.0183556 -0.0143349 0.0116809 0.0222482 -0.0285166 0.0137259 -0.0181216 -0.00390876 -0.028946 -0.0212054 -0.0265878 -0.00836404 0.013133 0.0247744 0.0100735 0.0165833 -0.00871227 -0.0244299 -0.015976 -0.0212011 -0.0108345 -0.0156033 0.0174303 0.00467898 0.0046998 0.00530525 -0.00742912
internal_weight=101182 50263 50919 21097 5597 7773 13324 45322 7065 1800 2224 43522 3373 11315 1584 2893 10431 2000 5274 708 6468 1456 2669 990 914 4923 351 975 1791 782
internal_count=101182 50263 50919 21097 5597 7773 13324 45322 7065 1800 2224 43522 3373 11315 1584 2893 10431 2000 5274 708 6468 1456 2669 990 914 4923 351 975 1791 782
is_linear=0
shrinkage=0.03


Tree=16
num_leaves=31
num_cat=0
split_feature=59 58 59 73 73 58 73 59 73 59 83 83 83 58 10 59 83 56 6 83 65 83 11 71 25 83 58 83 73 59
split_gain=73889.4 1780.17 1482.27 741.244 577.211 429.902 335.716 204.866 180.93 158.857 162.308 147.016 103.077 80.9566 71.1508 65.8696 63.9801 60.7664 59.2917 55.0985 53.9308 48.8296 56.7231 46.8092 44.5654 42.1539 41.5162 56.3758 40.4363 37.5557
threshold=490.50000000000006 555.50000000000011 480.50000000000006 -11.118421052631588 -1.2499999999999998 491.50000000000006 17.250000000000004 496.50000000000006 -32.499999999999993 461.09210526315798 -0.41268247579971828 -0.9503235401216662 -0.96298784033749829 483.50000000000006 471.38260869565221 486.50000000000006 -0.96298784033749829 496.50000000000006 508.50000000000006 -0.90159026428466904 26.383391240256639 -0.92794370089704259 459.04000000000002 467.1315789473685 472.14035087719304 -0.19509032201612828 506.50000000000006 0.98990318592078574 6.2894736842105496 472.11842105263162
decision_type=2 2 2 2 2 2 2 2 2 2 2 2 2 2 2 2 2 2 2 2 2 2 2 2 2 2 2 2 2 2
left_child=2 3 6 5 13 24 9 19 -7 -1 21 -6 23 25 17 -13 -9 -10 -15 -5 26 22 -11 -8 -2 -4 27 -18 -12 -14
right_child=1 -3 4 7 11 8 12 16 14 10 28 15 29 18 -16 -17 20 -19 -20 -21 -22 -23 -24 -25 -26 -27 -28 -29 -30 -31
leaf_value=-0.98199811068057952 -0.086631827446412901 3.632803715795728 -0.12791452347508994 0.41611790702236362 0.22400043172038578 0.012705957511619771 -0.18198464393661368 0.91772442280880961 -0.0034604353843457145 -0.056203436581012338 -0.31610487573474016 -0.055258692068885291 -0.39395969975994033 -0.02919759254977862 0.10219008062642103 0.026125690844048106 0.18024130185563819 0.065964701318756619 -0.10366254103838286 0.066434252227201673 0.0090788838881417176 -0.24011495555177931 -0.1973899147216906 0.11557591754625207 0.016547695819560886 -0.17708830506760478 0.25472051440603083 -0.0023786615280752699 -0.18443873656378512 -0.0987598177346075
leaf_weight=33988 526 28771 392 332 463 1217 267 2007 281 352 6565 1066 850 499 2567 661 3202 3045 463 1609 93 2637 711 209 179 1391 5858 110 623 248
leaf_count=33988 526 28771 392 332 463 1217 267 2007 281 352 6565 1066 850 499 2567 661 3202 3045 463 1609 93 2637 711 209 179 1391 5858 110 623 248
internal_value=-0.00117408 0.0248678 -0.0264112 0.0182307 -0.0107753 0.0109042 -0.0280721 0.0225634 0.0131201 -0.02855 -0.025385 0.000710634 -0.0144362 -0.019937 0.0152947 -0.00331424 0.0241147 0.0123886 -0.0128941 0.0135463 0.0230534 -0.020264 -0.0147998 -0.00276101 -0.0114263 -0.0237259 0.0232839 0.0205726 -0.0280174 -0.0194877
internal_weight=101182 49797 51385 21026 4935 7815 46450 13211 7110 44876 10888 2190 1574 2745 5893 1727 11270 3326 962 1941 9263 3700 1063 476 705 1783 9170 3312 7188 1098
internal_count=101182 49797 51385 21026 4935 7815 46450 13211 7110 44876 10888 2190 1574 2745 5893 1727 11270 3326 962 1941 9263 3700 1063 476 705 1783 9170 3312 7188 1098
is_linear=0
shrinkage=0.03


Tree=17
num_leaves=31
num_cat=0
split_feature=0 0 0 73 73 0 0 72 65 0 0 72 73 76 73 72 0 36 80 2 59 76 82 40 76 82 20 82 0 0
split_gain=73597.3 2033.28 1155.56 660.638 420.653 354.28 309.635 242.745 221.515 133.113 119.554 110.079 103.762 83.7051 66.4662 65.7493 64.6941 58.6007 55.0968 54.3668 50.5012 46.8404 45.8323 45.7043 43.2277 40.3355 39.9392 36.5288 36.4576 35.13
threshold=487.50000000000006 562.25000000000011 476.50000000000006 -11.118421052631588 0.48301820728295303 496.50000000000006 492.50000000000006 7.2500000000000009 9.9132601739023567 454.27631578947376 454.27631578947376 7.2500000000000009 6.2894736842105496 6.5000000000000009 4.2500000000000009 -7.4999999999999991 484.50000000000006 487.12173913043483 108.50000000000001 498.50000000000006 491.50000000000006 20.500000000000004 0.84915165824291639 436.3518518518519 6.5000000000000009 0.43245347597985045 678.15753424657544 -0.56457333468532389 484.50000000000006 480.50000000000006
decision_type=2 2 2 2 2 2 2 2 2 2 2 2 2 2 2 2 2 2 2 2 2 2 2 2 2 2 2 2 2 2
left_child=2 3 7 6 13 14 23 10 17 -9 -1 16 24 28 20 -7 -6 19 -11 -8 -5 29 -21 -2 -12 -13 -14 -10 -4 -15
right_child=1 -3 4 5 11 15 8 9 27 18 12 25 26 21 -16 -17 -18 -19 -20 22 -22 -23 -24 -25 -26 -27 -28 -29 -30 -31
leaf_value=-1.0125381673601617 -0.080812558391589837 3.6138196043218564 -0.19150853734926784 -0.00039969543347297072 -0.084198150798637239 0.10681979682090627 0.017404879020896259 -0.72914995449390574 0.11092701647205785 -0.23737332899880981 -0.35128802566166656 0.17733829848028845 -0.21039428470156735 -0.15596157661492441 0.17014323334657575 0.2772744518641258 0.011854531327884103 0.13683801337693693 -0.10001766219124476 0.06671194645720277 0.056472360876230136 -0.14407878373261326 0.10075663220679872 -0.0071905799797428926 -0.28152979346506013 -0.064331781422093851 0.015192422720167541 0.0076896884386030706 -0.073105426228250961 -0.060700689632271293
leaf_weight=30250 328 28170 1298 478 1247 421 461 847 595 248 4871 392 2219 406 1314 10519 462 1289 705 3154 1101 565 633 380 6121 123 61 1420 441 663
leaf_count=30250 328 28170 1298 478 1247 421 461 847 595 248 4871 392 2219 406 1314 10519 462 1289 705 3154 1101 565 633 380 6121 123 61 1420 441 663
internal_value=-0.00129742 0.0244546 -0.0267177 0.0176395 -0.0138526 0.0216486 0.0109233 -0.0283061 0.0127018 -0.0174886 -0.028753 -0.00372 -0.0263676 -0.0205296 0.0123037 0.0241182 -0.00738421 0.0158012 -0.00977673 0.014092 0.00814367 -0.0156312 0.0152764 -0.00803526 -0.0275791 0.00842442 -0.020516 0.00418006 -0.025119 -0.0119131
internal_weight=101182 50263 50919 22093 5597 13833 8260 45322 7552 1800 43522 2224 13272 3373 2893 10940 1709 5537 953 4248 1579 1634 3787 708 10992 515 2280 2015 1739 1069
internal_count=101182 50263 50919 22093 5597 13833 8260 45322 7552 1800 43522 2224 13272 3373 2893 10940 1709 5537 953 4248 1579 1634 3787 708 10992 515 2280 2015 1739 1069
is_linear=0
shrinkage=0.03


Tree=18
num_leaves=31
num_cat=0
split_feature=0 0 0 73 73 0 72 0 73 0 0 0 72 76 0 72 76 76 72 36 75 12 79 58 10 20 76 7 73 69
split_gain=72380.2 1965.84 1433.97 669.963 459.904 294.525 257.726 202.749 219.088 130.105 127.779 117.854 110.57 108.553 89.3429 88.8014 70.759 66.0983 60.1126 57.5264 50.6695 49.6613 48.5803 42.8142 42.7356 40.4102 38.2011 37.8892 36.6355 34.8369
threshold=488.25000000000006 566.50000000000011 476.50000000000006 -13.249999999999998 0.48301820728295303 496.50000000000006 7.2500000000000009 493.50000000000006 -32.499999999999993 454.27631578947376 453.22368421052641 482.50000000000006 9.5000000000000018 7.5000000000000009 484.50000000000006 -1.2499999999999998 5.5000000000000009 15.500000000000002 3.7500000000000004 494.18695652173921 2.8436611846236137 471.38260869565221 3.5000000000000004 490.50000000000006 479.46086956521748 572.50000000000011 6.5000000000000009 553.50000000000011 -8.1710526315789576 10.259915838569013
decision_type=2 2 2 2 2 2 2 2 2 2 2 2 2 2 2 2 2 2 2 2 2 2 2 2 2 2 2 2 2 2
left_child=2 3 6 7 11 18 9 27 -9 -1 -8 26 14 -11 -6 21 24 25 23 20 -10 -7 -12 -5 -13 -15 -4 -2 -27 -24
right_child=1 -3 4 5 12 15 10 8 19 13 22 16 -14 17 -16 -17 -18 -19 -20 -21 -22 -23 29 -25 -26 28 -28 -29 -30 -31
leaf_value=-0.9821620223393569 0.0043971158452202983 3.6254050161922007 -0.18993377834880448 0.024851429398129881 -0.076424603717736656 0.13202257284092866 -0.74205332860888285 0.0120940881331137 0.05379307998185396 -0.32509977383274163 -0.25156910464088894 -0.12017745811003237 0.17227016453944941 -0.23466138199045047 0.020695402486943806 0.32153404507449296 -0.044433392349031917 -0.28670584592138426 0.23792107307407717 0.14540501619220095 0.083225124083335794 0.16487620804169409 -0.16002262796577213 0.066809425245139664 -0.040159502020383681 -0.32199738145521334 -0.16606971992694183 -0.056683157591114648 -0.092036402112030083 0.0079755448598385209
leaf_weight=30250 330 27428 1011 802 1344 1591 810 1537 3010 5754 208 515 419 3716 650 8373 933 3417 794 967 1552 1987 454 1145 286 101 906 280 284 328
leaf_count=30250 330 27428 1011 802 1344 1591 810 1537 3010 5754 208 515 419 3716 650 8373 933 3417 794 967 1552 1987 454 1145 286 101 906 280 284 328
internal_value=-0.00138933 0.0243857 -0.0263669 0.0177834 -0.0126623 0.0215366 -0.0282002 0.0105975 0.0120301 -0.0286606 -0.0170555 -0.0193776 -0.00249669 -0.0261732 -0.00544211 0.0235715 -0.0136928 -0.0237873 0.0126575 0.014815 0.0133984 0.0195968 -0.00980525 0.00980852 -0.0202332 -0.0212011 -0.0245083 -0.00598527 -0.0118834 -0.00635632
internal_weight=101182 49796 51386 22368 6064 14692 45322 7676 7066 43522 1800 3651 2413 13272 1994 11951 1734 7518 2741 5529 4562 3578 990 1947 801 4101 1917 610 385 782
internal_count=101182 49796 51386 22368 6064 14692 45322 7676 7066 43522 1800 3651 2413 13272 1994 11951 1734 7518 2741 5529 4562 3578 990 1947 801 4101 1917 610 385 782
is_linear=0
shrinkage=0.03


Tree=19
num_leaves=31
num_cat=0
split_feature=1 1 1 1 73 73 76 72 72 83 65 83 1 83 62 76 83 1 80 59 82 65 83 83 65 83 69 83 1 82
split_gain=71362.7 2371.22 941.823 688.237 637.755 449.763 252.679 203.84 178.177 144.9 128.941 106.656 102.791 136.963 96.0504 85.8278 82.3968 69.9847 62.3974 61.2974 58.6451 55.2839 53.6137 53.1285 52.4676 47.106 43.4167 43.3991 42.6738 37.3971
threshold=486.50000000000006 568.40000000000009 473.17105263157902 492.50000000000006 -22.499999999999996 0.48301820728295303 5.5000000000000009 7.2500000000000009 0.31355042016809881 -0.94331137514050678 11.743470139325774 -0.9503235401216662 452.17105263157902 -0.45201865172701755 508.50000000000006 6.5000000000000009 0.7729644631059297 481.50000000000006 108.50000000000001 451.11842105263162 0.60003553868615167 4.5092497531626519 0.72982064943493985 -0.90159026428466904 6.9210920493063082 0.43245347597985034 18.067839533158971 0.79989897227935902 479.50000000000006 0.87137607974597342
decision_type=2 2 2 2 2 2 2 2 2 2 2 2 2 2 2 2 2 2 2 2 2 2 2 2 2 2 2 2 2 2
left_child=2 3 7 6 10 15 26 12 14 18 27 19 -1 -14 21 -4 23 -11 -7 -9 -10 -6 -12 -8 -16 28 -2 -5 -17 -22
right_child=1 -3 5 4 8 9 16 11 20 17 22 -13 13 -15 24 25 -18 -19 -20 -21 29 -23 -24 -25 -26 -27 -28 -29 -30 -31
leaf_value=-0.98269716166917587 -0.016100879797608911 3.5466428657064353 -0.18405246281537813 0.079894939826282318 0.10261351966538086 -0.036463018135032145 0.2778820722395437 -0.58857738362253686 0.37542677927439483 -0.11870124005269872 0.074519370366151624 -0.46549545276789783 -0.24112868468456666 -0.32269716166917589 0.15760011598552637 -0.17176583041925028 -0.015487592702978076 -0.027380370438888517 0.20222955680738608 0.01691049817911704 0.13788315320137029 0.059412049197623558 -0.02335713429356474 0.050417831297971817 0.1110428657064358 -0.16803150110732418 -0.076968795178859184 0.034012894573923799 -0.070562253757697702 0.2035087145413155
leaf_weight=28931 414 27101 2156 1391 1853 267 369 164 6704 1399 605 1168 4213 8660 4348 680 370 742 333 336 528 1681 604 1394 947 761 357 1580 630 496
leaf_count=28931 414 27101 2156 1391 1853 267 369 164 6704 1399 605 1168 4213 8660 4348 680 370 742 333 336 528 1681 604 1394 947 761 357 1580 630 496
internal_value=-0.00147887 0.0236402 -0.0267484 0.0166952 0.0186106 -0.0165041 0.00301446 -0.02839 0.0212542 -0.00703392 0.00813609 -0.0180809 -0.0288008 -0.0265579 0.018336 -0.0226412 0.00833505 -0.0106849 0.00598502 -0.00646108 0.0245849 0.0144942 -0.000121488 0.0110357 0.0208963 -0.0182563 -0.011693 0.0114963 -0.0147803 0.0178507
internal_weight=101182 50742 50440 23641 20737 6968 2904 43472 16557 2741 4180 1668 41804 12873 8829 4227 2133 2141 600 500 7728 3534 1209 1763 5295 2071 771 2971 1310 1024
internal_count=101182 50742 50440 23641 20737 6968 2904 43472 16557 2741 4180 1668 41804 12873 8829 4227 2133 2141 600 500 7728 3534 1209 1763 5295 2071 771 2971 1310 1024
is_linear=0
shrinkage=0.03


Tree=20
num_leaves=31
num_cat=0
split_feature=0 0 0 73 73 0 0 73 73 83 0 83 38 83 76 0 83 83 76 0 65 80 76 62 0 83 65 0 4 61
split_gain=70160.4 2520.83 961.132 734.022 442.638 406.905 371.686 311.094 213.329 141.994 118.793 106.604 92.9306 87.6954 82.6453 78.7942 110.315 74.9816 74.2436 68.3563 60.4579 59.8331 56.5358 57.9263 55.4095 52.7108 51.7205 49.328 42.2752 38.5955
threshold=486.50000000000006 572.20000000000016 473.17105263157902 -8.1710526315789576 0.48301820728295303 492.50000000000006 496.50000000000006 -32.499999999999993 11.250000000000002 -0.94331137514050678 451.11842105263162 -0.9503235401216662 507.10434782608701 -0.81915204428899169 6.5000000000000009 452.17105263157902 -0.41268247579971828 -0.9568834025670776 5.5000000000000009 481.50000000000006 26.383391240256639 108.50000000000001 22.500000000000004 495.50000000000006 491.50000000000006 0.72982064943493985 7.9696393593854813 480.50000000000006 579.30000000000007 8.0353386157584499
decision_type=2 2 2 2 2 2 2 2 2 2 2 2 2 2 2 2 2 2 2 2 2 2 2 2 2 2 2 2 2 2
left_child=2 3 8 5 14 18 13 25 15 21 -10 -12 22 -5 -4 -1 -17 -8 -2 -11 28 -6 23 -9 -15 29 -25 -16 -19 -7
right_child=1 -3 4 6 9 7 17 12 10 19 11 -13 -14 24 27 16 -18 20 -20 -21 -22 -23 -24 26 -26 -27 -28 -29 -30 -31
leaf_value=-0.98321624681910003 -0.047577379025842671 3.5602435797352427 -0.17853088893091693 0.27202552829114207 -0.035369127590981861 0.099712475348225943 0.8010433966532875 0.019389332036652149 -0.72153058918486013 -0.11514020285111769 -0.066496990198295969 -0.21182502958199534 0.14125338634854587 0.019949644928772728 -0.18820425757047474 -0.24237741779497751 -0.31490382218730528 0.22786692374741505 0.0078447621074616333 -0.026558959325721786 -0.046991916362858883 0.19616267010316504 0.02000745455178304 0.089723138544109696 0.088224545215061873 -0.016073194946491183 0.05530627580273062 -0.080143443757871177 -0.088338446514075034 -0.01433979007151521
leaf_weight=28208 593 26417 2156 743 267 462 2118 505 1419 1399 550 1294 1426 1147 1172 3733 8268 8589 497 742 86 333 552 3421 977 989 1899 899 31 290
leaf_count=28208 593 26417 2156 743 267 462 2118 505 1419 1399 550 1294 1426 1147 1172 3733 8268 8589 497 742 86 333 552 3421 977 989 1899 899 31 290
internal_value=-0.00159036 0.0233163 -0.0266461 0.0163466 -0.0162975 0.0104313 0.0209397 0.0124146 -0.0283044 -0.00690263 -0.020909 -0.0158683 0.0149727 0.0113274 -0.0223858 -0.0289039 -0.0268528 0.0234842 -0.00692667 -0.0105168 0.0222438 0.00598502 0.0134191 0.0142889 0.00821506 0.000945465 0.0152109 -0.0180825 0.0224936 0.00692829
internal_weight=101182 50742 50440 24325 6968 10634 13691 9544 43472 2741 3263 1844 7803 2867 4227 40209 12001 10824 1090 2141 8706 600 6377 5825 2124 1741 5320 2071 8620 752
internal_count=101182 50742 50440 24325 6968 10634 13691 9544 43472 2741 3263 1844 7803 2867 4227 40209 12001 10824 1090 2141 8706 600 6377 5825 2124 1741 5320 2071 8620 752
is_linear=0
shrinkage=0.03


Tree=21
num_leaves=31
num_cat=0
split_feature=0 0 0 73 73 0 0 73 73 73 0 83 72 38 83 0 83 0 24 0 83 75 83 82 56 65 0 65 83 7
split_gain=68987.4 2637.76 1000.36 759.28 432.93 380.983 380.846 321.248 225.709 140.429 125.686 109.039 95.9452 94.9912 88.2942 86.3706 116.912 82.8375 75.2137 62.0518 61.0577 60.9971 57.8194 53.343 49.7581 56.4327 48.7206 45.0902 41.1579 40.4859
threshold=486.50000000000006 576.50000000000011 473.17105263157902 -8.1710526315789576 0.48301820728295303 496.50000000000006 492.50000000000006 -32.499999999999993 11.250000000000002 19.500000000000004 451.11842105263162 -0.9568834025670776 -5.1999999999999877 507.10434782608701 -0.89194178735545482 452.17105263157902 -0.41268247579971828 482.50000000000006 472.14035087719304 481.50000000000006 -0.96298784033749829 5.6445369517652191 -0.25881904510252068 -0.56457333468532389 509.50000000000006 7.7733031863459212 490.50000000000006 12.339576634420204 0.46174861323503374 515.50000000000011
decision_type=2 2 2 2 2 2 2 2 2 2 2 2 2 2 2 2 2 2 2 2 2 2 2 2 2 2 2 2 2 2
left_child=2 3 8 6 17 14 18 23 15 19 -10 -12 -7 21 -5 -1 -17 22 28 -6 -14 24 -4 -8 -9 -26 -16 -25 -2 -19
right_child=1 -3 4 5 9 12 7 13 10 -11 11 -13 20 -15 26 16 -18 29 -20 -21 -22 -23 -24 27 25 -27 -28 -29 -30 -31
leaf_value=-0.95371975941452714 -0.0065119475503837522 3.5434362723431851 -0.14901349653317708 0.31066271369752313 -0.10992634509473533 0.11805691753268605 0.093436272343185467 0.027302920431399116 -0.69988467150931455 0.075979872146171482 -0.059957727112915221 -0.20520355165008708 0.83371089293855727 0.13978824886116967 0.017348332222435942 -0.23510609526112886 -0.30545670752168574 -0.048095172497031054 0.030325226941487812 -0.025346487869929886 0.23327923966993921 0.078921934990597714 -0.19918776732593699 0.012687900035878101 0.10090206168350818 0.045316196928913539 0.084263406142411554 -0.033774896574594773 -0.061037325889907373 -0.097501499349656906
leaf_weight=28208 268 25762 693 593 1442 758 582 1451 1419 558 509 1335 2022 1491 989 3733 8268 633 305 741 8367 2201 2365 590 1486 1361 1285 714 517 536
leaf_count=28208 268 25762 693 593 1442 758 582 1451 1419 558 509 1335 2022 1491 989 3733 8268 633 305 741 8367 2201 2365 590 1486 1361 1285 714 517 536
internal_value=-0.00166507 0.0230325 -0.0265105 0.0160849 -0.0159531 0.0207119 0.0101702 0.0120276 -0.0282023 -0.00666193 -0.0205965 -0.015413 0.0232209 0.0146561 0.0109508 -0.0288189 -0.0266728 -0.0219742 -0.0066517 -0.0100948 0.0239737 0.0130842 -0.0245757 0.000888712 0.0109972 0.013303 0.00825363 -0.00248046 -0.0115611 -0.0151513
internal_weight=101182 50742 50440 24980 6968 14014 10966 9876 43472 2741 3263 1844 11147 7990 2867 40209 12001 4227 1090 2183 10389 6499 3058 1886 4298 2847 2274 1304 785 1169
internal_count=101182 50742 50440 24980 6968 14014 10966 9876 43472 2741 3263 1844 11147 7990 2867 40209 12001 4227 1090 2183 10389 6499 3058 1886 4298 2847 2274 1304 785 1169
is_linear=0
shrinkage=0.03


Tree=22
num_leaves=31
num_cat=0
split_feature=0 0 0 73 73 0 0 73 72 72 83 72 0 38 83 0 83 83 83 24 0 83 75 0 83 0 69 0 2 65
split_gain=67596 2758.01 1020.82 773.43 496.362 370.46 361.306 330.993 166.088 141.348 127.368 103.281 100.615 96.2699 96.1789 87.2357 115.969 83.5442 71.8534 67.1221 66.7676 65.3931 60.0117 56.3538 53.8891 48.2881 46.4886 46.2656 45.5435 54.7534
threshold=486.50000000000006 580.50000000000011 469.23684210526318 -8.1710526315789576 3.5000000000000004 496.50000000000006 492.50000000000006 -32.499999999999993 7.2500000000000009 6.2500000000000009 -0.34202014332566899 -6.8000000000000105 482.50000000000006 507.10434782608701 -0.9503235401216662 448.23684210526318 -0.45201865172701755 -0.96863394805116487 -0.96298784033749829 472.14035087719304 481.50000000000006 -0.9568834025670776 5.6445369517652191 490.50000000000006 0.72982064943493985 480.50000000000006 5.3939266256273939 522.50000000000011 509.50000000000006 7.7733031863459212
decision_type=2 2 2 2 2 2 2 2 2 2 2 2 2 2 2 2 2 2 2 2 2 2 2 2 2 2 2 2 2 2
left_child=2 3 8 6 10 17 19 24 15 20 25 -7 -12 22 26 -1 -17 -5 -13 -2 -6 -11 28 -19 -8 -4 -10 -20 -9 -30
right_child=1 -3 4 5 9 11 7 13 14 21 12 18 -14 -15 -16 16 -18 23 27 -21 -22 -23 -24 -25 -26 -27 -28 -29 29 -31
leaf_value=-0.98510816663209133 -0.044932246176471721 3.5271331841728886 -0.14912538059396013 0.41518072994950866 -0.11846659905316187 0.096512986048336982 0.060633184172889966 0.026722986866643338 -0.49773857201791682 0.19764504816697012 -0.19944654122759914 0.8190009031504013 -0.078207320820495169 0.13713318417288861 -0.46267543610896694 -0.25549406616427744 -0.32440543092783114 0.018830705614237216 0.17421300867521666 0.029415470133242819 -0.018962331618166104 -0.033248055739787785 0.077432305716269523 0.08541123837910447 -0.012866815827111395 -0.058283484557069581 -0.018762108979553885 0.28635791867128718 0.097748236739346336 0.044130231373102333
leaf_weight=26220 785 25132 1131 368 1537 566 878 1448 114 327 3918 2089 1046 1538 1062 4406 8859 1073 4366 305 543 546 2246 1426 1161 414 317 4422 1541 1398
leaf_count=26220 785 25132 1131 368 1537 566 878 1448 114 327 3918 2089 1046 1538 1062 4406 8859 1073 4366 305 543 546 2246 1426 1161 414 317 4422 1541 1398
internal_value=-0.00177893 0.0226683 -0.0263725 0.0157384 -0.0174867 0.0203715 0.00986966 0.0116225 -0.0284238 -0.00728064 -0.0221147 0.0227881 -0.0244586 0.0143205 -0.0185723 -0.0287957 -0.0267999 0.0107207 0.0234388 -0.0065417 -0.0115315 0.00284554 0.0127475 0.0087468 0.000807353 -0.0145712 -0.00659028 0.0222411 0.010699 0.0128459
internal_weight=101182 50742 50440 25610 9462 14310 11300 10210 40978 2953 6509 11443 4964 8171 1493 39485 13265 2867 10877 1090 2080 873 6633 2499 2039 1545 431 8788 4387 2939
internal_count=101182 50742 50440 25610 9462 14310 11300 10210 40978 2953 6509 11443 4964 8171 1493 39485 13265 2867 10877 1090 2080 873 6633 2499 2039 1545 431 8788 4387 2939
is_linear=0
shrinkage=0.03


Tree=23
num_leaves=31
num_cat=0
split_feature=1 1 1 72 72 1 65 83 1 72 65 83 1 76 1 1 1 76 1 83 83 83 58 83 83 72 83 69 1 10
split_gain=66577.6 2860.76 1048.68 739.563 521.663 438.336 517.176 209.189 205.234 140.488 132.392 118.661 115.926 114.953 106.581 78.5102 75.8248 74.382 71.5362 103.271 68.6181 66.9381 64.4695 59.0617 56.5283 51.2362 47.504 46.9658 42.0827 40.7661
threshold=486.50000000000006 584.50000000000011 467.1315789473685 0.52631578947367086 3.7500000000000004 495.50000000000006 7.7733031863459212 -0.19509032201612828 493.50000000000006 6.2500000000000009 11.743470139325774 -0.89194178735545482 482.50000000000006 5.5000000000000009 479.50000000000006 451.11842105263162 508.50000000000006 8.5000000000000018 447.18421052631584 -0.45201865172701755 -0.96863394805116487 -0.92794370089704259 491.50000000000006 0.78661891169205844 0.82531082829576863 8.5000000000000018 -0.81279832427823695 15.166562008658063 482.50000000000006 498.25000000000006
decision_type=2 2 2 2 2 2 2 2 2 2 2 2 2 2 2 2 2 2 2 2 2 2 2 2 2 2 2 2 2 2
left_child=2 3 9 5 7 13 16 14 26 18 23 25 -9 22 -4 -11 -7 -12 -1 -20 -10 -17 -2 -8 -15 -6 -5 -14 -13 -18
right_child=1 -3 4 8 11 6 10 12 20 15 17 28 27 24 -16 21 29 -19 19 -21 -22 -23 -24 -25 -26 -27 -28 -29 -30 -31
leaf_value=-0.95555492163312916 -0.04573275592784512 3.5113191886477031 -0.14958956972555995 0.25389275010593565 -0.023768004925400134 0.075651997471404109 0.089790064833794078 -0.19763364211078566 0.85651453302677505 -0.71555492163312917 -0.025164476284761577 -0.11875915156203433 -0.050839361574246025 0.046438625704100782 -0.049767451067997112 -0.052316306557248136 0.13036579375716201 0.058814188647704664 -0.26347397375202886 -0.32422263970615006 0.25852670613174894 -0.24644056867743558 0.0021417612720841814 0.027801782875204139 -0.021565702209175582 0.18862160178631371 0.039535401165275916 -0.11898891303425245 0.0066072879455788321 0.16630504440619717
leaf_weight=25204 580 24506 2146 413 394 2591 1691 4549 2006 1047 842 1060 738 1288 888 307 4584 1124 4118 8507 6528 532 434 1760 319 379 842 308 263 1234
leaf_count=25204 580 24506 2146 413 394 2591 1691 4549 2006 1047 842 1060 738 1288 888 307 4584 1124 4118 8507 6528 532 434 1760 319 379 842 308 263 1234
internal_value=-0.00184 0.0224223 -0.0262476 0.0155367 -0.0179197 0.0116493 0.0137815 -0.0211804 0.0220661 -0.028496 0.00654983 -0.0044907 -0.0246224 0.000399314 -0.014826 -0.0204754 0.0184384 0.000334011 -0.0288952 -0.0270368 0.0237325 -0.0136036 -0.00750443 0.0100889 0.00538993 0.00484109 0.0107221 -0.0155845 -0.00994486 0.0203432
internal_weight=101182 50742 50440 26236 10725 16447 13826 8629 9789 39715 5417 2096 5595 2621 3034 1886 8409 1966 37829 12625 8534 839 1014 3451 1607 773 1255 1046 1323 5818
internal_count=101182 50742 50440 26236 10725 16447 13826 8629 9789 39715 5417 2096 5595 2621 3034 1886 8409 1966 37829 12625 8534 839 1014 3451 1607 773 1255 1046 1323 5818
is_linear=0
shrinkage=0.03


Tree=24
num_leaves=31
num_cat=0
split_feature=0 0 0 0 71 83 76 83 0 0 0 83 0 83 82 83 83 67 21 83 61 61 12 71 63 10 48 12 69 69
split_gain=65397.1 2939.38 1062.26 622.205 556.954 509.492 213.601 207.405 175.03 163.24 152.276 140.837 124.991 182.652 112.14 106.972 101.116 92.8281 77.386 76.6156 75.8676 71.2421 62.3326 61.2373 55.9329 55.4309 53.2871 51.6813 50.0223 49.6804
threshold=486.50000000000006 588.30000000000007 466.0789473684211 493.50000000000006 619.25000000000011 -0.3725607353243956 5.5000000000000009 -0.9568834025670776 480.50000000000006 507.50000000000006 482.50000000000006 0.78661891169205844 449.01315789473693 -0.87137607974597298 -0.4904943844596939 0.96298784033749862 -0.94331137514050678 509.50000000000006 640.50000000000011 0.75894212529897775 4.2739521134728617 11.396636907549658 495.03478260869571 534.50000000000011 488.25000000000006 443.40000000000003 442.24561403508778 470.30000000000007 42.305052336806376 17.608743766944666
decision_type=2 2 2 2 2 2 2 2 2 2 2 2 2 2 2 2 2 2 2 2 2 2 2 2 2 2 2 2 2 2
left_child=2 3 12 6 7 8 29 -5 16 17 14 21 -1 18 -7 27 20 -9 -14 -8 -4 -6 28 -12 -10 -17 -19 -11 -13 -2
right_child=1 -3 5 4 11 10 19 9 24 15 23 22 13 -15 -16 25 -18 26 -20 -21 -22 -23 -24 -25 -26 -27 -28 -29 -30 -31
leaf_value=-0.89688827398413595 -0.0098224268225669664 3.4959796129882728 -0.097010257618771897 0.72896881701958527 0.10915303485291815 -0.1347821212027884 0.074806788920388376 0.13059352154485565 0.031386167885473812 0.18767091704084121 -0.047080232272361966 0.011859214023357935 -0.21534697291506488 -0.30322261586484556 -0.20757780855827263 -0.011213756241727423 -0.14482952249474179 -0.0045457419051365376 0.13817053362212392 -0.012755453934126422 0.083469983213946081 -0.044196456704664225 0.069993675047173839 -0.11973828765696111 -0.11267856356842855 0.075117901766990944 0.055258836409122977 0.19988031057441161 -0.048480164001036316 -0.060131150918433032
leaf_weight=27551 470 23918 594 2528 2257 1669 2033 2646 830 4575 941 1623 1748 9717 4144 188 2331 393 90 435 277 252 223 309 239 1212 1991 5283 286 429
leaf_count=27551 470 23918 594 2528 2257 1669 2033 2646 830 4575 941 1623 1748 9717 4144 188 2331 393 90 435 277 252 223 309 239 1212 1991 5283 286 429
internal_value=-0.0019503 0.022096 -0.0261406 0.0152767 0.0170077 -0.01805 0.00321467 0.0193037 -0.00986587 0.0180599 -0.0229965 0.00769647 -0.0284848 -0.0258538 -0.0250408 0.020069 -0.013374 0.0135593 -0.0171599 0.00777521 -0.00464106 0.0125127 0.00202391 -0.0134748 0.000642056 0.0122891 0.0092566 0.0211722 0.000265445 -0.00929667
internal_weight=101182 50742 50440 26824 23457 11334 3367 18816 4271 16288 7063 4641 39106 11555 5813 11258 3202 5030 1838 2468 871 2509 2132 1250 1069 1400 2384 9858 1909 899
internal_count=101182 50742 50440 26824 23457 11334 3367 18816 4271 16288 7063 4641 39106 11555 5813 11258 3202 5030 1838 2468 871 2509 2132 1250 1069 1400 2384 9858 1909 899
is_linear=0
shrinkage=0.03


Tree=25
num_leaves=31
num_cat=0
split_feature=0 0 0 72 72 0 65 83 0 72 65 0 83 76 0 0 59 38 76 0 83 83 70 80 83 83 7 83 82 78
split_gain=64175.6 3039.36 1130.59 787.2 515.926 414.834 513.602 220.922 206.805 152.78 124.631 123.089 113.529 104.553 102.715 79.0559 78.8129 78.7939 78.3764 75.3291 107.95 68.9042 59.943 58.6762 58.45 55.4903 53.3943 48.9489 46.3957 41.5134
threshold=486.50000000000006 590.20000000000016 466.0789473684211 0.52631578947367086 3.7500000000000004 495.50000000000006 7.7733031863459212 -0.23768589232617318 497.50000000000006 6.2500000000000009 12.339576634420204 480.50000000000006 -0.90159026428466904 5.5000000000000009 479.50000000000006 508.50000000000006 449.01315789473693 507.10434782608701 8.5000000000000018 447.18421052631584 -0.45201865172701755 -0.96863394805116487 490.50000000000006 88.500000000000014 -0.97381903846659723 -0.92794370089704259 535.50000000000011 0.82531082829576863 -0.4904943844596939 4.5000000000000009
decision_type=2 2 2 2 2 2 2 2 2 2 2 2 2 2 2 2 2 2 2 2 2 2 2 2 2 2 2 2 2 2
left_child=2 3 9 5 7 13 15 14 21 19 17 28 23 22 -4 -7 -11 -8 -12 -1 29 -5 -2 -6 -10 -18 -13 -15 -9 -21
right_child=1 -3 4 8 12 6 10 11 24 16 18 26 -14 27 -16 -17 25 -19 -20 20 -22 -23 -24 -25 -26 -27 -28 -29 -30 -31
leaf_value=-0.89998162576461194 -0.052330966481574134 3.4211002245986228 -0.14230540058362975 0.40629223073591614 -0.077870232654229307 0.070361324954531027 0.039285681480769198 -0.15203322477703124 0.89206694057119307 -0.72116895004606418 -0.028899775401376927 -0.062707435573566672 -0.093134335682270253 0.043005422190406643 -0.044974565118222926 0.13187475285590949 -0.055974939240204545 0.17586027640324486 0.058743420992326489 -0.23296241175374746 -0.30539928203902034 0.075351678574224368 -0.00021131838871099262 0.13490358826082371 0.26479023611156433 -0.24498191017689974 -0.14463294684257619 -0.020707939311063229 -0.21130680147070108 -0.27647307606352284
leaf_weight=25204 501 23612 2244 358 207 2591 3430 1081 1832 951 755 1238 1409 1288 854 6033 328 482 1118 2625 8140 1557 513 596 6353 558 408 319 3297 1300
leaf_count=25204 501 23612 2244 358 207 2591 3430 1081 1832 951 755 1238 1409 1288 854 6033 328 482 1118 2625 8140 1557 513 596 6353 558 408 319 3297 1300
internal_value=-0.00202027 0.0218004 -0.0259836 0.0149496 -0.0176371 0.0110127 0.0130095 -0.0207889 0.0215857 -0.028402 0.00609177 -0.0241389 -0.00463488 3.31808e-05 -0.0142682 0.0176483 -0.0199276 0.009138 -0.000270544 -0.0288191 -0.0268545 0.0126968 -0.00750443 0.00436194 0.0236632 -0.0134577 -0.0171202 0.00479291 -0.0267726 -0.0227476
internal_weight=101182 50742 50440 27130 11334 17030 14409 9122 10100 39106 5785 6024 2212 2621 3098 8624 1837 3912 1873 37269 12065 1915 1014 803 8185 886 1646 1607 4378 3925
internal_count=101182 50742 50440 27130 11334 17030 14409 9122 10100 39106 5785 6024 2212 2621 3098 8624 1837 3912 1873 37269 12065 1915 1014 803 8185 886 1646 1607 4378 3925
is_linear=0
shrinkage=0.03


Tree=26
num_leaves=31
num_cat=0
split_feature=59 56 59 72 72 62 65 72 59 83 59 83 59 62 65 69 83 56 65 83 62 38 83 82 6 10 78 72 83 82
split_gain=62217.9 2958.32 1377.16 963.163 498.217 449.226 451.566 340.443 200.034 200.982 178.538 167.902 156.82 121.874 119.816 99.526 95.9631 88.9781 81.8623 77.5909 76.0842 75.6692 69.2877 51.7669 50.3301 49.4322 47.9003 47.7011 47.3066 46.5112
threshold=489.50000000000006 601.50000000000011 476.50000000000006 -1.0000000180025095e-35 2.7500000000000004 491.50000000000006 7.7733031863459212 6.2500000000000009 453.22368421052641 -0.3927150611119134 512.50000000000011 1.0000000180025095e-35 449.01315789473693 507.50000000000006 12.134348941952245 19.050673861097891 -0.9503235401216662 484.16666666666669 5.5996482575876518 -0.79989897227935869 478.50000000000006 507.10434782608701 0.34202014332566855 -0.43245347597985068 510.50000000000006 444.48260869565223 4.5000000000000009 -18.978816526610668 -0.92794370089704259 -0.4904943844596939
decision_type=2 2 2 2 2 2 2 2 2 2 2 2 2 2 2 2 2 2 2 2 2 2 2 2 2 2 2 2 2 2
left_child=2 3 7 5 11 15 13 8 -1 26 19 20 -9 -7 21 -2 -14 -13 -6 -5 -4 25 27 -21 -19 -8 28 -16 -10 -11
right_child=1 -3 4 10 18 6 14 12 9 29 -12 17 16 -15 22 -17 -18 24 -20 23 -22 -23 -24 -25 -26 -27 -28 -29 -30 -31
leaf_value=-0.81298217699167363 -0.00099370697299889349 3.5584672178606649 -0.12591599216174926 0.34672646733736256 -0.034208262439072996 0.05409676949502909 0.010976886669565146 -0.69953388154468144 -0.12819199280369389 -0.21161593364399209 0.38530493235405627 -0.15591890753774493 0.012282752531937717 0.12512037214995531 -0.099868365549031626 -0.093722162735292894 -0.18471517944800211 -0.031186166466950452 0.11785153943807358 0.14072698263643529 -0.029784200722094169 0.16870637782898029 -0.022993234484513892 0.06834153169644025 -0.10463131771498638 0.047311774512630224 -0.21990073701424478 0.1142150160707294 -0.20510076662510129 -0.27144172031198083
leaf_weight=28096 1113 22253 982 1367 970 2902 974 951 953 2425 7521 2234 479 5640 220 452 961 537 709 1563 893 506 1096 1283 316 2588 1300 810 2468 6620
leaf_count=28096 1113 22253 982 1367 970 2902 974 951 953 2425 7521 2234 479 5640 220 452 961 537 709 1563 893 506 1096 1283 316 2588 1300 810 2468 6620
internal_value=-0.0021448 0.0215211 -0.025529 0.0150373 -0.0127864 0.0103182 0.0119412 -0.0274408 -0.0280701 -0.0250989 0.0215916 -0.0175654 -0.016416 0.0164131 0.00577191 -0.00495977 -0.0101575 -0.0218676 0.0013375 0.0166367 -0.0104728 0.00878766 0 0.013803 -0.0135913 0.00724025 -0.0200693 0.0055839 -0.0181902 -0.0277213
internal_weight=101182 50288 50894 28035 6641 16301 14736 44253 41862 13766 11734 4962 2391 8542 6194 1565 1440 3087 1679 4213 1875 4068 2126 2846 853 3562 4721 1030 3421 9045
internal_count=101182 50288 50894 28035 6641 16301 14736 44253 41862 13766 11734 4962 2391 8542 6194 1565 1440 3087 1679 4213 1875 4068 2126 2846 853 3562 4721 1030 3421 9045
is_linear=0
shrinkage=0.03


Tree=27
num_leaves=31
num_cat=0
split_feature=0 0 0 73 73 0 58 73 73 0 72 72 83 83 35 0 83 83 7 0 83 0 83 0 83 78 83 59 69 61
split_gain=61912 3220.17 1176.67 895.472 552.719 338.481 312.137 338.421 163.533 158.718 125.826 107.304 104.024 97.7492 96.2055 89.0797 87.7868 84.4391 82.4605 79.4452 100.479 75.7281 74.8024 69.1638 62.1961 56.025 55.4848 54.8019 51.2956 48.035
threshold=486.50000000000006 596.50000000000011 466.0789473684211 -6.5921052631578894 3.5000000000000004 496.50000000000006 495.50000000000006 -29.899999999999974 11.250000000000002 479.50000000000006 6.2500000000000009 -6.8000000000000105 -0.34202014332566899 0.51877325816052144 471.27826086956526 447.18421052631584 0.95032354012166631 -0.97381903846659723 510.50000000000006 447.18421052631584 -0.45201865172701755 522.50000000000011 -0.9503235401216662 481.50000000000006 -0.9568834025670776 4.5000000000000009 0.8604686372286926 493.50000000000006 42.305052336806376 13.743482969916847
decision_type=2 2 2 2 2 2 2 2 2 2 2 2 2 2 2 2 2 2 2 2 2 2 2 2 2 2 2 2 2 2
left_child=2 3 8 6 9 17 13 16 19 12 23 -7 -4 -2 -9 -10 28 -5 26 -1 25 -13 -17 -6 -12 -21 -11 -15 29 -8
right_child=1 -3 4 5 10 11 7 14 15 18 24 21 -14 27 -16 22 -18 -19 -20 20 -22 -23 -24 -25 -26 -27 -28 -29 -30 -31
leaf_value=-0.86569271168192297 0.021473071426559614 3.3617132013248452 -0.13834753647562878 0.37095539103132891 -0.10666027000444728 0.075264594185686068 0.060920929742459294 0.056556892105984954 -0.63401348746452524 -0.0301107139693579 0.16912059579961691 0.18674409561755254 -0.19712434581721994 -0.063260147300352967 0.10875215230357525 -0.070647387816931653 -0.016268564939060752 0.04977964762731716 -0.10770792889143876 -0.22125413955271597 -0.28809405196848897 0.34812868885273529 -0.19533039133441604 -0.013504683475298975 -0.043902262777643274 -0.26389816487533635 -0.094136229180743949 -0.006261297990532739 -0.0013071362202424551 -0.15507394439876976
leaf_weight=24894 908 22791 1401 332 1963 572 1420 4647 1187 912 384 4846 3990 409 3557 440 1059 2312 1085 2398 8028 6382 985 543 658 1174 398 595 830 82
leaf_count=24894 908 22791 1401 332 1963 572 1420 4647 1187 912 384 4846 3990 409 3557 440 1059 2312 1085 2398 8028 6382 985 543 658 1174 398 595 830 82
internal_value=-0.00223374 0.0211631 -0.0257706 0.0143377 -0.017256 0.0195304 0.00878346 0.0106353 -0.0282378 -0.0217281 -0.00743787 0.0217047 -0.0245859 -0.00244485 0.0139302 -0.0209633 0.00266126 0.00982117 -0.0152867 -0.0287578 -0.0266923 0.0223508 -0.0158815 -0.0110798 0.00132023 -0.0224845 -0.0102037 -0.00889254 0.00591384 0.00921956
internal_weight=101182 50742 50440 27951 11334 14444 13507 11595 39106 7786 3548 11800 5391 1912 8204 2612 3391 2644 2395 36494 11600 11228 1425 2506 1042 3572 1310 1004 2332 1502
internal_count=101182 50742 50440 27951 11334 14444 13507 11595 39106 7786 3548 11800 5391 1912 8204 2612 3391 2644 2395 36494 11600 11228 1425 2506 1042 3572 1310 1004 2332 1502
is_linear=0
shrinkage=0.03


Tree=28
num_leaves=31
num_cat=0
split_feature=1 1 1 73 73 1 73 1 1 83 1 72 72 83 83 35 83 72 83 7 1 73 76 1 75 83 24 72 83 76
split_gain=60758.3 3323.59 1211.57 911.897 534.372 342.762 391.218 249.676 182.179 240.379 154.6 131.332 115.552 107.909 104.723 100.234 96.5767 90.257 89.5855 86.0111 69.7186 69.1585 61.2364 60.5143 57.2814 54.5181 51.7418 49.8688 47.8436 46.9226
threshold=486.50000000000006 604.40000000000009 467.1315789473685 -2.2499999999999996 3.5000000000000004 495.50000000000006 -29.899999999999974 493.50000000000006 447.18421052631584 -0.87137607974597298 479.50000000000006 -7.4999999999999991 6.2500000000000009 0.40274668985873718 -0.34202014332566899 471.27826086956526 0.95032354012166631 4.5000000000000009 -0.97381903846659723 510.50000000000006 522.50000000000011 2.2500000000000004 22.500000000000004 481.50000000000006 -32.051417165350891 -0.9568834025670776 472.14035087719304 -18.978816526610668 -0.96863394805116487 3.5000000000000004
decision_type=2 2 2 2 2 2 2 2 2 2 2 2 2 2 2 2 2 2 2 2 2 2 2 2 2 2 2 2 2 2
left_child=2 3 8 5 10 13 16 28 -1 17 14 -9 23 -2 -4 22 27 -10 -13 24 -20 -11 29 -6 -12 -14 -15 -7 -5 -8
right_child=1 -3 4 7 12 6 15 11 9 21 19 18 25 26 -16 -17 -18 -19 20 -21 -22 -23 -24 -25 -26 -27 -28 -29 -30 -31
leaf_value=-0.82262193033146613 0.028514709986127398 3.4108618052851001 -0.13276803187756456 0.32702415189844569 -0.098384860235938731 -0.088247584588547173 0.03683423228488323 0.042582446945839361 -0.20217242683724862 -0.28435838070715136 -0.069551699149545815 0.83833473565565719 0.16690657239718348 -0.032307972769116303 -0.18841250453040231 0.11052456766032605 -0.016031174809173761 -0.094858867306191988 0.16897490349385633 -0.10447669102469546 0.29646420922446054 -0.20568998793727727 0.0093296674090930769 -0.013099542971040705 -0.020474064210704909 -0.034708516525543014 0.016548048627547017 0.04838234627211193 0.042283883571910222 0.10048134906704603
leaf_weight=26081 998 21911 1300 252 1807 269 2005 389 1547 8514 741 2198 369 961 3684 4601 1159 651 3903 1085 4742 2922 524 543 569 627 323 2258 1318 2931
leaf_count=26081 998 21911 1300 252 1807 269 2005 389 1547 8514 741 2198 369 961 3684 4601 1159 651 3903 1085 4742 2922 524 543 569 627 323 2258 1318 2931
internal_value=-0.00233989 0.0208379 -0.0256565 0.0141436 -0.0167059 0.00937411 0.0111614 0.0201138 -0.028073 -0.0252539 -0.021215 0.0216805 -0.00675739 -0.00139159 -0.0242281 0.0142245 0.00279821 -0.0161514 0.022295 -0.0149361 0.0209122 -0.0270016 0.0114699 -0.0103858 -0.009746 0.00180241 -0.00714163 0.00608663 0.00889688 0.012505
internal_weight=101182 50742 50440 28831 10725 16029 13747 12802 39715 13634 7379 11232 3346 2282 4984 10061 3686 2198 10843 2395 8645 11436 5460 2350 1310 996 1284 2527 1570 4936
internal_count=101182 50742 50440 28831 10725 16029 13747 12802 39715 13634 7379 11232 3346 2282 4984 10061 3686 2198 10843 2395 8645 11436 5460 2350 1310 996 1284 2527 1570 4936
is_linear=0
shrinkage=0.03


Tree=29
num_leaves=31
num_cat=0
split_feature=1 1 1 73 73 1 73 1 1 83 1 83 1 83 83 38 83 83 78 7 83 83 1 80 83 83 1 1 82 65
split_gain=59648.6 3407.05 1233.83 908.301 521.654 343.895 383.057 221.382 176.702 238.325 159.136 120.178 116.214 107.01 100.272 99.2067 92.1353 84.1183 82.8018 82.2958 75.8154 71.6596 67.848 64.9024 56.6022 55.4186 51.1152 48.171 46.962 46.8275
threshold=486.50000000000006 608.20000000000016 466.0789473684211 -1.2499999999999998 3.5000000000000004 495.50000000000006 -29.899999999999974 496.50000000000006 445.0789473684211 -0.43245347597985045 479.50000000000006 -0.34202014332566899 480.50000000000006 0.40274668985873718 0.95032354012166631 507.10434782608701 -0.96863394805116487 0.95688340256707771 4.5000000000000009 510.50000000000006 -0.91959550581536675 -0.94331137514050678 548.50000000000011 80.500000000000014 -0.96863394805116487 0.8604686372286926 552.50000000000011 508.50000000000006 -0.89194178735545504 24.198672243910433
decision_type=2 2 2 2 2 2 2 2 2 2 2 2 2 2 2 2 2 2 2 2 2 2 2 2 2 2 2 2 2 2
left_child=2 3 8 5 10 13 14 24 -1 18 11 -4 21 -2 -7 17 -9 22 20 25 -10 23 -8 -6 -5 -12 29 -17 -13 -18
right_child=1 -3 4 7 12 6 15 16 9 -11 19 28 -14 -15 -16 27 26 -19 -20 -21 -22 -23 -24 -25 -26 -27 -28 -29 -30 -31
leaf_value=-0.8579432724215218 0.028422692992136261 3.3685359511265469 -0.13021406942503289 0.34338339592824807 -0.1044737636218241 0.044331590106833116 0.064324919309970308 0.83589081868098558 -0.13899758159308759 -0.27488761927205613 -0.028593170623956325 -0.15552513410008942 0.0099537512561977334 -0.021886685545075293 -0.016201080509543997 0.056749639341517479 0.18295497928960686 0.032129952364402074 -0.2448238102419171 -0.1013423902939553 -0.22300070718329465 -0.10102634650238031 0.15704445367191625 0.055164281078990025 0.061960022674711013 -0.089225591330836088 0.37196787900836509 0.14473889901495796 -0.18872392469002022 -0.055585671632985049
leaf_weight=24588 1054 21406 1401 348 186 2661 4918 2285 1196 9244 912 544 975 1320 1207 408 5571 1466 1682 1085 2396 1962 1726 425 1688 398 2503 2083 3446 98
leaf_count=24588 1054 21406 1401 348 186 2661 4918 2285 1196 9244 912 544 975 1320 1207 408 5571 1466 1682 1085 2396 1962 1726 425 1688 398 2503 2083 3446 98
internal_value=-0.0024063 0.0205588 -0.025509 0.0139175 -0.0167902 0.00936992 0.0111062 0.020047 -0.0280353 -0.0254024 -0.0211348 -0.0239961 -0.0072519 -0.00121137 0.00302326 0.0140546 0.0218098 0.012442 -0.0203027 -0.0146857 -0.0177169 -0.0105932 0.0138777 -0.00161275 0.0109853 -0.0096087 0.0203129 0.0192965 -0.0266542 0.0187243
internal_weight=101182 50742 50440 29336 11334 16843 14469 12493 39106 14518 7786 5391 3548 2374 3868 10601 10457 8110 5274 2395 3592 2573 6644 611 2036 1310 8172 2491 3990 5669
internal_count=101182 50742 50440 29336 11334 16843 14469 12493 39106 14518 7786 5391 3548 2374 3868 10601 10457 8110 5274 2395 3592 2573 6644 611 2036 1310 8172 2491 3990 5669
is_linear=0
shrinkage=0.03


Tree=30
num_leaves=31
num_cat=0
split_feature=0 0 0 72 0 73 73 73 0 0 0 83 76 83 0 83 0 83 61 72 80 83 58 78 76 6 65 0 7 0
split_gain=58560.5 3594.77 1114.89 929.567 488.487 477.454 447.707 190.005 180.627 157.91 146.506 126.639 118.519 114.855 100.471 132.401 92.3201 91.1475 85.7515 76.1548 73.5617 72.7074 68.3133 65.5031 62.0003 60.0419 57.9504 56.2738 54.8589 54.1227
threshold=485.50000000000006 612.50000000000011 466.0789473684211 2.7500000000000004 491.50000000000006 -2.2499999999999996 -25.947368421052627 11.250000000000002 508.50000000000006 480.50000000000006 494.50000000000006 0.94331137514050722 5.5000000000000009 -0.91080963307804841 443.25000000000006 -0.43245347597985045 443.25000000000006 -0.248252468714347 5.7460114635345887 -18.978816526610668 86.500000000000014 -0.9503235401216662 549.50000000000011 4.5000000000000009 9.5000000000000018 573.50000000000011 13.006699905293589 582.50000000000011 714.50000000000011 480.50000000000006
decision_type=2 2 2 2 2 2 2 2 2 2 2 2 2 2 2 2 2 2 2 2 2 2 2 2 2 2 2 2 2 2
left_child=2 3 7 4 12 17 11 14 -8 13 -5 19 -2 20 -1 23 -9 -4 22 -6 -7 -18 25 -16 -12 -10 -13 28 -21 -19
right_child=1 -3 5 10 6 9 8 16 18 -11 24 26 -14 -15 15 -17 21 29 -20 27 -22 -23 -24 -25 -26 -27 -28 -29 -30 -31
leaf_value=-0.86220497424887699 -0.043929916395817087 3.3574798725927506 -0.12396682640319795 0.10263026397545502 -0.096655880843960623 -0.11868619412830156 0.05062122283993517 -0.64462097334158153 0.10886412111194857 -0.0064817132721671552 0.18485306521689551 0.009362360207817914 0.0072346887388721366 -0.11271655270731684 -0.20750731971538583 -0.2796966438433594 -0.082439092871078395 -0.18882031009271941 0.08762214337848491 0.043040317718819096 0.018388304253456909 -0.18007940251425111 0.1984730586495641 -0.24689201751334336 0.40809571561829955 0.032774405351120778 -0.044106069419930234 0.13808038719373258 -0.040744994465931085 -0.089439097579422644
leaf_weight=22159 742 20896 1145 1103 322 374 4647 1006 4842 1178 798 1132 1419 3132 2958 9842 489 3325 796 2299 609 1117 3095 1535 6776 782 570 802 209 1083
leaf_count=22159 742 20896 1145 1103 322 374 4647 1006 4842 1178 798 1132 1419 3132 2958 9842 489 3325 796 2299 609 1117 3095 1535 6776 782 570 802 209 1083
internal_value=-0.00245434 0.0200819 -0.0255672 0.0134853 0.0101601 -0.0170533 0.0116601 -0.0279279 0.0144501 -0.010602 0.0217823 0.00425061 -0.00337049 -0.0133739 -0.0284882 -0.0265197 -0.0200907 -0.023199 0.0168187 0.00741453 -0.00441768 -0.0156049 0.0176797 -0.0222356 0.0232709 0.0157008 -0.00249971 0.00876986 0.00655122 -0.0251615
internal_weight=101182 51230 49952 30334 21657 10846 19496 39106 14162 5293 8677 5334 2161 4115 36494 14335 2612 5553 9515 3632 983 1606 8719 4493 7574 5624 1702 3310 2508 4408
internal_count=101182 51230 49952 30334 21657 10846 19496 39106 14162 5293 8677 5334 2161 4115 36494 14335 2612 5553 9515 3632 983 1606 8719 4493 7574 5624 1702 3310 2508 4408
is_linear=0
shrinkage=0.03


Tree=31
num_leaves=31
num_cat=0
split_feature=0 0 0 73 73 58 73 0 0 83 0 72 76 0 0 83 83 72 76 69 83 83 83 80 83 24 83 72 78 0
split_gain=57468.9 3697.46 1154.11 927.95 475.157 409.337 362.505 263.255 198.693 267.055 152.268 150.908 139.087 115.091 114.492 106.053 99.7895 99.463 89.0022 83.6976 75.4359 63.3757 62.3365 60.2701 58.729 54.8601 53.7569 50.8314 48.9338 47.4123
threshold=485.50000000000006 614.50000000000011 466.0789473684211 -1.2499999999999998 -2.2499999999999996 495.50000000000006 -32.499999999999993 492.50000000000006 443.25000000000006 -0.43245347597985045 479.50000000000006 -5.1999999999999877 22.500000000000004 540.50000000000011 560.50000000000011 0.40274668985873718 -0.91080963307804841 4.5000000000000009 6.5000000000000009 21.291141313025658 0.95032354012166631 -0.98279651670771917 -0.92794370089704259 86.500000000000014 0.43245347597985034 470.34210526315798 -0.96863394805116487 -18.978816526610668 4.5000000000000009 574.10000000000014
decision_type=2 2 2 2 2 2 2 2 2 2 2 2 2 2 2 2 2 2 2 2 2 2 2 2 2 2 2 2 2 2
left_child=2 3 8 5 18 15 20 26 -1 17 16 -9 14 21 19 -2 23 28 -4 -8 27 -13 -19 -6 -20 -17 -5 -7 -10 -29
right_child=1 -3 4 7 10 6 12 11 9 -11 -12 13 -14 -15 -16 25 -18 22 24 -21 -22 -23 -24 -25 -26 -27 -28 29 -30 -31
