tree
version=v4
num_class=1
num_tree_per_iteration=1
label_index=0
max_feature_idx=89
objective=regression_l1
feature_names=b1f_eh_current b1f_eh_lag_5m b1f_eh_lag_10m b1f_eh_lag_15m b1f_eh_lag_30m b1f_eh_lag_60m b1f_eh_lag_120m b1f_eh_lag_180m 1f_eh_current 1f_eh_lag_5m 1f_eh_lag_10m 1f_eh_lag_15m 1f_eh_lag_30m 1f_eh_lag_60m 1f_eh_lag_120m 1f_eh_lag_180m 301_current 301_lag_5m 301_lag_10m 301_lag_15m 301_lag_30m 301_lag_60m 301_lag_120m 301_lag_180m 3f_eh_current 3f_eh_lag_5m 3f_eh_lag_10m 3f_eh_lag_15m 3f_eh_lag_30m 3f_eh_lag_60m 3f_eh_lag_120m 3f_eh_lag_180m 401_current 401_lag_5m 401_lag_10m 401_lag_15m 401_lag_30m 401_lag_60m 401_lag_120m 401_lag_180m 403_current 403_lag_5m 403_lag_10m 403_lag_15m 403_lag_30m 403_lag_60m 403_lag_120m 403_lag_180m 4f_eh_current 4f_eh_lag_5m 4f_eh_lag_10m 4f_eh_lag_15m 4f_eh_lag_30m 4f_eh_lag_60m 4f_eh_lag_120m 4f_eh_lag_180m target_mean_15m target_std_15m target_min_15m target_max_15m target_mean_30m target_std_30m target_min_30m target_max_30m target_mean_60m target_std_60m target_min_60m target_max_60m target_mean_180m target_std_180m target_min_180m target_max_180m target_delta_15m target_delta_60m baseline_co2 residual_co2 hour minute dayofweek month dayofyear is_weekend time_sin time_cos dow_sin dow_cos cal_source_present cal_has_schedule_marker cal_is_class_or_event_day cal_marker_count
feature_infos=[390:1400] [390:1400] [390:1400] [390:1400] [390:1400] [390:1400] [390:1400] [390:1400] [384:597] [384:597] [384:597] [384:597] [384:597] [384:597] [384:597] [384:597] [388:1715] [388:1715] [388:1715] [388:1715] [388:1715] [388:1715] [388:1715] [388:1715] [390:891] [390:891] [390:891] [390:891] [390:891] [390:891] [390:891] [390:891] [389:1166] [389:1166] [389:1166] [389:1166] [389:1166] [389:1166] [389:1166] [389:1166] [390:972] [390:972] [390:972] [390:972] [390:972] [390:972] [390:972] [390:972] [388:762] [388:762] [388:762] [388:762] [388:762] [388:762] [388:762] [388:762] [390.33333333333331:1398] [0:116.64190213355289] [390:1395] [391:1400] [391.33333333333331:1392.6666666666667] [4.5380208753577151e-05:84.182341774667663] [390:1382] [393:1400] [392.83333333333331:1380.5833333333333] [0.15275620787562325:113.44398564397564] [390:1356] [394:1400] [394.38888888888891:1334.1666666666667] [0.44636348197613235:188.34863612502443] [390:1275] [398:1400] [-187:208] [-234:293] [425.03519771815354:800.45132453191275] [-372.45132453191275:713.49565083221307] [0:23] [0:55] [0:6] [1:12] [1:365] [0:1] [-1:1] [-1:1] [-0.97492791218182362:0.97492791218182362] [-0.90096886790241903:1] [0:1] [0:1] [0:1] [0:1]
tree_sizes=2672 2885 2908 2910 2917 2928 2917 2930 2937 2925 2927 2946 2917 2948 2947 2928 2961 2928 2938 2951 2952 2947 2959 2950 2965 2943 2959 2963 2970 2961 2964 2952 2951 2976 2978 2957 2973 2964 2955 2962 2951 2950 2946 2967 2955 2955 2969 2957 2954 2970 2968 2966 2960 2963 2961 2957 2971 2973 2964 2974 2957 2965 2962 2973 2981 2964 2970 2988 2975 2966 2972 2963 2951 2975 2954 2974 2965 2994 2958 2972 2960 2983 2974 2966 2961 2965 2971 2966 2984 2971 2988 2982 2987 2978 2983 2974 2997 2975 2969 2974 2998 2975 2958 2981 2985 2977 2959 3007 2995 2963 2977 2987 2975 2985 2975 2995 2973 2967 2972 2996 2984 2991 2978 2986 2990 2981 2974 2952 2992 2976 2983 2991 3025 2984 2978 3002 2986 2994 2971 2988 2998 2960 3015 3024 2961 3000 2988 3009 2986 2979 2961 2976 2989 2973 3011 2971 2981 2981 2963 2995 3031 2995 2928 2996 2999 2962 2970 2990 2977 2979 2987 2980 2995 2987 2975 2994 2966 2986 2965 2968 2958 3015 2959 2924 2984 2959 2960 2957 2982 2986 2993 2979 2970 2955 2962 3009 2996 3017 2961 2964 2939 3010 2993 2974 2969 2957 2955 2966 2923 2983 2972 2982 2933 2998 2970 2941 2980 2989 2978 2960 2969 3005 2963 2964 2967 2963 2939 2974 2972 2910 2984 2915 2980 2918 2907 2998 2941 2952 2923 2913 2931 2955 2944 2955 2960 2983 2975 2955 2944 2972 2928 2934 2893 2930 2969 2918 2862 2936 2900 2964 2908 2869 2890 2944 2911 2919 2930 2910 2934 2953 2875 2906 2967 2918 2881 2958 2982 2968 2931 2935 2878 2910 2923 2957 2868 2906 2860 2995 2856 2993 2951 2850 2942 2869 2891 2865 2943 2873 2943 2866 2911 2943 2943 3000 2871 2940 2900 2833 2951 2916 2911 2853 2853 2968 2913 2926 2937 2909 2966 2985 2932 2902 2961 2959 2944 2961 2931 2951 2903 2949 2949 2961 2974 2882 2931 2923 2887 2949 2924 2968 2912 2880 3014 2954 2864 2905 2869 2945 2879 2967 2878 2860 2942 2880 2948 2927 2881 2930 2985 2985 2938 2949 2968 2866 2873 2869 2875 2873 2890 2880 2895 2845 2923 2899 2910 2907 2988 2936 2927 2889 2939 2912 2874 2977 3015 2927 2908 2902 2882 2852 2933 2910 2870 2914 2926 2856 2921 2929 2901 2901 2828 2903 2922 2929 2938 2915 2840 2903 2921 2963 2948 2932 2878 2919 2919 2899 2931 2849 2903 2901 2892 2895 2893 2860 2834 2902 2902 2878 2879 2862 2916 2910 2911 2909 2869 2848 2998 2942 2874 2829 2853 2887 2862 2906 2860 2940 2876 2853 2858 2903 2917 2883 2924 2861 2947 2903 2873 2825 2881 2874 2911 2925 2907 2919 2961 2860 2861 2958 2873 2860 2865 2922 2841 2837 2860 2917 2933 2879 2858 2964 2904 2914 2900 2856 2920 2873 2859 2888 2906 2900 2912 2947 2962 2953 2901 2935 2871 2926 2860 2849 2840 2907 2848 2920 2931 2928 2926 2943 2936 2854 2949 2874 2934 2888 2949 2920 2905 2892 2898 2871 2931 2945 2897 2901 2900 2958 2892 2849 2972 2931 2941 2891 2869 2911 2963 2929 2861 2867 2868 2861 2859 2844 2939 2831 2849 2952 2875 2839 2837 2875 2807 2808 2954 2894 2946 2871 2943 2835 2873 2845 2913 2840 2920 2850 2839 2850 2858 2849 2894 2832 2869 2904 2882 2970 2834 2924 2913 2838 2830 2912 2847 2851 2897 2885 2922 2914 2934 2908 2950 2948 2892 2912 2879 2875 2869 2891 2866 2908 2898 2954 2889 2922 2884 2886 2831 2888 2932 2913 2867 2893 2938 2881 2933 2946 2864 2893 2914 2939 2948 2838 2928 2855 2891 2963 2925 2886 2935 2876 2886 2886 2875 2907 2891 2865 2831 2910 2854 2966 2866 2971 2886 2865 2892 2832 2952 2830 2898 2819 2814 2811 2866 2931 2849 2916 2951 2913 2815 2857 2889 2909 2887 2854 2933 2834 2856 2856 2851 2885 2843 2877 2951 2877 2861 2857 2851 2912 2888 2883 2914 2825 2836 2939 2864 2851 2886 2890 2904 2864 2945 2920 2856 2873 2903 2922 2914 2889 2935 2882 2827 2872 2830 2832 2846 2845 2867 2841 2848 2921 2928 2892 2928 2922 2901 2940 2938 2838 2913 2895 2848 2860 2928 2820 2913 2929 2916 2902 2864 2845 2909 2851 2841 2852 2960 2844 2856 2932 2861 2946 2923 2930 2938 2880 2950 2833 2906 2875 2883 2930 2864 2829 2829 2820 2861 2903 2925 2828 2894 2861 2866 2875 2888 2919 2838 2846 2878 2873 2833 2884 2851 2824 2891 2867 2827 2842 2921 2907 2877 2972 2837 2911 2881 2865 2910 2920 2888 2884 2917 2858 2877 2822 2920 2849 2900 2931 2913 2907 2915 2891 2895 2857 2828 2816 2849 2895 2844 2844 2837 2927 2957 2925 2906 2849 2965 2930 2958 2949 2856 2904 2935 2935 2875 2825 2911 2847 2872 2843 2888 2819 2842 2830 2917 2875 2968 2818 2823 2840 2912 2843 2849 2919 2897 2891 2912 2921 2828 2856 2906 2917 2938 2951 2914 2904 2888 2917 2820 2942 2845 2919 2906 2954 2907 2876 2904 2862 2885 2923 2823 2888 2894 2901 2863 2911 2883 2820 2860 2885 2876 2882 2900 2884 2858 2930 2915 2884 2826 2842 2897 2916 2912 2895 2912 2841 2827 2875 2850 2819 2836 2855 2889 2848 2948 2900 2907 2824 2889 2894 2911 2804 2840 2855 2880 2862 2910 2908 2866 2916 2863 2909 2866 2891 2895 2892 2848 2938 2870 2866 2893 2856 2868 2862 2819 2876 2826 2818 2849 2867 2872 2867 2855 2856 2829 2872 2892 2847 2913 2840 2841 2822 2935 2956 2924 2834 2859 2856 2885 2938 2923 2920 2856 2887 2850 2948 2960 2942 2926 2868 2926 2876 2948 2850 2904 2925 2836 2920 2865 2888 2912 2919 2905 2872 2947 2942 2908 2931 2883 2941 2855 2877 2913 2973 2916 2903 2887 2862 2945 2875 2932 2905 2889 2845 2877 2869 2872 2863 2906 2961 2935 2839 2948 2875 2836 2872 2938 2912 2876 2915 2889 2916 2849 2880 2889 2841 2890 2884 2878 2910 2863 2915 2894 2869 2872 2850 2868 2859 2880 2901 2876 2856 2844 2840 2930 2892 2907 2818 2848 2871 2973 2902 2894 2868 2875 2861 2897 2851 2853 2829 2849 2848 2867 2944 2884 2867 2917 2924 2851 2897 2800 2876 2851 2944 2901 2902 2898 2886 2928 2904 2875 2943 2901 2880 2912 2880 2911 2895 2910 2879 2891 2874 2905 2824 2832 2841 2887 2901 2903 2871 2898 2885 2855 2875 2885 2911 2878 2891 2892 2866 2901 2864 2926 2884 2919 2858 2923 2864 2906 2890 2928 2881 2875 2939 2887 2894 2886 2880 2847 2866 2956 2901 2878 2859 2893 2856 2925 2922 2860 2869 2805 2795 2914 2872 2928 2932 2879 2913 2946 2844 2886 2875 2874 2878 2840 2910 2913 2902 2957 2913 2951 2896 2868 2872 2891 2888 2881 2903 2847 2820 2847 2847 2881 2861 2863 2902 2866 2918 2935 2891 2896 2945 2818 2926 2854 2922 2807 2902 2917 2889 2846 2914 2920 2914 2909 2822 2861 2834 2938 2909 2945 2909 2911 2844

Tree=0
num_leaves=31
num_cat=0
split_feature=0 0 0 83 73 73 83 0 83 76 0 76 0 79 78 0 20 83 79 65 47 79 83 0 76 21 44 83 28 0
split_gain=73234.1 2513.94 1952.67 1747.57 944.986 680.902 494.304 531.534 300.932 272.732 267.593 223.741 219.209 184.837 191.882 181.722 153.484 130.504 146.03 120.597 116.329 111.388 102.746 81.7136 119.527 81.391 79.3255 78.4348 72.8177 69.1721
threshold=492.50000000000006 470.01315789473693 510.50000000000006 -0.8604686372286926 -12.499999999999998 0.48301820728295303 -0.88186879444286459 452.17105263157902 0.37256073532439582 5.5000000000000009 484.50000000000006 22.500000000000004 487.50000000000006 3.5000000000000004 4.5000000000000009 503.50000000000006 650.06164383561656 -0.96863394805116487 3.5000000000000004 7.4645627449316594 482.50000000000006 10.500000000000002 0.79989897227935902 496.50000000000006 4.5000000000000009 514.11739130434796 801.08333333333337 0.7445585721445509 436.50000000000006 520.50000000000011
decision_type=2 2 2 2 2 2 2 2 2 2 2 2 2 2 2 2 2 2 2 2 2 2 2 2 2 2 2 2 2 2
left_child=1 6 4 17 8 9 7 16 28 -5 21 23 -11 -9 20 -10 26 -3 -19 -17 -15 -7 -14 24 -6 -16 -1 -12 -2 -4
right_child=2 3 29 5 11 10 -8 13 15 12 27 -13 22 14 25 19 -18 18 -20 -21 -22 -23 -24 -25 -26 -27 -28 -29 -30 -31
leaf_value=485.5 486.81999999999999 488.01999999999998 487.60000000000002 486.45999999999998 486.91000000000003 486.75999999999999 485.56 486.51999999999998 486.79000000000002 486.57999999999998 487.18000000000001 486.91000000000003 487.06 487.44999999999999 486.43000000000001 487.08999999999997 487.19499999999999 486.81999999999999 487.50999999999999 486.88 486.38499999999999 487.06 486.73000000000002 487.50999999999999 487.36000000000001 487.73500000000001 487.83999999999997 486.88 487.18000000000001 491.19999999999999
leaf_weight=4796 43 941 3144 3119 143 1784 34808 555 925 2763 875 209 605 783 299 316 152 288 695 273 146 253 228 3656 1035 38 41 175 679 37415
leaf_count=4796 43 941 3144 3119 143 1784 34808 555 925 2763 875 209 605 783 299 316 152 288 695 273 146 253 228 3656 1035 38 41 175 679 37415
internal_value=487 486.976 487.027 486.988 487.013 486.983 486.972 486.98 486.996 486.978 486.995 487.02 486.983 486.994 487 486.989 486.975 487.014 487.007 487.002 487.007 486.988 486.997 487.021 487.014 486.981 486.974 487.007 487.012 487.029
internal_weight=101182 53344 47838 11726 7279 9802 41618 6810 2236 6715 3087 5043 3596 1821 1266 1514 4989 1924 983 589 929 2037 833 4834 1178 337 4837 1050 722 40559
internal_count=101182 53344 47838 11726 7279 9802 41618 6810 2236 6715 3087 5043 3596 1821 1266 1514 4989 1924 983 589 929 2037 833 4834 1178 337 4837 1050 722 40559
is_linear=0
shrinkage=1


Tree=1
num_leaves=31
num_cat=0
split_feature=0 0 0 76 71 72 19 0 37 76 72 76 75 76 82 72 82 0 26 6 0 80 0 80 7 76 59 0 0 70
split_gain=72461.6 2504.07 1950.75 1280.11 720.607 695.354 449.048 325.617 279.837 272.739 222.593 216.619 201.85 159.389 147.114 141.174 137.241 136.419 113.371 105.016 98.5115 94.2256 92.6455 92.3086 102.851 84.5537 73.7051 73.3925 68.1216 86.0988
threshold=492.50000000000006 470.01315789473693 508.50000000000006 5.5000000000000009 547.50000000000011 4.5000000000000009 572.50000000000011 484.50000000000006 608.23043478260877 22.500000000000004 6.2500000000000009 21.500000000000004 9.5478997746746206 20.500000000000004 -0.54643492068321309 -1.2499999999999998 -0.3007057995042734 526.50000000000011 459.25438596491233 559.40000000000009 444.02631578947376 293.50000000000006 477.50000000000006 277.50000000000006 490.50000000000006 9.5000000000000018 449.01315789473693 501.50000000000006 457.15789473684214 447.18421052631584
decision_type=2 2 2 2 2 2 2 2 2 2 2 2 2 2 2 2 2 2 2 2 2 2 2 2 2 2 2 2 2 2
left_child=1 6 4 -3 9 7 8 13 10 15 28 21 14 23 -6 18 -8 19 -2 -4 -18 -9 -7 -5 -25 -22 -12 -16 -1 -30
right_child=2 3 17 5 12 22 16 11 -10 -11 26 -13 -14 -15 27 -17 20 -19 -20 -21 25 -23 -24 24 -26 -27 -28 -29 29 -31
leaf_value=-1.5468 0.044700000000000274 -0.49379999999999935 0.76470000000000027 -0.26459999999999978 0.23459999999999978 0.012600000000000477 -0.9768 -0.001800000000000068 0.29565000000000052 -0.14730000000000074 -1.2767999999999999 -0.31739999999999952 0.12629999999999938 -0.55739999999999945 -0.2637000000000006 0.5547000000000003 -0.94499999999999995 4.2540000000000004 0.24629999999999938 0.20400000000000032 -0.51180000000000003 0.20459999999999978 0.44459999999999977 0.14819999999999992 -0.27959999999999979 0.38415000000000021 -0.43290000000000017 -0.083700000000000607 -0.46680000000000005 -0.79680000000000006
leaf_weight=31209 589 3333 4365 2981 235 590 231 1412 250 239 902 354 401 869 578 2995 247 35644 1110 1230 104 395 1273 355 164 371 975 452 1433 5896
leaf_count=31209 589 3333 4365 2981 235 590 231 1412 250 239 902 354 401 869 578 2995 247 35644 1110 1230 104 395 1273 355 164 371 975 452 1433 5896
internal_value=-7.52794e-05 -0.0241169 0.0267334 -0.0118698 0.0115859 -0.00562152 -0.0275671 -0.0102338 -0.0280442 0.0173464 -0.02824 -0.00070629 -0.00546911 -0.0149444 -0.0113483 0.0189387 -0.00719811 0.0291568 0.0120159 0.0247832 -0.000742739 0.00349945 0.0105402 -0.0120814 -0.000398077 0.0072416 -0.0181294 -0.0162338 -0.0287319 -0.0261074
internal_weight=101182 53344 47838 11726 6599 8393 41618 6530 40665 4933 40415 2161 1666 4369 1265 4694 953 41239 1699 5595 722 1807 1863 3500 519 475 1877 1030 38538 7329
internal_count=101182 53344 47838 11726 6599 8393 41618 6530 40665 4933 40415 2161 1666 4369 1265 4694 953 41239 1699 5595 722 1807 1863 3500 519 475 1877 1030 38538 7329
is_linear=0
shrinkage=0.03


Tree=2
num_leaves=31
num_cat=0
split_feature=0 0 83 0 73 73 83 0 0 76 83 0 76 20 86 20 0 83 69 14 83 0 73 73 79 74 19 73 37 83
split_gain=71762.5 2760.23 1744.16 1740.06 822.923 716.424 524.143 547.574 304.419 301.02 262.177 235.149 199.487 182.942 154.348 149.96 142.298 131.125 122.661 108.258 129.795 104.956 123.958 97.0664 92.5385 85.6243 83.2556 81.3672 79.9969 75.6303
threshold=493.50000000000006 470.01315789473693 -0.88186879444286459 510.50000000000006 -12.499999999999998 0.48301820728295303 -0.88186879444286459 452.17105263157902 484.50000000000006 5.5000000000000009 0.37256073532439582 486.50000000000006 22.500000000000004 566.13478260869579 1.0000000180025095e-35 650.06164383561656 503.50000000000006 0.79989897227935902 5.9449858822731558 470.30000000000007 -0.97381903846659723 532.50000000000011 -25.199999999999985 -26.100000000000019 10.500000000000002 483.44409177035942 441.25000000000006 11.250000000000002 604.09130434782617 0.91080963307804841
decision_type=2 2 2 2 2 2 2 2 2 2 2 2 2 2 2 2 2 2 2 2 2 2 2 2 2 2 2 2 2 2
left_child=1 6 19 4 10 9 7 15 24 -4 -2 -11 -6 14 25 28 -12 -13 -16 -3 -21 22 -5 -18 -7 -9 -27 -8 -1 -10
right_child=3 2 5 21 12 8 27 13 29 11 16 17 -14 -15 18 -17 23 -19 -20 20 -22 -23 -24 -25 -26 26 -28 -29 -30 -31
leaf_value=-1.4085959999999993 0.17081099999999935 0.94082999999999961 -0.47898599999999875 0.16788000000000011 0.44805899999999949 -0.24607800000000055 -1.3803959999999995 -0.56934599999999957 0.14465399999999987 -0.39946200000000032 -0.19578899999999974 0.028254000000000019 -0.082881000000001565 0.42287550000000124 -0.38949600000000029 0.2175 -0.17388899999999921 -0.26288100000000153 0.53165400000000085 0.63317999999999985 -0.1445459999999997 4.3363799999999992 0.73905899999999913 0.058645499999999795 0.053754000000000697 0.30050399999999966 -0.42039599999999949 -0.72279600000000066 -0.038869500000000695 -0.24973799999999924
leaf_weight=4719 676 1108 3243 932 4524 1841 32962 608 1135 2671 827 842 200 267 131 152 149 296 348 402 319 34129 5498 440 255 215 252 1846 118 77
leaf_count=4719 676 1108 3243 932 4524 1841 32962 608 1135 2671 827 842 200 267 131 152 149 296 348 402 319 34129 5498 440 255 215 252 1846 118 77
internal_value=-9.95918e-05 -0.0238063 -0.0112491 0.0268255 0.012797 -0.0160175 -0.0274835 -0.0198645 -0.00449592 -0.0214202 -0.00286527 -0.0156921 0.0197327 -0.00577772 -0.00972154 -0.0250034 -0.0102025 -0.00426427 0.00443125 0.0157525 0.0066856 0.0291826 0.0256472 0.00106271 -0.0114149 -0.0160288 -0.00633974 -0.0289735 -0.0259254 0.00746661
internal_weight=101182 53807 12189 47375 6816 10360 41618 6810 3308 7052 2092 3809 4724 1821 1554 4989 1416 1138 479 1829 721 40559 6430 589 2096 1075 467 34808 4837 1212
internal_count=101182 53807 12189 47375 6816 10360 41618 6810 3308 7052 2092 3809 4724 1821 1554 4989 1416 1138 479 1829 721 40559 6430 589 2096 1075 467 34808 4837 1212
is_linear=0
shrinkage=0.03


Tree=3
num_leaves=31
num_cat=0
split_feature=0 0 0 73 73 83 0 83 83 83 82 80 81 0 0 20 76 0 73 65 47 0 73 37 83 0 27 21 70 83
split_gain=70984 2778.33 1776.6 1469.27 781.561 686.336 768.406 443.129 412.111 326.078 257.921 209.028 204.148 170.536 163.965 162.052 150.744 126.144 130.803 117.973 117.851 107.802 114.514 96.9763 94.8137 86.1251 79.4833 78.932 75.1065 74.576
threshold=493.50000000000006 474.22368421052641 511.50000000000006 0.48301820728295303 -9.2499999999999982 -0.87137607974597298 453.22368421052641 -0.098011308799811417 -0.91080963307804841 0.44228869021900119 -0.60003553868615145 84.500000000000014 1.0000000180025095e-35 503.50000000000006 484.50000000000006 650.06164383561656 22.500000000000004 461.09210526315798 7.2500000000000009 8.0730565726932948 482.50000000000006 534.50000000000011 -29.899999999999974 608.23043478260877 -0.8604686372286926 482.50000000000006 438.37719298245617 514.11739130434796 474.50000000000006 0.91080963307804841
decision_type=2 2 2 2 2 2 2 2 2 2 2 2 2 2 2 2 2 2 2 2 2 2 2 2 2 2 2 2 2 2
left_child=1 5 4 7 9 6 15 24 -5 -2 28 -8 20 -11 -10 23 -6 -7 -19 -15 -13 22 -4 -1 -3 -26 -20 -14 -9 -16
right_child=2 3 21 8 16 17 11 10 14 13 -12 12 27 19 29 -17 -18 18 26 -21 -22 -23 -24 -25 25 -27 -28 -29 -30 -31
leaf_value=-1.3540493546191408 0.18441723000000024 0.3780084899999997 0.13284359999999934 0.9589318500000007 0.47386922999999964 -1.4289841199999989 -0.37997339999999952 -0.32747813999999947 -0.11875565999999878 -0.15991533000000002 -0.40461641999999809 0.42138888000000119 -0.44640126000000008 0.081751634999999961 0.14821937999999873 0.19597500000000082 -0.050394570000001977 -0.67148411999999891 -0.10579566 -0.14564836499999956 -0.48558690000000065 4.2662885999999993 0.69888723000000019 0.12729658499999857 -0.26747813999999948 -0.032593620000000101 -0.33747966000000018 0.69079709999999972 0.021214379999998981 -0.24224585999999987
leaf_weight=5046 1011 316 629 1032 4299 29715 701 236 1511 948 3606 973 338 471 1190 163 177 5753 383 235 187 33623 5982 114 553 728 700 41 444 77
leaf_count=5046 1011 316 629 1032 4299 29715 701 236 1511 948 3606 973 338 471 1190 163 177 5753 383 235 187 33623 5982 114 553 728 700 41 444 77
internal_value=-0.000111452 -0.0236892 0.0266672 -0.00914452 0.0128741 -0.0268847 -0.0186524 -0.018543 0.00536788 1.01275e-05 -0.0235682 -0.00390763 0.00227727 -0.00819154 -0.000646635 -0.0248548 0.0205309 -0.0285874 -0.0248964 0.00296605 0.00852455 0.0291149 0.0255939 -0.0257851 -0.00504819 -0.00867941 -0.0153017 -0.0168079 -0.00660352 0.00730836
internal_weight=101182 53807 47375 9693 7141 44114 7563 5883 3810 2665 4286 2240 1539 1654 2778 5323 4476 36551 6836 706 1160 40234 6611 5160 1597 1281 1083 379 680 1267
internal_count=101182 53807 47375 9693 7141 44114 7563 5883 3810 2665 4286 2240 1539 1654 2778 5323 4476 36551 6836 706 1160 40234 6611 5160 1597 1281 1083 379 680 1267
is_linear=0
shrinkage=0.03


Tree=4
num_leaves=31
num_cat=0
split_feature=0 0 0 73 83 0 73 76 83 83 83 80 76 20 84 0 80 73 56 0 0 73 31 37 83 65 80 83 72 80
split_gain=70103.9 3002.61 1498.47 1396.53 787.801 898.351 723.775 468.669 315.545 283.122 235.027 222.063 205.941 186.213 180.001 168.928 145.693 144.093 141.517 140.824 138.309 157.39 114.273 105.69 102.252 93.3971 88.273 81.8921 81.4067 77.8357
threshold=494.50000000000006 476.50000000000006 512.50000000000011 0.48301820728295303 -0.87137607974597298 455.05263157894746 -14.249999999999998 5.5000000000000009 -0.92794370089704259 0.79989897227935902 0.36243803828370164 84.500000000000014 22.500000000000004 670.13013698630141 -0.60785761079279388 463.19736842105266 297.50000000000006 6.2894736842105496 506.50000000000006 488.25000000000006 544.50000000000011 -29.899999999999974 487.50000000000006 608.23043478260877 -0.98279651670771917 8.0730565726932948 40.500000000000007 -0.8604686372286926 -1.2499999999999998 54.500000000000007
decision_type=2 2 2 2 2 2 2 2 2 2 2 2 2 2 2 2 2 2 2 2 2 2 2 2 2 2 2 2 2 2
left_child=1 4 6 7 5 13 10 -3 -5 19 -2 24 28 23 -13 -6 26 -17 -12 27 21 -4 -16 -1 -7 -20 -10 -9 -8 -28
right_child=2 3 20 8 15 11 12 9 16 -11 18 14 -14 -15 22 17 -18 -19 25 -21 -22 -23 -24 -25 -26 -27 29 -29 -30 -31
leaf_value=-1.2957166393614261 0.18736415309999899 -0.36247792739999735 0.15282911699999913 1.0769718945000004 -1.356114596399999 -0.010425355499999681 0.22570115310000119 0.44831197530000139 0.28586779859999978 -0.38235307739999935 -0.17127891404999956 -0.3207606184499997 -0.07888273290000257 0.26015850000000196 0.45345543359999962 -0.59447189639999809 0.20570404979999921 -0.27168223019999943 0.08052308595000085 0.082969292849999182 4.4082999419999993 0.72592061309999845 -0.57869076299999989 0.13337768744999862 -0.42311641800000072 -0.11094089655000033 -0.1641322014000002 -0.19627772939999913 0.5404011530999997 -0.025132990200000902
leaf_weight=5234 596 2393 974 862 30875 259 1592 192 157 807 722 340 218 162 1047 5536 501 1164 326 826 31377 7572 108 126 471 242 149 1202 3312 1840
leaf_count=5234 596 2393 974 862 30875 259 1592 192 157 807 722 340 218 162 1047 5536 501 1164 326 826 31377 7572 108 126 471 242 149 1202 3312 1840
internal_value=-0.00016482 -0.0233902 0.026683 -0.00748791 -0.0265229 -0.0178068 0.0138846 -0.0170332 0.00725556 -0.00918329 -0.00200159 -0.00171024 0.0197339 -0.0242906 0.0049111 -0.0283193 0.00211745 -0.023987 -0.00919985 -0.00364566 0.0289291 0.0255314 0.0105597 -0.0252485 -0.0152627 0.00199824 -0.00128412 -0.00946022 0.0210024 -0.00299849
internal_weight=101182 54251 46931 8929 45322 7747 7008 5420 3509 3027 1886 2225 5122 5522 1495 37575 2647 6700 1290 2220 39923 8546 1155 5360 730 568 2146 1394 4904 1989
internal_count=101182 54251 46931 8929 45322 7747 7008 5420 3509 3027 1886 2225 5122 5522 1495 37575 2647 6700 1290 2220 39923 8546 1155 5360 730 568 2146 1394 4904 1989
is_linear=0
shrinkage=0.03


Tree=5
num_leaves=31
num_cat=0
split_feature=59 59 58 83 73 73 83 69 83 76 58 59 78 58 83 79 83 58 73 65 86 20 83 73 40 78 24 34 72 21
split_gain=68152.5 2582.14 2190.55 1763.34 1116.25 786.969 427.118 460.444 364.124 273.55 261.481 259.805 254.64 226.99 184.319 179.182 168.296 156.627 181.182 155.88 132.564 153.17 113.011 90.6348 89.7394 99.3597 89.192 88.4482 88.2312 84.0679
threshold=494.50000000000006 468.18421052631584 511.50000000000006 -0.83743052905771542 -9.2499999999999982 3.5000000000000004 -0.89194178735545482 7.0950463379217306 0.40274668985873718 5.5000000000000009 484.50000000000006 481.50000000000006 4.5000000000000009 499.50000000000006 -0.96298784033749829 3.5000000000000004 0.94331137514050722 543.50000000000011 -22.499999999999996 6.8335181056265109 1.0000000180025095e-35 572.50000000000011 0.84915165824291605 12.250000000000002 479.50000000000006 4.5000000000000009 441.25000000000006 635.50000000000011 -5.1999999999999877 473.50000000000006
decision_type=2 2 2 2 2 2 2 2 2 2 2 2 2 2 2 2 2 2 2 2 2 2 2 2 2 2 2 2 2 2
left_child=1 6 4 14 8 9 7 27 26 -5 -11 -7 20 -10 -3 -16 28 18 -4 -15 21 -9 -12 -8 25 -17 -2 -1 -6 -14
right_child=2 3 17 5 16 11 23 12 13 10 22 -13 29 19 15 24 -18 -19 -20 -21 -22 -23 -24 -25 -26 -27 -28 -29 -30 -31
leaf_value=-1.2268451401805827 -0.13098894907800002 0.87455177059199907 0.17859936470699778 -0.50160358957799756 0.18288211850700065 -0.22920480329400106 -1.2854311585079989 -0.52402279011000019 -0.20997950267850057 -0.40342383951299976 0.0071737792282499414 0.093229788306000497 -1.1068451401805828 0.082250053439249196 -0.23202008040899982 0.69925998766499953 -0.015810881493000011 4.2760509437399996 0.79414299470699801 -0.1061405466284998 0.59947635682649891 0.50520317899200051 -0.25088248507799904 -0.64515915850799899 -0.21183222940800134 -0.036670211693999019 0.18453322850699805 0.57732969766500097 0.55418911850699992 0.062290995000001882
leaf_weight=4227 149 1199 1874 3865 349 1446 31668 651 867 3720 894 1279 565 576 430 514 323 30977 6569 535 379 203 280 1428 209 171 1026 41 4659 109
leaf_count=4227 149 1199 1874 3865 349 1446 31668 651 867 3720 894 1279 565 576 430 514 323 30977 6569 535 379 203 280 1428 209 171 1026 41 4659 109
internal_value=-0.000163041 -0.0235094 0.0258023 -0.0124491 0.0119714 -0.0174381 -0.0274538 -0.0202019 -0.00217724 -0.0218182 -0.0170985 -0.00335547 -0.00793868 -0.0100339 0.0102563 0.00253358 0.0203389 0.0287785 0.0251429 -0.00104946 0.000167747 -0.00638246 -0.00474638 -0.0288061 0.0101866 0.0154329 0.0110434 -0.0256774 0.0216924 -0.0227511
internal_weight=101182 53278 47904 14007 8484 11484 39271 6175 3153 8759 4894 2725 1907 1978 2523 1324 5331 39420 8443 1111 1233 854 1174 33096 894 685 1175 4268 5008 674
internal_count=101182 53278 47904 14007 8484 11484 39271 6175 3153 8759 4894 2725 1907 1978 2523 1324 5331 39420 8443 1111 1233 854 1174 33096 894 685 1175 4268 5008 674
is_linear=0
shrinkage=0.03


Tree=6
num_leaves=31
num_cat=0
split_feature=0 0 0 83 83 83 0 82 82 83 0 0 24 6 20 71 83 80 58 20 81 80 80 0 65 80 65 0 81 83
split_gain=68205.5 2697.08 2108.9 1508.35 869.819 454.498 457.979 349.215 329.163 423.936 305.487 214.729 191.884 182.288 173.85 164.517 156.961 205.148 149.611 144.254 135.796 144.376 128.614 128.139 132.819 119.359 103.908 90.6776 78.742 74.7514
threshold=490.50000000000006 507.50000000000006 468.18421052631584 -0.84915165824291594 0.48098876891938763 -0.87137607974597298 452.17105263157902 -0.31107263240371741 -0.52803643325367278 -0.15212338618991689 550.50000000000011 481.50000000000006 462.12500000000006 559.40000000000009 566.13478260869579 547.50000000000011 -0.97381903846659723 88.500000000000014 498.50000000000006 650.06164383561656 1.0000000180025095e-35 84.500000000000014 215.50000000000003 514.50000000000011 11.024593717678064 313.50000000000006 7.3649456376673923 479.50000000000006 1.0000000180025095e-35 -0.7729644631059297
decision_type=2 2 2 2 2 2 2 2 2 2 2 2 2 2 2 2 2 2 2 2 2 2 2 2 2 2 2 2 2 2
left_child=2 4 5 16 15 6 19 -6 11 25 13 -5 -9 -3 20 29 -4 -18 -14 28 21 -8 -23 -15 -25 27 -20 -10 -1 -2
right_child=1 10 3 8 7 -7 14 12 9 -11 -12 -13 18 23 -16 -17 17 -19 26 -21 -22 22 -24 24 -26 -27 -28 -29 -30 -31
leaf_value=-0.94828220542534269 1.0013059440495149 0.79763970486578895 0.86052343454724112 -0.30739674432260927 0.13625644495179073 -1.2168682237527588 -0.34915147363170035 -0.19604192446821228 -0.33595989414318123 -0.45335601052565833 4.2977694154277994 0.0094343015451528334 -0.093356010525658339 0.013578564245354982 0.3615841415888707 0.028997231651787841 -0.25265826196473196 0.35294952737424068 0.1419699517683233 0.13784080975524146 -0.5371983031295815 0.65981625988720538 -0.35112299230470229 0.29474138376578818 0.097769415427799225 0.059010149030819435 -0.21219528627964507 -0.072005129007181382 -1.4600397859751659 0.26756344495179007
leaf_weight=2075 1384 7938 887 1900 981 33471 333 1109 901 4887 30168 1145 373 370 244 642 372 841 349 157 415 290 413 2381 771 376 57 701 2986 2265
leaf_count=2075 1384 7938 887 1900 981 33471 333 1109 901 4887 30168 1145 373 370 244 642 372 841 349 157 415 290 413 2381 771 376 57 701 2986 2265
internal_value=-0.000253768 0.0252708 -0.0240217 -0.0129828 0.008261 -0.0273041 -0.0202932 -0.00452509 -0.0178768 -0.0215186 0.0281961 -0.00966087 -0.0120683 0.0240186 -0.00673762 0.0168096 0.010108 0.00308649 -0.00065 -0.0246938 -0.0106798 -0.00485728 0.00285085 0.0183244 0.0202845 -0.00979131 0.0119337 -0.0133606 -0.0255723 0.0192732
internal_weight=101182 48788 52394 12010 7160 40384 6913 2869 9910 6865 41628 3045 1888 11460 1695 4291 2100 1213 779 5218 1451 1036 703 3522 3152 1978 406 1602 5061 3649
internal_count=101182 48788 52394 12010 7160 40384 6913 2869 9910 6865 41628 3045 1888 11460 1695 4291 2100 1213 779 5218 1451 1036 703 3522 3152 1978 406 1602 5061 3649
is_linear=0
shrinkage=0.03


Tree=7
num_leaves=31
num_cat=0
split_feature=0 0 0 73 73 73 16 76 24 0 76 0 76 0 73 72 80 84 76 80 75 23 0 82 5 37 37 82 58 80
split_gain=67079.2 3036.23 1644.03 1332.77 779.5 640.983 478.593 379.614 288.752 251.569 233.996 205.097 217.091 202.738 269.051 159.721 155.313 140.238 131.214 126.715 126.207 125.264 120.327 106.934 106.93 99.6938 86.7773 86.0648 84.0438 81.6627
threshold=494.50000000000006 476.50000000000006 514.50000000000011 -1.2499999999999998 11.250000000000002 -9.2499999999999982 572.50000000000011 5.5000000000000009 462.12500000000006 451.11842105263162 21.500000000000004 456.1052631578948 6.5000000000000009 558.50000000000011 -32.499999999999993 4.5000000000000009 88.500000000000014 -0.60785761079279388 22.500000000000004 293.50000000000006 9.5478997746746206 549.21917808219189 488.25000000000006 -0.36243803828370164 441.14473684210532 596.37500000000011 742.50000000000011 0.52803643325367289 505.50000000000006 40.500000000000007
decision_type=2 2 2 2 2 2 2 2 2 2 2 2 2 2 2 2 2 2 2 2 2 2 2 2 2 2 2 2 2 2
left_child=1 4 5 7 6 8 11 -3 20 -6 22 26 -13 14 -4 19 -11 -14 -7 29 28 24 -9 -18 -8 -19 -1 -25 -2 -5
right_child=2 3 13 15 9 18 21 10 -10 16 -12 12 17 -15 -16 -17 23 25 -20 -21 -22 -23 -24 27 -26 -27 -28 -29 -30 -31
leaf_value=-1.3303621770401752 -0.16779885986409965 -0.33742539884021083 0.11448235508595417 0.28911145078103517 -0.91929833704017483 0.45822954160323659 -0.97036217704017524 -0.16352292001683877 0.12843904650273516 -0.29220683704017547 -0.38938165957683851 -0.66286217704017525 -0.54286217704017525 4.3188363329649668 0.68883633296496671 0.39236188428312513 -0.25350988833143756 -0.39144271286838545 -0.04016066673416617 0.21171559454663166 0.080839838367800204 -0.80746217704017509 0.062140395424269169 0.35447762014082401 0.1422855917988238 0.40765677209058931 0.52692521937593539 -0.32034833704017557 -0.0072329306995771959 -0.051363633131640538
leaf_weight=30143 710 2341 1049 157 1419 4586 175 1226 1446 548 641 4454 2345 28842 9349 1464 468 3736 193 474 342 267 752 739 522 109 60 337 414 1874
leaf_count=30143 710 2341 1049 157 1419 4586 175 1226 1446 548 641 4454 2345 28842 9349 1464 468 3736 193 474 342 267 752 739 522 109 60 337 414 1874
internal_value=-0.000296463 -0.0230153 0.0259658 -0.0070243 -0.0261655 0.0132796 -0.0273057 -0.0173911 0.00218229 -0.0125817 -0.00953702 -0.0277988 -0.0242083 0.0284518 0.0248502 0.00593123 -0.0059613 -0.0205649 0.0200391 0.00132761 -0.00719632 -0.00640104 -0.00442496 -0.00108544 0.000296562 -0.0170273 -0.0290633 0.00411978 -0.0120507 -0.00193258
internal_weight=101182 54251 46931 8929 45322 7691 41811 4960 2912 3511 2619 40847 10644 39240 10398 3969 2092 6190 4779 2505 1466 964 1978 1544 697 3845 30203 1076 1124 2031
internal_count=101182 54251 46931 8929 45322 7691 41811 4960 2912 3511 2619 40847 10644 39240 10398 3969 2092 6190 4779 2505 1466 964 1978 1544 697 3845 30203 1076 1124 2031
is_linear=0
shrinkage=0.03


Tree=8
num_leaves=31
num_cat=0
split_feature=0 0 0 83 73 73 83 0 83 0 73 0 0 20 82 83 83 14 65 0 83 36 73 83 85 19 61 28 74 68
split_gain=66359.2 2665.14 2087.42 1410.57 897.411 587.666 471.243 469.795 342.358 298.668 284.442 208.489 208.312 202.073 192.209 171.212 158.715 172.525 129.536 126.604 128.783 120.428 106.259 103.996 103.445 89.3037 85.3324 74.7855 73.8544 73.0366
threshold=490.50000000000006 510.50000000000006 468.18421052631584 -0.84915165824291594 -9.2499999999999982 -1.2499999999999998 -0.87137607974597298 447.18421052631584 0.37256073532439582 564.50000000000011 -29.899999999999974 476.50000000000006 499.50000000000006 572.50000000000011 -0.54643492068321309 -0.78661891169205844 -0.97854064376158167 476.21304347826089 7.0081121827900796 500.50000000000006 0.69151305578226918 586.50000000000011 11.250000000000002 -0.098011308799811417 -0.56174490092936669 670.13013698630141 3.2506409628742916 436.50000000000006 454.00646128186753 495.90277777777789
decision_type=2 2 2 2 2 2 2 2 2 2 2 2 2 2 2 2 2 2 2 2 2 2 2 2 2 2 2 2 2 2
left_child=2 4 6 16 8 14 7 25 27 10 -3 -7 -10 21 29 -6 -4 -18 -14 20 -17 24 -8 -16 -9 -1 -26 -2 -23 -5
right_child=1 9 3 5 15 11 22 13 12 -11 -12 -13 18 -15 23 19 17 -19 -20 -21 -22 28 -24 -25 26 -27 -28 -29 -30 -31
leaf_value=-1.2563277270847066 -0.1881005356834467 0.14540186231238977 0.86522586455217942 -0.31643156060687883 1.0501620271041381 -0.28370669465227988 -1.1698783117289706 -0.092765125003317045 -0.19660646219140687 4.3392712429760163 0.68810375263086654 -0.021999843055976385 0.056089180819525096 0.41497001286193863 -0.25750048957493787 0.18570576035513853 0.31823336509414274 -0.22008030055525465 -0.12722287353452827 0.31683237396996244 -0.047783253905496391 -0.88678954349756789 -0.59981938692897074 -0.46283203960968133 -0.53010461946656928 -0.035590390260122146 -0.25215042138042265 0.14399164324077332 0.80943783532092395 -0.096467344471429323
leaf_weight=4477 64 1749 802 836 1486 1543 31780 477 933 27814 10996 2178 586 268 813 1430 932 366 466 1744 508 35 1691 4109 1008 130 352 1012 166 431
leaf_count=4477 64 1749 802 836 1486 1543 31780 477 933 27814 10996 2178 586 268 813 1430 932 366 466 1744 508 35 1691 4109 1008 130 352 1012 166 431
internal_value=-0.000331449 0.0248453 -0.0237755 -0.012793 0.00927667 -0.0175257 -0.0270412 -0.0199027 -0.00359471 0.0280036 0.0241932 -0.00809968 -0.0109804 -0.00884135 -0.0231901 0.0169002 0.00953689 0.00304619 -0.00182051 0.013423 0.00813667 -0.0120633 -0.0285148 -0.0258739 -0.0144761 -0.0254355 -0.0186899 0.0100251 0.00993564 -0.01275
internal_weight=101182 48788 52394 12010 8229 9910 40384 6913 3061 40559 12745 3721 1985 2306 6189 5168 2100 1298 1052 3682 1938 2038 33471 4922 1837 4607 1360 1076 201 1267
internal_count=101182 48788 52394 12010 8229 9910 40384 6913 3061 40559 12745 3721 1985 2306 6189 5168 2100 1298 1052 3682 1938 2038 33471 4922 1837 4607 1360 1076 201 1267
is_linear=0
shrinkage=0.03


Tree=9
num_leaves=31
num_cat=0
split_feature=1 1 1 73 73 73 16 71 76 1 73 24 76 1 76 73 76 78 62 1 23 72 80 80 76 5 37 82 82 1
split_gain=65246.6 3000.98 1707.51 1210.09 803.267 621.604 443.605 338.243 328.667 245.718 265.519 227.576 215.405 209.258 223.554 196.922 171.267 130.033 116.269 112.44 111.884 110.674 106.724 100.436 94.4001 93.2671 91.2674 87.3508 123.049 80.9938
threshold=494.50000000000006 476.50000000000006 515.50000000000011 -3.0657894736842191 9.2500000000000018 -14.249999999999998 572.50000000000011 457.15789473684214 5.5000000000000009 572.20000000000016 -32.499999999999993 474.25000000000006 21.500000000000004 456.1052631578948 6.5000000000000009 4.2500000000000009 22.500000000000004 4.5000000000000009 503.50000000000006 486.50000000000006 549.21917808219189 1.8289473684210693 88.500000000000014 277.50000000000006 19.500000000000004 441.14473684210532 742.50000000000011 -0.36243803828370164 0.52803643325367289 484.50000000000006
decision_type=2 2 2 2 2 2 2 2 2 2 2 2 2 2 2 2 2 2 2 2 2 2 2 2 2 2 2 2 2 2
left_child=1 4 5 8 6 11 13 -6 -3 10 -4 18 19 26 -15 23 21 24 -2 -10 25 -7 -9 -5 -16 -8 -1 -24 -29 -17
right_child=2 3 9 15 7 16 20 22 12 -11 -12 -13 -14 14 17 29 -18 -19 -20 -21 -22 -23 27 -25 -26 -27 -28 28 -30 -31
leaf_value=-1.2786378952721662 -0.15686670020243412 -0.32894707842139098 0.14703980644301282 -0.085829255598179943 -0.77535496237710155 0.23481104444155335 -0.9177964288246343 -0.23869968412110096 -0.20495727122804452 4.419093105686736 0.72746064005194055 0.20000934634442386 -0.39381524860124328 -0.60787996237710218 -0.295759576688919 0.055460425022587571 -0.04704604239125075 -0.51239602986352051 0.0089969831696998879 0.048620435862712266 -0.74814196237710118 0.69474109876163759 -0.22239059087654736 0.14694478866517158 -0.54675332404173671 0.14673580902325084 0.53228700729057321 0.36123310103798928 -0.34973663384910197 0.336018132027325
leaf_weight=29418 749 2243 1492 1382 2453 3012 160 599 846 26417 10997 568 556 4430 2966 1210 248 2229 904 805 263 2544 522 363 650 492 57 701 382 1524
leaf_count=29418 749 2243 1492 1382 2453 3012 160 599 846 26417 10997 568 556 4430 2966 1210 248 2229 904 805 263 2544 522 363 650 492 57 701 382 1524
internal_value=-0.000354575 -0.0227609 0.0255465 -0.00686305 -0.0258927 0.0129438 -0.0272446 -0.0140848 -0.0179414 0.0281455 0.0246699 -0.000552205 -0.00971332 -0.02772 -0.0240236 0.00414442 0.018108 -0.020162 -0.00618319 -0.00426574 -0.00657969 0.0191969 -0.00554966 -0.0037268 -0.0166373 8.72894e-05 -0.0290076 -0.00151121 0.00334594 0.00916892
internal_weight=101182 54251 46931 8929 45322 8025 40665 4657 4450 38906 12489 2221 2207 39750 10275 4479 5804 5845 1653 1651 915 5556 2204 1745 3616 652 29475 1605 1083 2734
internal_count=101182 54251 46931 8929 45322 8025 40665 4657 4450 38906 12489 2221 2207 39750 10275 4479 5804 5845 1653 1651 915 5556 2204 1745 3616 652 29475 1605 1083 2734
is_linear=0
shrinkage=0.03


Tree=10
num_leaves=31
num_cat=0
split_feature=0 0 73 0 73 73 16 76 71 76 0 73 0 76 24 73 78 76 0 75 23 80 75 76 73 32 5 80 16 37
split_gain=64295.7 3416.89 1338.03 1336.83 815.248 518.078 440.66 426.489 340.216 270.511 260.858 270.624 224.131 248.629 208.21 162.767 145.56 138.08 119.729 114.852 112.775 111.849 106.929 100.744 98.4744 97.5871 87.2193 85.6448 84.646 83.0239
threshold=496.50000000000006 476.50000000000006 -1.2499999999999998 516.50000000000011 9.2500000000000018 -15.249999999999998 572.50000000000011 5.5000000000000009 461.09210526315798 21.500000000000004 576.50000000000011 -22.499999999999996 454.27631578947376 6.5000000000000009 473.43859649122811 6.2894736842105496 4.5000000000000009 21.500000000000004 486.50000000000006 8.6772643088035597 549.21917808219189 277.50000000000006 -84.469169301394388 19.500000000000004 20.250000000000004 417.50000000000006 441.14473684210532 78.500000000000014 459.25000000000006 742.50000000000011
decision_type=2 2 2 2 2 2 2 2 2 2 2 2 2 2 2 2 2 2 2 2 2 2 2 2 2 2 2 2 2 2
left_child=1 4 7 5 6 14 12 -3 24 18 11 25 29 -14 19 21 23 -7 -9 28 26 -4 -17 -15 -6 -5 -8 -10 -2 -1
right_child=3 2 15 10 8 17 20 9 27 -11 -12 -13 13 16 -16 22 -18 -19 -20 -21 -22 -23 -24 -25 -26 -27 -28 -29 -30 -31
leaf_value=-1.2469958255189373 -0.10972073105364984 -0.2890786660687496 -0.065069193183390439 0.00076712048338038123 -0.73779544875292713 0.41143028660623254 -0.89026253595989457 -0.1605231744377994 -0.22323777577497309 -0.35200079114320598 4.3765203125161323 0.85070820251239176 -0.61236856350578817 -0.29482014549856045 0.20589294935547342 0.039598515373925239 -0.50946935661143866 0.04295056332049569 0.052032395374902764 0.094118478342305995 -0.72569770350578888 0.1972834826384991 0.39130124818302475 -0.55519422758100179 -0.2281703581236286 0.21321628437071466 0.1423337347525532 -0.0016553658420667716 0.06426324006261637 0.50185220095239713
leaf_weight=28280 947 2571 1333 273 2420 4990 160 1027 458 687 25762 9387 4956 3270 529 880 2500 528 1155 286 263 395 1728 688 400 3204 492 1379 178 56
leaf_count=28280 947 2571 1333 273 2420 4990 160 1027 458 687 25762 9387 4956 3270 529 880 2500 528 1155 286 263 395 1728 688 400 3204 492 1379 178 56
internal_value=-0.000407944 -0.0222788 -0.00619178 0.0257406 -0.0257485 0.0141087 -0.0271103 -0.0160994 -0.0138529 -0.00814181 0.027986 0.0244895 -0.0275841 -0.024026 0.000771252 0.00623864 -0.0201389 0.0187963 -0.00296702 -0.00524575 -0.00651419 -0.000900521 0.0109686 -0.0165489 -0.020396 0.0173281 0.000179173 -0.00380141 -0.00956217 -0.0290164
internal_weight=101182 55098 9776 46084 45322 7458 40665 5440 4657 2869 38626 12864 39750 11414 1940 4336 6458 5518 2182 1411 915 1728 2608 3958 2820 3477 652 1837 1125 28336
internal_count=101182 55098 9776 46084 45322 7458 40665 5440 4657 2869 38626 12864 39750 11414 1940 4336 6458 5518 2182 1411 915 1728 2608 3958 2820 3477 652 1837 1125 28336
is_linear=0
shrinkage=0.03


Tree=11
num_leaves=31
num_cat=0
split_feature=0 0 0 83 83 73 0 0 83 78 69 73 0 73 80 73 83 83 82 78 0 7 32 80 86 80 83 47 0 61
split_gain=63323.3 2690.83 2178.11 1619.37 847.175 622.838 390.379 321.409 306.878 320.879 296.253 277.079 275.142 261.178 231.145 214.782 198.274 193.43 190.188 151.504 118.785 147.325 118.693 113.809 109.769 113.852 108.866 102.211 100.06 95.5559
threshold=490.50000000000006 515.50000000000011 461.09210526315798 -0.83743052905771542 0.51877325816052144 -1.2499999999999998 500.50000000000006 582.50000000000011 -0.87137607974597298 4.5000000000000009 5.4638784991378779 -18.309348739495814 476.50000000000006 -18.309348739495814 84.500000000000014 -6.1184210526315885 -0.98279651670771917 -0.81279832427823695 -0.54643492068321309 4.5000000000000009 501.50000000000006 547.50000000000011 420.50000000000006 303.50000000000006 1.0000000180025095e-35 229.50000000000003 -0.098011308799811417 481.16666666666669 480.50000000000006 5.819507425055221
decision_type=2 2 2 2 2 2 2 2 2 2 2 2 2 2 2 2 2 2 2 2 2 2 2 2 2 2 2 2 2 2
left_child=2 4 8 14 17 18 15 11 9 10 -1 22 23 -8 16 -6 -4 -2 28 27 21 -19 -3 -7 25 -12 -20 -16 -5 -24
right_child=1 7 3 5 6 12 13 -9 -10 -11 24 -13 -14 -15 19 -17 -18 20 26 -21 -22 -23 29 -25 -26 -27 -28 -29 -30 -31
leaf_value=-0.88822161106492781 1.1051546771035421 0.020123823985012449 0.30483078517724721 -0.39322720212304885 -0.17348833921429843 -0.30298442957762628 -0.054853791457056787 4.3652247031406475 -1.1195859507533696 -1.2028688836484343 -0.68312848912736857 0.90099906644076211 -0.029154606248384878 0.16663204590317887 0.73974383081852491 0.01602992958434811 -0.2503902236894322 0.1610313784177336 -0.30546363516401925 -0.055672184866804739 0.32585353041913095 -0.098524796386071214 0.25626739244481483 -0.0046340397864921097 0.4380460101406069 -0.086407091349825285 -0.47761066922890394 -0.12905173608329193 -0.066592909074414591 0.19799835101918914
leaf_weight=1420 1848 427 338 1143 1057 2557 745 24814 29715 3321 349 9373 2149 1399 1400 597 645 1728 1152 467 2142 366 2760 344 394 654 5569 228 549 1532
leaf_count=1420 1848 427 338 1143 1057 2557 745 24814 29715 3321 349 9373 2149 1399 1400 597 645 1728 1152 467 2142 366 2760 344 394 654 5569 228 549 1532
internal_value=-0.000474358 0.0241197 -0.0233758 -0.0143687 0.0101383 -0.0188567 -0.000978415 0.0276705 -0.0275307 -0.0214134 -0.0139556 0.0240458 -0.0105241 0.00746713 0.00526047 -0.0119257 -0.00673476 0.0170776 -0.0238563 0.0108907 0.0135372 0.00844726 0.0181074 -0.0165496 -0.00413948 -0.00940936 -0.0261212 0.0152099 -0.0148476 0.019608
internal_weight=101182 48788 52394 16541 9882 13463 3798 38906 35853 6138 2817 14092 5050 2144 3078 1654 983 6084 8413 2095 4236 2094 4719 2901 1397 1003 6721 1628 1692 4292
internal_count=101182 48788 52394 16541 9882 13463 3798 38906 35853 6138 2817 14092 5050 2144 3078 1654 983 6084 8413 2095 4236 2094 4719 2901 1397 1003 6721 1628 1692 4292
is_linear=0
shrinkage=0.03


Tree=12
num_leaves=31
num_cat=0
split_feature=0 0 0 73 73 0 76 73 0 25 73 0 21 0 17 73 76 32 71 76 72 0 75 82 73 76 37 36 37 55
split_gain=62213.9 2716.13 2210.31 1427.7 839.569 427.261 425.631 324.032 316.999 291.284 263.652 185.872 183.499 174.134 164.961 154.949 148.053 134.078 131.044 120.398 115.2 97.7358 95.5524 89.155 88.0127 87.7802 86.8412 86.622 77.8049 76.2237
threshold=490.50000000000006 512.50000000000011 461.09210526315798 2.2500000000000004 -9.2499999999999982 584.50000000000011 5.5000000000000009 -18.309348739495814 477.50000000000006 473.43859649122811 8.5000000000000018 480.50000000000006 568.25000000000011 501.50000000000006 572.50000000000011 4.2500000000000009 21.500000000000004 420.50000000000006 442.19736842105266 19.500000000000004 5.7500000000000009 500.50000000000006 -84.469169301394388 0.39271506111191362 -20.499999999999996 20.500000000000004 598.23913043478274 572.40434782608702 742.50000000000011 451.28947368421058
decision_type=2 2 2 2 2 2 2 2 2 2 2 2 2 2 2 2 2 2 2 2 2 2 2 2 2 2 2 2 2 2
left_child=2 4 10 6 9 7 -4 17 12 13 14 19 20 -2 28 21 -13 -3 -12 26 29 25 -10 -24 -15 -6 -8 -20 -1 -5
right_child=1 5 3 8 15 -7 11 -9 22 -11 18 16 -14 24 -16 -17 -18 -19 27 -21 -22 -23 23 -25 -26 -27 -28 -29 -30 -31
leaf_value=-1.115998372230768 -0.16828368903786894 0.013147906036663812 -0.46015004915203744 -0.12787849623890679 0.1077109516451 4.2942679620464297 -0.29966453778120122 0.85819473114742317 -0.026874683240335172 0.1148050146057082 -1.055998372230768 -0.036158783186942288 0.82481199260839388 -0.06826553706724553 -0.55566890323294438 0.5233239366624286 -0.27071244733204164 0.23059740118898275 -0.37203242029101774 -0.50261114234520787 -0.015591364816963845 0.25332393666242864 0.50603788863479704 0.029822047689517035 0.083510173517594807 -0.10868322334267247 0.33859196049673557 1.1649226515448612 0.33385746477573292 -0.2659414755436893
leaf_weight=31678 1292 459 4595 896 1088 24506 3307 10307 764 1028 1643 1403 163 505 517 2922 462 4651 1888 1071 935 1251 826 691 501 278 80 69 58 1348
leaf_count=31678 1292 459 4595 896 1088 24506 3307 10307 764 1028 1643 1403 163 505 517 2922 462 4651 1888 1071 935 1251 826 691 501 278 80 69 58 1348
internal_value=-0.00050638 0.0238713 -0.0232064 -0.0141329 0.00884807 0.0272069 -0.0204576 0.0232888 -0.00185046 -0.00306492 -0.0273918 -0.0154028 -0.00773467 -0.00900261 -0.0282522 0.0160013 -0.00744212 0.0171037 -0.019677 -0.01873 -0.00932925 0.0106902 0.00676906 0.0111245 0.000354518 0.00513314 -0.0159466 -0.0144162 -0.0285262 -0.0130143
internal_weight=101182 48788 52394 16541 8865 39923 10918 15417 5623 3326 35853 6323 3342 2298 32253 5539 1865 5110 3600 4458 3179 2617 2281 1517 1006 1366 3387 1957 31736 2244
internal_count=101182 48788 52394 16541 8865 39923 10918 15417 5623 3326 35853 6323 3342 2298 32253 5539 1865 5110 3600 4458 3179 2617 2281 1517 1006 1366 3387 1957 31736 2244
is_linear=0
shrinkage=0.03


Tree=13
num_leaves=31
num_cat=0
split_feature=0 0 0 73 73 73 16 83 83 0 0 0 83 73 19 24 83 83 80 83 0 76 75 46 80 78 80 59 83 76
split_gain=61153.8 3397.15 1423.07 1248.74 855.439 549.858 452.852 383.68 354.002 341.655 310.422 276.161 347.707 253.629 217.87 181.636 174.085 137.988 132.771 126.867 123.667 121.235 114.955 106.369 101.988 100.499 95.8853 91.3991 81.9256 81.9004
threshold=496.50000000000006 476.50000000000006 522.50000000000011 -3.0657894736842191 9.2500000000000018 -14.249999999999998 572.50000000000011 -0.92794370089704259 -0.032717136199948565 451.11842105263162 592.10000000000014 453.22368421052641 -0.73727733681012408 -31.499999999999996 447.12500000000006 467.24561403508778 -0.92794370089704259 -0.81279832427823695 297.50000000000006 -0.83743052905771542 502.50000000000006 6.5000000000000009 7.8596535128760374 473.50000000000006 40.500000000000007 4.5000000000000009 80.500000000000014 488.25000000000006 0.85491187067294649 22.500000000000004
decision_type=2 2 2 2 2 2 2 2 2 2 2 2 2 2 2 2 2 2 2 2 2 2 2 2 2 2 2 2 2 2
left_child=1 4 5 8 6 14 11 -5 -3 -6 13 -1 25 -4 22 -10 26 -7 24 -8 28 -14 23 -2 -9 -13 -11 -17 -19 -15
right_child=2 3 10 7 9 17 19 18 15 16 -12 12 21 29 -16 27 -18 20 -20 -21 -22 -23 -24 -25 -26 -27 -28 -29 -30 -31
leaf_value=-1.1725184210638451 -0.10118692276589911 -0.043004528749839892 0.19221385203057878 0.93641049229484963 -0.79306276329767511 1.2836727634826459 0.065339486076118752 0.20974357364531812 -0.31323517836673259 -0.27067261230333883 4.3454399231850367 -0.15584054151445684 -0.55871396604918455 0.82696043194736435 0.1119733217608669 -0.22227348453525847 -0.21345181604955996 0.19504158316064774 0.15666293195407605 -0.65366912678102496 0.3349604319473633 -0.43339659006404757 0.076074447509362528 0.28013475223823037 -0.053147871635172518 -0.37597439317830605 0.42755116406372279 -0.027654319956807852 -0.03770046334838241 0.23849357593498383
leaf_weight=27767 1028 1232 2285 1041 2065 1690 590 262 2550 166 23325 1352 5217 10508 1258 453 1749 1147 712 325 3461 4907 334 69 2864 507 677 662 265 714
leaf_count=27767 1028 1232 2285 1041 2065 1690 590 262 2550 166 23325 1352 5217 10508 1258 453 1749 1147 712 325 3461 4907 334 69 2864 507 677 662 265 714
internal_value=-0.000552632 -0.0218824 0.0249491 -0.00584198 -0.025342 0.0144274 -0.026737 0.00489898 -0.0165429 -0.0131574 0.0275915 -0.0272174 -0.0234035 0.0239656 0.00299888 -0.0212185 -0.00589934 0.0191083 0.000514978 -0.00585917 0.0165382 -0.0255938 -0.00500489 -0.00969672 -0.00214807 -0.0114661 0.00529265 -0.0110995 0.00904246 0.0258217
internal_weight=101182 55098 46084 9776 45322 9252 40665 4879 4897 4657 36832 39750 11983 13507 2689 3665 2592 6563 3838 915 4873 10124 1431 1097 3126 1859 843 1115 1412 11222
internal_count=101182 55098 46084 9776 45322 9252 40665 4879 4897 4657 36832 39750 11983 13507 2689 3665 2592 6563 3838 915 4873 10124 1431 1097 3126 1859 843 1115 1412 11222
is_linear=0
shrinkage=0.03


Tree=14
num_leaves=31
num_cat=0
split_feature=0 0 0 83 73 73 0 83 73 83 78 69 0 80 0 83 83 82 78 31 65 0 86 31 80 83 70 75 65 0
split_gain=60068.7 2958.77 2014.16 1489.7 871.108 612.568 451.733 443.944 334.352 327.954 350.734 286.501 285.833 222.457 212.04 195.086 176.997 172.306 148.77 164.775 131.692 128.685 115.706 120.802 115.664 110.136 109.175 107.306 96.5034 96.4357
threshold=489.50000000000006 515.50000000000011 461.09210526315798 -0.83743052905771542 -7.2236842105263284 -1.2499999999999998 590.20000000000016 0.40274668985873718 -22.499999999999996 -0.87137607974597298 4.5000000000000009 5.4638784991378779 500.50000000000006 86.500000000000014 476.50000000000006 -0.82531082829576852 -0.98658463173998423 -0.54643492068321309 4.5000000000000009 487.50000000000006 7.0081121827900796 500.50000000000006 1.0000000180025095e-35 423.50000000000006 310.50000000000006 0.78661891169205844 539.50000000000011 2.8436611846236137 13.470928287115472 448.23684210526318
decision_type=2 2 2 2 2 2 2 2 2 2 2 2 2 2 2 2 2 2 2 2 2 2 2 2 2 2 2 2 2 2
left_child=2 4 9 13 7 17 8 -2 25 10 11 -1 -9 16 24 -6 -4 -5 19 -15 -14 -17 23 -13 -7 -3 -27 -19 -28 -11
right_child=1 6 3 5 15 14 -8 12 -10 29 -12 22 20 18 -16 21 -18 27 -20 -21 -22 -23 -24 -25 -26 26 28 -29 -30 -31
leaf_value=-0.79291945893414206 0.14017222736712512 0.40547721625506938 0.3168806461162853 -0.29255737193385756 1.1292734817450207 -0.27432619212283044 4.1550767254894856 -0.1646768687956188 0.80145996367083561 -1.1973428684319298 -1.0981273133401435 0.20342961604567478 0.058076561004431253 0.67682740174735778 -0.032617519249545236 0.099440415854014072 -0.23421449404391467 -0.46807846531221908 -0.068394079493576773 -0.4928089054404276 -0.073347339420892582 0.30730853725738144 0.47215057036273972 -0.53222155010488681 0.042107440445879545 0.015691043184764907 0.18791306359239457 -0.21287642918425717 0.039661134835160962 -0.56734286843192983
leaf_weight=1420 1684 1965 316 1612 1707 2630 23612 1237 10948 22116 3321 304 819 1419 2010 2022 707 5228 449 104 642 2253 394 699 271 746 1191 1313 444 7599
leaf_count=1420 1684 1965 316 1612 1707 2630 23612 1237 10948 22116 3321 304 819 1419 2010 2022 707 5228 449 104 642 2253 394 699 271 746 1191 1313 444 7599
internal_value=-0.000578131 0.0231482 -0.023097 -0.0142657 0.00890275 -0.0186404 0.0269426 -0.00125873 0.022921 -0.0270521 -0.0207293 -0.0129336 -0.00880215 0.00481542 -0.0102661 0.0163458 -0.00653027 -0.0236825 0.010703 0.0151752 0.000182627 0.0129156 -0.00328112 -0.00869223 -0.0154538 0.0158723 0.0115227 -0.0258494 0.01586 -0.0283573
internal_weight=101182 49270 51912 16059 10364 13064 38906 4382 15294 35853 6138 2817 2698 2995 4911 5982 1023 8153 1972 1523 1461 4275 1397 1003 2901 4346 2381 6541 1635 29715
internal_count=101182 49270 51912 16059 10364 13064 38906 4382 15294 35853 6138 2817 2698 2995 4911 5982 1023 8153 1972 1523 1461 4275 1397 1003 2901 4346 2381 6541 1635 29715
is_linear=0
shrinkage=0.03


Tree=15
num_leaves=31
num_cat=0
split_feature=0 0 0 73 73 0 76 24 73 0 73 76 0 0 18 72 34 0 0 76 72 76 76 73 0 10 36 76 76 0
split_gain=58975.1 2702.43 2222.69 1369.1 785.985 477.713 433.247 397.061 354.147 288.635 287.426 191.24 215.638 177.074 163.355 155.775 145.758 143.407 128.082 116.294 104.982 103.613 100.829 82.5026 100.068 82.4089 82.2078 80.4621 99.4262 77.0504
threshold=490.50000000000006 516.50000000000011 461.09210526315798 2.2500000000000004 -4.2499999999999991 602.50000000000011 5.5000000000000009 462.12500000000006 -14.249999999999998 479.50000000000006 7.2500000000000009 21.500000000000004 480.50000000000006 500.50000000000006 564.50000000000011 6.2500000000000009 420.50000000000006 441.14473684210532 503.50000000000006 4.5000000000000009 3.7500000000000004 21.500000000000004 22.500000000000004 -42.499999999999993 554.50000000000011 443.40000000000003 606.50000000000011 12.500000000000002 9.5000000000000018 448.23684210526318
decision_type=2 2 2 2 2 2 2 2 2 2 2 2 2 2 2 2 2 2 2 2 2 2 2 2 2 2 2 2 2 2
left_child=2 4 10 6 7 8 -4 18 16 15 14 12 26 -9 29 -5 -3 -12 19 -2 -6 -21 23 -18 -25 -20 -8 28 -19 -1
right_child=1 5 3 9 20 -7 11 13 -10 -11 17 -13 -14 -15 -16 -17 22 27 25 21 -22 -23 -24 24 -26 -27 -28 -29 -30 -31
leaf_value=-1.1914225823789724 -0.16928371629099045 0.018513285487036908 -0.41867407473663321 -0.17565358042193538 0.23862854789729282 4.2704244237248004 -0.29728717716091752 -0.004677514413509414 0.95965463932396566 0.13202434536281771 -0.97059933937224796 -0.41528952386598827 -0.028787345547569884 0.17181554839967986 -0.58109583605457482 0.09871156068161667 0.18658954122477894 -0.32879079874975869 -0.11320426793067212 0.041375260850471135 0.69457324734599346 -0.23354365041978895 0.1015317866472273 0.16653962993994184 0.47499371831884446 0.043158158120435816 0.21282930059816749 -0.45322801222088854 -0.058554475669724576 -0.55091856839466169
leaf_weight=23757 759 516 4595 2772 2840 22150 3649 1070 9747 1912 2027 1146 1403 1609 620 939 965 688 284 427 2334 182 626 2511 2111 657 125 861 680 7220
leaf_count=23757 759 516 4595 2772 2840 22150 3649 1070 9747 1912 2027 1146 1403 1609 620 939 965 688 284 427 2334 182 626 2511 2111 657 125 861 680 7220
internal_value=-0.000651661 0.023083 -0.0227529 -0.0136542 0.00931585 0.0267046 -0.0198477 0.000817198 0.0228316 -0.00162642 -0.02695 -0.0147481 -0.0122879 0.00867425 -0.0279368 -0.00650512 0.0175315 -0.0196187 -0.0082974 -0.0141541 0.0175067 -0.00437213 0.0188038 0.0200836 0.0217515 0.000219745 -0.0160204 -0.0143529 -0.00981519 -0.0282422
internal_weight=101182 48788 52394 16541 10162 38626 10918 4988 16476 5623 35853 6323 5177 2679 31597 3711 6729 4256 2309 1368 5174 609 6213 5587 4622 941 3774 2229 1368 30977
internal_count=101182 48788 52394 16541 10162 38626 10918 4988 16476 5623 35853 6323 5177 2679 31597 3711 6729 4256 2309 1368 5174 609 6213 5587 4622 941 3774 2229 1368 30977
is_linear=0
shrinkage=0.03


Tree=16
num_leaves=31
num_cat=0
split_feature=59 59 56 73 73 58 83 83 73 25 58 83 78 69 59 83 83 8 73 83 58 71 69 83 59 86 80 83 80 83
split_gain=57061.7 2579.63 2331.52 1611.43 836.13 532.781 510.862 452.868 384.195 325.834 325.428 319.947 346.265 269.095 257.042 199.039 161.101 162.612 152.704 145.643 132.823 130.615 128.92 125.828 112.33 111.618 115.649 109.101 107.777 97.6162
threshold=494.50000000000006 461.09210526315798 517.16666666666686 2.2500000000000004 -9.2499999999999982 605.50000000000011 -0.73727733681012408 -0.93585024503435321 -13.249999999999998 462.12500000000006 482.50000000000006 -0.89194178735545482 4.5000000000000009 4.7974861142435641 482.50000000000006 -0.9568834025670776 0.69930991848440849 446.06521739130443 -11.118421052631588 0.91959550581536709 506.50000000000006 479.50000000000006 52.866119434813477 0.36243803828370164 448.23684210526318 1.0000000180025095e-35 229.50000000000003 -0.35222909080468534 303.50000000000006 0.26932402956675666
decision_type=2 2 2 2 2 2 2 2 2 2 2 2 2 2 2 2 2 2 2 2 2 2 2 2 2 2 2 2 2 2
left_child=1 11 4 6 9 8 -3 21 16 20 23 12 13 -1 28 -6 -4 -18 -12 -17 29 -5 -19 -8 -13 26 -15 -26 -9 -2
right_child=2 3 5 7 15 -7 10 14 -10 -11 18 24 -14 25 -16 19 17 22 -20 -21 -22 -23 -24 -25 27 -27 -28 -29 -30 -31
leaf_value=-0.78969421945421858 -0.007198082272934698 -0.053724723683321825 0.53014467304107227 0.11239361148671691 2.2479165645342905 4.2323116910130576 -0.32857944756793528 -0.19768446005533802 0.99480663816473558 0.07875659006394585 -0.24690396412693616 -1.1556799049076039 -1.0306982072250788 -0.59243364232114737 0.069673744802706203 0.29279290688167919 0.015960496133037055 0.17581385566368965 -0.046658764881573798 -0.016157716608357759 0.017679381958941746 1.0059860612108869 -0.15857818735181467 -0.48534997086624287 -0.40278521259025918 0.50068216283676459 -0.0030964218164621113 -0.59379502532713269 0.057935954572591299 -0.16008103383163017
leaf_weight=1120 320 1491 3242 794 1036 21229 3872 2810 9821 1774 1004 21512 3012 353 1489 4351 913 3132 1443 454 530 780 91 4515 2250 355 618 5455 405 1011
leaf_count=1120 320 1491 3242 794 1036 21229 3872 2810 9821 1774 1004 21512 3012 353 1489 4351 913 3132 1443 454 530 780 91 4515 2250 355 618 5455 405 1011
internal_value=-0.000691984 -0.0220544 0.0230668 -0.0130406 0.00973694 0.0263535 -0.0193418 -0.000668419 0.0224248 -0.00155858 -0.0216075 -0.0268897 -0.0202119 -0.0118173 -0.00532986 0.016766 0.0172458 0.0133133 -0.0119718 0.0141879 -0.010326 0.0132552 0.0164786 -0.0244167 -0.0281363 -0.00266541 -0.00792901 -0.0250126 -0.0101017 -0.0153806
internal_weight=101182 53278 47904 18603 9476 38428 12325 6278 17199 3635 10834 34675 5458 2446 4704 5841 7378 4136 2447 4805 1861 1574 3223 8387 29217 1326 971 7705 3215 1331
internal_count=101182 53278 47904 18603 9476 38428 12325 6278 17199 3635 10834 34675 5458 2446 4704 5841 7378 4136 2447 4805 1861 1574 3223 8387 29217 1326 971 7705 3215 1331
is_linear=0
shrinkage=0.03


Tree=17
num_leaves=31
num_cat=0
split_feature=0 0 0 73 73 76 73 0 0 76 0 71 16 43 0 0 73 72 76 0 76 84 65 72 0 65 76 36 20 50
split_gain=56728.8 3327.61 1610.52 1415.59 711.856 532.278 486.085 332.04 323.657 289.368 316.555 270.072 258.076 214.674 182.326 170.653 211.789 166.82 164.926 126.025 160.365 122.938 113.402 95.9502 95.4737 136.894 95.295 92.2878 95.145 84.0135
threshold=496.50000000000006 466.0789473684211 556.50000000000011 1.2105263157894799 -9.2499999999999982 5.5000000000000009 6.2894736842105496 505.50000000000006 484.50000000000006 21.500000000000004 480.50000000000006 447.18421052631584 572.50000000000011 467.50000000000006 510.50000000000006 618.50000000000011 -41.915266106442566 7.2500000000000009 20.500000000000004 448.23684210526318 6.5000000000000009 -0.60785761079279388 10.849870827384144 3.7500000000000004 483.50000000000006 3.2227881779713008 3.5000000000000004 588.24782608695671 572.50000000000011 456.38596491228077
decision_type=2 2 2 2 2 2 2 2 2 2 2 2 2 2 2 2 2 2 2 2 2 2 2 2 2 2 2 2 2 2
left_child=1 6 4 5 7 24 12 29 17 10 -7 -8 19 18 23 16 -4 -5 22 -1 -21 -22 -9 -6 -3 -26 -24 28 -13 -2
right_child=2 3 15 8 14 9 11 13 -10 -11 -12 27 -14 -15 -16 -17 -18 -19 -20 20 21 -23 26 -25 25 -27 -28 -29 -30 -31
leaf_value=-1.121009507760375 -0.11798376743257762 -0.4117133538568038 0.20016889820573225 -0.10849969040516214 0.1843354916909638 -0.23867701031410263 -0.82910950776037617 0.11641503526233975 0.24295985453838198 -0.3423484546282401 0.018936980599453365 -0.26908713941022028 -0.36993539930527813 0.31441409654861158 0.72637913260326459 4.3453423402826674 0.94179058540014005 0.25797159079652887 -0.030490250920600204 -0.57598117456731812 -0.49007890993237763 -0.35277366558553752 -0.02775022736530218 0.65804723693377065 -0.0048740900363446827 -0.20505105743791516 0.39877216490092621 1.1880986536612357 0.20387294970176184 0.008958508205872703
leaf_weight=23350 454 2725 1218 2935 2146 2513 2875 2793 2118 1140 2147 2531 614 1402 6337 20109 7839 795 704 4334 2252 2902 557 1329 323 1296 321 97 151 875
leaf_count=23350 454 2725 1218 2935 2146 2513 2875 2793 2118 1140 2147 2531 614 1402 6337 20109 7839 795 704 4334 2252 2902 557 1329 323 1296 321 97 151 875
internal_value=-0.000751875 -0.0212954 0.0238099 -0.00976533 0.0164441 -0.0165418 -0.0260101 0.00921022 0.00198957 -0.0105908 -0.00727247 -0.0178668 -0.0273858 0.0123204 0.0216811 0.0280816 0.0246508 -0.00332806 0.00904182 -0.0277462 -0.0248179 -0.0212293 0.0115923 0.016147 -0.0244826 -0.0186833 0.00218089 -0.0111896 -0.0122315 -0.00430602
internal_weight=101182 55098 46084 15992 16918 10144 39106 7106 5848 5800 4660 5654 33452 5777 9812 29166 9057 3730 4375 32838 9488 5154 3671 3475 4344 1619 878 2779 2682 1329
internal_count=101182 55098 46084 15992 16918 10144 39106 7106 5848 5800 4660 5654 33452 5777 9812 29166 9057 3730 4375 32838 9488 5154 3671 3475 4344 1619 878 2779 2682 1329
is_linear=0
shrinkage=0.03


Tree=18
num_leaves=31
num_cat=0
split_feature=0 0 0 76 73 73 73 0 0 16 76 0 42 71 0 72 0 76 76 0 76 81 79 0 69 26 73 72 20 23
split_gain=55781.2 3308.52 1648.86 1395.57 686.782 619.23 446.66 347.697 313.354 267.874 263.024 221.578 205.499 205.107 197.447 201.318 191.5 169.386 152.855 151.381 203.516 172.699 112.831 107.916 141.871 100.446 98.8578 94.9355 90.4706 80.5792
threshold=496.50000000000006 465.02631578947376 556.50000000000011 5.5000000000000009 -9.2499999999999982 6.2894736842105496 8.5000000000000018 480.50000000000006 506.50000000000006 572.50000000000011 21.500000000000004 482.50000000000006 466.50000000000006 444.02631578947376 625.50000000000011 -8.8000000000000096 510.50000000000006 19.500000000000004 20.500000000000004 445.0789473684211 6.5000000000000009 1.0000000180025095e-35 10.500000000000002 483.50000000000006 9.4731659444788185 462.12500000000006 -31.499999999999996 3.7500000000000004 690.19863013698648 549.21917808219189
decision_type=2 2 2 2 2 2 2 2 2 2 2 2 2 2 2 2 2 2 2 2 2 2 2 2 2 2 2 2 2 2
left_child=1 6 4 23 8 7 9 17 25 19 22 28 18 -8 15 -4 27 -5 26 -1 -21 -22 -9 -3 -25 -2 -10 -6 -7 -11
right_child=2 3 14 5 16 11 13 10 12 29 -12 -13 -14 -15 -16 -17 -18 -19 -20 20 21 -23 -24 24 -26 -27 -28 -29 -30 -31
leaf_value=-1.1448895850190053 -0.089105876757569716 -0.39843807112455182 0.31986864750309563 -0.1910162804786836 0.17880542694023546 -0.046771495532776153 -0.84631908884058071 -0.017224047170900005 0.0294690219334484 -0.015526431989403591 -0.20848919521706591 0.30165982136749847 0.30529902387327185 -0.22852988955298711 4.3649820700741886 1.112767083437302 0.70458775862516687 -0.39323471142377225 -0.026310575001591587 -0.57737922252756335 -0.34868458671059216 -0.49345246219934097 0.17795606977069156 -0.013632718839003246 -0.18637861939704634 0.045147609791043236 0.11819179116585075 0.63830581982575718 1.0017222217081996 -0.65141738172723163
leaf_weight=22347 768 3071 2860 3262 2146 2248 1784 2269 904 435 684 1751 1395 2285 19234 7072 6337 979 691 5070 3566 2797 527 410 1297 720 2628 1329 126 190
leaf_count=22347 768 3071 2860 3262 2146 2248 1784 2269 904 435 684 1751 1395 2285 19234 7072 6337 979 691 5070 3566 2797 527 410 1297 720 2628 1329 126 190
internal_value=-0.000781525 -0.0211528 0.0235742 -0.00996794 0.0161213 -0.00444644 -0.0259851 -0.0094596 0.00901604 -0.0270972 -0.00242947 0.00493626 0.0122579 -0.0165767 0.0278965 0.0244515 0.0212654 -0.0152256 0.00895526 -0.0274574 -0.0246394 -0.021057 0.0016507 -0.0236529 -0.0175802 -0.00322163 0.0114795 0.0155946 -0.00103453 -0.00761502
internal_weight=101182 55098 46084 16624 16918 11846 38474 7721 7106 34405 3480 4125 5618 4069 29166 9932 9812 4241 4223 33780 11433 6363 2796 4778 1707 1488 3532 3475 2374 625
internal_count=101182 55098 46084 16624 16918 11846 38474 7721 7106 34405 3480 4125 5618 4069 29166 9932 9812 4241 4223 33780 11433 6363 2796 4778 1707 1488 3532 3475 2374 625
is_linear=0
shrinkage=0.03


Tree=19
num_leaves=31
num_cat=0
split_feature=1 1 1 83 76 83 83 78 1 38 71 1 83 73 1 1 1 76 83 79 73 83 71 80 1 69 76 76 83 47
split_gain=54757.9 3324.51 1699.51 1460.53 686.86 668.272 471.697 490.074 469.501 332.511 301.263 222.822 222.086 216.907 214.029 196.524 195.033 221.491 179.266 185.798 172.538 170.332 146.955 122.08 114.784 138.596 108.129 100.189 97.6244 91.5906
threshold=496.50000000000006 465.02631578947376 556.50000000000011 -0.83743052905771542 5.5000000000000009 0.65934581510006873 -0.8604686372286926 4.5000000000000009 484.50000000000006 434.22222222222229 447.18421052631584 621.50000000000011 0.90159026428466904 -39.89999999999997 506.50000000000006 510.50000000000006 446.1315789473685 6.5000000000000009 -0.96863394805116487 3.5000000000000004 -23.499999999999996 0.78661891169205844 569.50000000000011 84.500000000000014 483.50000000000006 10.259915838569013 12.500000000000002 22.500000000000004 0.47136869107721074 485.50000000000006
decision_type=2 2 2 2 2 2 2 2 2 2 2 2 2 2 2 2 2 2 2 2 2 2 2 2 2 2 2 2 2 2
left_child=1 6 5 18 24 15 7 10 21 -7 -1 13 -10 -4 -11 22 -8 -18 -3 -20 -16 -6 -2 -12 -5 -26 -21 -15 -19 -25
right_child=2 3 11 4 8 9 16 -9 12 14 23 -13 -14 27 20 -17 17 28 19 26 -22 -23 -24 29 25 -27 -28 -29 -30 -31
leaf_value=-0.76172139832774122 0.32714437025805293 0.76893667600306592 0.19275811982947685 -0.38648492899081588 -0.17881316102210745 -0.054546370840958501 -1.0830325349769925 -0.9005428974684343 0.045502390573404911 -0.010742633493159133 -0.29149167816089572 4.1440326079719609 -0.20172573358786167 0.99984904622382942 0.035046777939974162 0.6569243039173045 -0.55473440378598182 -0.34140664671114845 -0.18736814348571215 0.46320039137554714 0.21186597501730431 -0.36627112917731408 -0.0031907725933473328 0.15105889773993225 -0.014703797668865945 -0.1854498635267845 -0.084952918525613083 0.14904987825429658 -0.51576670712058326 -0.41209574256369308
leaf_weight=1436 3259 1306 1468 3071 4657 1065 20622 3576 2735 1031 421 19752 401 7429 1295 7246 4875 4692 537 825 2525 1050 497 1251 448 1259 335 517 1397 204
leaf_count=1436 3259 1306 1468 3071 4657 1065 20622 3576 2735 1031 421 19752 401 7429 1295 7246 4875 4692 537 825 2525 1050 497 1251 448 1259 335 517 1397 204
internal_value=-0.000826591 -0.0210101 0.0233047 -0.00979832 -0.0139735 0.0157383 -0.0258541 -0.0187338 -0.00901934 0.0076047 -0.0104126 0.0276928 0.000305069 0.023885 0.0109371 0.0201106 -0.0274061 -0.0241639 0.00913682 0.00270141 0.0142102 -0.0141428 0.0145321 -0.00249174 -0.0231381 -0.0168776 0.00945478 0.0258433 -0.0203394 0.00162569
internal_weight=101182 55098 46084 16624 13621 16918 38474 6888 8843 5916 3312 29166 3136 9414 4851 11002 31586 10964 3003 1697 3820 5707 3756 1876 4778 1707 1160 7946 6089 1455
internal_count=101182 55098 46084 16624 13621 16918 38474 6888 8843 5916 3312 29166 3136 9414 4851 11002 31586 10964 3003 1697 3820 5707 3756 1876 4778 1707 1160 7946 6089 1455
is_linear=0
shrinkage=0.03


Tree=20
num_leaves=31
num_cat=0
split_feature=0 0 0 83 83 73 0 83 0 80 83 0 83 78 0 69 73 78 31 11 0 76 73 73 83 83 80 83 38 55
split_gain=53518.8 3003.18 2146.68 1535.72 824.932 661.327 649.345 433.662 269.513 265.015 255.339 247.293 239.504 248.978 210.032 202.192 197.381 179.843 177.355 169.941 168.959 166.181 149.729 139.845 130.741 113.019 104.75 103.327 101.266 105.504
threshold=489.50000000000006 518.50000000000011 454.27631578947376 -0.83743052905771542 0.55557023301960218 -1.2499999999999998 612.50000000000011 0.91531147911944699 500.50000000000006 84.500000000000014 -0.9568834025670776 476.50000000000006 -0.90159026428466904 4.5000000000000009 480.50000000000006 4.8635345430654029 -22.499999999999996 4.5000000000000009 487.50000000000006 479.46086956521748 501.50000000000006 5.5000000000000009 -11.118421052631588 -13.249999999999998 -0.98658463173998423 0.36243803828370164 303.50000000000006 0.34202014332566855 427.50000000000006 477.27192982456148
decision_type=2 2 2 2 2 2 2 2 2 2 2 2 2 2 2 2 2 2 2 2 2 2 2 2 2 2 2 2 2 2
left_child=2 4 12 9 10 14 7 22 23 24 -2 26 13 15 25 -1 -10 18 -11 28 21 -12 -3 -6 -4 -5 -7 -16 -9 -30
right_child=1 6 3 5 8 11 -8 19 16 17 20 -13 -14 -15 27 -17 -18 -19 -20 -21 -22 -23 -24 -25 -26 -27 -28 -29 29 -31
leaf_value=-0.7088697563779095 1.6497353397052312 0.32552508479434178 0.15253284625560923 -0.3507430918531031 -0.19649315433803963 -0.24491624971501549 3.8397116297328009 -0.053044502965875609 -0.072806122930013539 0.49468719509392822 -0.058636903415763865 -0.026617737216721195 -0.90209713578893114 -0.96187305948597812 -0.085223764909331409 -0.15177608130854336 0.083688131171576849 -0.11384908990905387 -0.39799349820107094 0.22059687194031197 0.29805350330748948 0.14750353619391915 0.99721657479978487 -0.037225447969307761 -0.22565651320390373 -0.47954662771382911 -0.084116576384321323 -0.20996886016028923 0.12816845185199668 -0.0058684936648256778
leaf_weight=1006 1133 5104 369 3799 749 3891 20896 306 637 1891 454 2010 26389 2732 887 970 1755 588 142 1281 3138 2400 8553 998 815 4417 536 1470 1244 622
leaf_count=1006 1133 5104 369 3799 749 3891 20896 306 637 1891 454 2010 26389 2732 887 970 1755 588 142 1281 3138 2400 8553 998 815 4417 536 1470 1244 622
internal_value=-0.000869286 0.0215262 -0.022125 -0.0146669 0.00791984 -0.0185208 0.0255584 0.0212213 -0.00273116 0.00256096 0.0141071 -0.0109362 -0.0271164 -0.02087 -0.0231367 -0.0127451 0.00380986 0.00788215 0.0121077 0.011716 0.0116331 0.00634571 0.0236233 -0.0116859 -0.00921266 -0.0254031 -0.0148977 -0.0152277 0.00659779 0.00922175
internal_weight=101182 49270 51912 20815 11264 17010 38006 17110 4139 3805 7125 6437 31097 4708 10573 1976 2392 2621 2033 3453 5992 2854 13657 1747 1184 8216 4427 2357 2172 1866
internal_count=101182 49270 51912 20815 11264 17010 38006 17110 4139 3805 7125 6437 31097 4708 10573 1976 2392 2621 2033 3453 5992 2854 13657 1747 1184 8216 4427 2357 2172 1866
is_linear=0
shrinkage=0.03


Tree=21
num_leaves=31
num_cat=0
split_feature=0 0 0 83 83 73 0 72 0 83 0 0 83 80 73 83 78 0 73 0 78 31 83 9 83 83 15 7 80 50
split_gain=52370.6 2984.48 2133.07 1411.77 798.826 659.68 642.694 466.452 342.589 287.658 363.984 256.549 243.188 240.836 230.94 219.572 210.105 190.002 160.101 156.087 155.618 161.195 131.99 120.921 116.427 113.276 112.489 109.026 106.25 95.4285
threshold=489.50000000000006 522.50000000000011 456.1052631578948 -0.83743052905771542 0.48098876891938763 -2.2499999999999996 629.50000000000011 -4.7499999999999991 500.50000000000006 -0.43245347597985045 437.21052631578954 476.50000000000006 -0.9503235401216662 84.500000000000014 -22.499999999999996 0.91531147911944699 4.5000000000000009 482.50000000000006 -6.1184210526315885 501.50000000000006 4.5000000000000009 487.50000000000006 -0.98658463173998423 479.46086956521748 0.36243803828370164 -0.91080963307804841 446.06521739130443 547.50000000000011 313.50000000000006 466.50000000000006
decision_type=2 2 2 2 2 2 2 2 2 2 2 2 2 2 2 2 2 2 2 2 2 2 2 2 2 2 2 2 2 2
left_child=2 4 9 13 12 17 7 15 18 10 -1 28 -2 22 -10 -3 25 24 -6 27 21 -15 -4 -17 -5 26 -12 -14 -7 -16
right_child=1 6 3 5 8 11 -8 -9 14 -11 16 -13 19 20 29 23 -18 -19 -20 -21 -22 -23 -24 -25 -26 -27 -28 -29 -30 -31
leaf_value=-1.0625673999581733 1.6272103074437989 0.39124517715939305 0.1923397562523172 -0.32749114677657815 -0.1383292972060218 -0.24320807030738564 4.1145202808408152 0.94024188670430586 -0.052139126967503557 -0.87635289966448904 0.17979856011706088 -0.030268255222941604 0.13370824662028041 0.5155071488902172 0.030263875312502363 0.035877748046544866 -0.50302175853860431 -0.14492654694120374 0.0081800009858920934 0.3146612437067472 -0.09090729065390632 -0.39178022656015116 -0.21720241941518792 0.17840353993598398 -0.45327315737432511 -0.32736479480326691 -0.32795608569859952 -0.086064195788136427 0.0024282311000837354 0.15320537711196577
leaf_weight=7704 1340 5033 352 3364 1205 4048 18703 10478 823 19588 517 2178 2269 1755 1015 1748 2094 1708 713 3455 545 135 788 870 4180 1969 596 366 391 1252
leaf_count=7704 1340 5033 352 3364 1205 4048 18703 10478 823 19588 517 2178 2269 1755 1015 1748 2094 1708 713 3455 545 135 788 870 4180 1969 596 366 391 1252
internal_value=-0.000952897 0.0212011 -0.0219794 -0.0141197 0.00849401 -0.0179563 0.0254917 0.0214632 -0.000766021 -0.0266857 -0.0231967 -0.0107203 0.0147352 0.00291023 0.00541475 0.0158268 -0.0170363 -0.0231295 -0.0107228 0.0121847 0.00823768 0.0123094 -0.00846363 0.0087732 -0.0251765 -0.0120457 -0.00438689 0.00667944 -0.0148574 0.0103558
internal_weight=101182 49270 51912 19444 12438 15869 36832 18129 5008 32468 12880 6617 7430 3575 3090 7651 5176 9252 1918 6090 2435 1890 1140 2618 7544 3082 1113 2635 4439 2267
internal_count=101182 49270 51912 19444 12438 15869 36832 18129 5008 32468 12880 6617 7430 3575 3090 7651 5176 9252 1918 6090 2435 1890 1140 2618 7544 3082 1113 2635 4439 2267
is_linear=0
shrinkage=0.03


Tree=22
num_leaves=31
num_cat=0
split_feature=0 0 0 83 73 73 0 0 83 83 0 0 83 83 0 14 16 0 82 83 84 73 73 8 74 67 15 83 83 83
split_gain=51267.2 2932.59 2147.15 1469.08 868.955 684.289 492.445 479.147 403.886 286.304 285.042 274.035 246.286 231.602 277.043 216.569 203.552 203.054 164.024 163.627 160.792 156.828 152.098 131.84 128.814 125.788 124.178 117.509 116.031 114.97
threshold=489.50000000000006 538.50000000000011 453.22368421052641 -0.82531082829576852 -8.1710526315789576 -2.2499999999999996 506.50000000000006 641.40000000000009 0.91531147911944699 -0.96298784033749829 503.50000000000006 476.50000000000006 0.36243803828370164 -0.43245347597985045 437.21052631578954 472.46521739130441 476.19565217391306 482.50000000000006 -0.13052619222005149 0.56457333468532422 -0.60785761079279388 -51.499999999999993 -40.499999999999993 446.06521739130443 455.43339305951082 472.11842105263162 473.50000000000006 0.36243803828370164 0.58244304235731414 -0.98279651670771917
decision_type=2 2 2 2 2 2 2 2 2 2 2 2 2 2 2 2 2 2 2 2 2 2 2 2 2 2 2 2 2 2
left_child=2 4 13 15 6 17 12 8 22 -6 -11 28 -2 14 -1 18 19 27 -4 -8 -16 -10 -3 -21 -20 -17 -23 -5 -7 -27
right_child=1 7 3 5 9 11 16 -9 21 10 -12 -13 -14 -15 20 25 -18 -19 24 23 -22 26 -24 -25 -26 29 -28 -29 -30 -31
leaf_value=-1.0306903779594272 0.061297727385991436 0.4582532558438524 -0.13684426662626861 -0.3322267097891074 2.3205506044679964 -0.18599148453408559 0.18871077346354098 4.4410846724155917 -0.10609309307806881 0.10536557109028308 0.38871349205466232 -0.030301783309255939 -0.10608632053792519 -0.90718805786407919 -0.49957976600364473 -0.24646357818721212 0.2597151144681385 -0.14058221171833338 -0.046815073997999543 -0.063797958834036869 -0.29365770100991595 0.081274852055329347 0.99534187719870826 0.031703545193171291 0.56422205826419369 0.42188197614923695 0.22820568674423611 -0.4515620341611844 -0.35148065004517204 -0.16605617068524564
leaf_weight=7704 1032 1226 660 3792 1574 4032 1022 17215 196 3187 4844 2146 1803 18276 1858 572 968 1701 550 531 2581 1515 11198 1597 1473 300 1362 4683 1067 517
leaf_count=7704 1032 1226 660 3792 1574 4032 1022 17215 196 3187 4844 2146 1803 18276 1858 572 968 1701 550 531 2581 1515 11198 1597 1473 300 1362 4683 1067 517
internal_value=-0.0010288 0.0208905 -0.0218326 -0.0145728 0.0106019 -0.0183645 0.0025233 0.0260978 0.0222666 0.0164488 0.0141518 -0.0113148 -0.00709697 -0.0269614 -0.0237423 0.00164915 0.00914712 -0.0233818 0.00662705 0.00544494 -0.0177628 0.0125202 0.0246758 0.000703147 0.0108631 -0.00796187 0.0142901 -0.0252816 -0.0150994 -0.000399756
internal_weight=101182 49270 51912 21493 16558 17421 6953 32712 15497 9605 8031 7245 2835 30419 12143 4072 4118 10176 2683 3150 4439 3073 12424 2128 2023 1389 2877 8475 5099 817
internal_count=101182 49270 51912 21493 16558 17421 6953 32712 15497 9605 8031 7245 2835 30419 12143 4072 4118 10176 2683 3150 4439 3073 12424 2128 2023 1389 2877 8475 5099 817
is_linear=0
shrinkage=0.03


Tree=23
num_leaves=31
num_cat=0
split_feature=1 1 1 83 83 1 72 83 76 1 83 83 81 83 80 69 7 83 1 72 1 5 75 9 36 21 7 1 15 80
split_gain=50045.9 3115.06 2026.57 1444.95 766.291 750.103 508.707 379.6 346.264 335.381 257.934 215.965 223.783 202.955 197.995 193.447 190.16 189.439 184.437 175.353 167.964 162.649 126.022 122.895 122.12 125.595 113.147 107.416 105.775 101.246
threshold=488.25000000000006 522.50000000000011 452.17105263157902 -0.41268247579971828 0.48098876891938763 637.50000000000011 -3.2499999999999996 -0.91959550581536675 5.5000000000000009 500.50000000000006 -0.96863394805116487 -0.90159026428466904 1.0000000180025095e-35 0.92794370089704281 313.50000000000006 4.8635345430654029 571.50000000000011 0.75894212529897775 473.17105263157902 7.2500000000000009 503.50000000000006 501.50000000000006 -6.024713352525338 479.46086956521748 540.00434782608704 575.50000000000011 547.50000000000011 564.50000000000011 439.06956521739136 215.50000000000003
decision_type=2 2 2 2 2 2 2 2 2 2 2 2 2 2 2 2 2 2 2 2 2 2 2 2 2 2 2 2 2 2
left_child=2 4 11 7 10 6 13 19 22 21 -2 12 15 27 29 -1 -11 18 -10 24 26 -6 -5 -15 25 -4 -12 -3 -17 -9
right_child=1 5 3 8 9 -7 -8 14 17 16 20 -13 -14 23 -16 28 -18 -19 -20 -21 -22 -23 -24 -25 -26 -27 -28 -29 -30 -31
leaf_value=-0.65169829328659368 1.8029401275227888 0.17337474576813633 -0.15329288415941333 -0.43099050817190399 -0.002582500633573659 4.1578521322431232 0.99140458938638176 -0.12321913714220613 -0.26365069106493477 0.11000842560316698 0.13568980692795832 -0.84997241612815744 -0.88347117602145742 0.038156153716622614 0.088120628540098098 0.36155645851815277 -0.026864372716513572 -0.34968687670723625 -0.081849473304423839 0.88087336092849911 0.32574993543734593 -0.13988606494914363 -0.16297346303431709 0.16496006756783799 0.51813373001415697 0.73685974272755228 -0.063716938067216802 0.57685084779868134 -0.36237294456182895 -0.36554147725279362
leaf_weight=987 1127 2681 1483 5180 853 17706 10066 2990 3464 1950 2963 25173 2668 1831 585 393 1140 1983 1870 713 3195 1270 1271 959 251 269 466 3589 482 1624
leaf_count=987 1127 2681 1483 5180 853 17706 10066 2990 3464 1950 2963 25173 2668 1831 585 393 1140 1983 1870 713 3195 1270 1271 959 251 269 466 3589 482 1624
internal_value=-0.00109284 0.0203397 -0.0218623 -0.0148878 0.00769125 0.0247913 0.0206691 -0.00467244 -0.0207595 -0.00120196 0.0136722 -0.0269528 -0.0209086 0.0155079 -0.00942058 -0.012913 0.00510417 -0.0162868 -0.0133378 0.00441553 0.0114109 -0.0103799 -0.0258287 0.00876997 -0.000133234 -0.00294181 0.00679504 0.0185037 -0.00263356 -0.0115053
internal_weight=101182 49796 51386 21683 12964 36832 19126 7915 13768 5213 7751 29703 4530 9060 5199 1862 3090 7317 5334 2716 6624 2123 6451 2790 2003 1752 3429 6270 875 4614
internal_count=101182 49796 51386 21683 12964 36832 19126 7915 13768 5213 7751 29703 4530 9060 5199 1862 3090 7317 5334 2716 6624 2123 6451 2790 2003 1752 3429 6270 875 4614
is_linear=0
shrinkage=0.03


Tree=24
num_leaves=31
num_cat=0
split_feature=0 0 0 83 83 0 0 83 82 83 0 75 82 11 83 0 79 78 61 82 83 78 82 69 69 76 75 0 83 82
split_gain=48828.6 3268.82 1888.75 1412.41 908.227 575.322 460.167 432.881 366.22 354.336 332.667 284.422 266.874 262.786 205.453 248.037 188.543 174.894 162.181 154.594 140.841 138.469 128.329 124.982 123.326 123.313 111.403 110.265 108.433 100.076
threshold=487.50000000000006 538.50000000000011 451.11842105263162 -0.41268247579971828 0.55557023301960218 647.50000000000011 500.50000000000006 0.91531147911944699 -0.65106671239330405 -0.96863394805116487 503.50000000000006 -4.0551508250561872 0.66746801135786471 444.48260869565223 -0.42261826174069955 437.21052631578954 10.500000000000002 5.5000000000000009 6.7428974978720877 -0.41268247579971867 0.098011308799811445 4.5000000000000009 -0.227062753132138 23.145262462579549 6.0213904421017519 8.5000000000000018 10.39707258119333 475.50000000000006 -0.94331137514050678 -0.89194178735545504
decision_type=2 2 2 2 2 2 2 2 2 2 2 2 2 2 2 2 2 2 2 2 2 2 2 2 2 2 2 2 2 2
left_child=2 4 14 9 10 7 19 25 17 24 12 -10 22 -8 15 -1 27 20 -9 -6 -5 -17 -2 -15 -4 -3 -14 -11 -12 -22
right_child=1 5 3 8 6 -7 13 18 11 16 28 -13 26 23 -16 21 -18 -19 -20 -21 29 -23 -24 -25 -26 -27 -28 -29 -30 -31
leaf_value=-0.97412555014162983 0.15137427462751304 0.2143942438787127 -0.10390032614408255 -0.29532201571787081 0.011056656777884085 4.4531165682758305 -0.071025284333216795 0.1781530742146458 -0.39107955960883711 -0.23923276054729967 2.2492167315475786 -0.14327992640130902 -0.083699958411083339 0.13099003339199497 -0.88447324364431323 -0.27144623175429555 0.081283060435324045 -0.3113162673152533 0.019752870232900364 -0.13818938428470914 0.058649003032807623 -0.47359314771614891 0.80390562104990515 0.0035478538209849828 0.51053647591535734 1.0687087727366236 0.041615684469178689 -0.044982594533464634 0.34583646877042495 -0.19278906773048674
leaf_weight=7730 1835 1702 560 1069 634 16505 758 2156 8325 4227 1317 2095 550 2716 17354 2219 807 721 1030 1469 905 1692 1139 1079 1078 11319 980 1355 5074 782
leaf_count=7730 1835 1702 560 1069 634 16505 758 2156 8325 4227 1317 2095 550 2716 17354 2219 807 721 1030 1469 905 1692 1139 1079 1078 11319 980 1355 5074 782
internal_value=-0.00115866 0.0198171 -0.0218642 -0.0152181 0.00937141 0.025421 0.000639477 0.0214022 -0.021005 -0.00519768 0.0147051 -0.0238189 0.0084566 0.00600066 -0.0268888 -0.0237972 -0.0083892 -0.0125667 0.0114832 -0.0109634 -0.00911752 -0.0176296 0.0136931 0.00922208 0.00724649 0.0238279 -0.0017224 -0.0103487 0.0191062 -0.00371268
internal_weight=101182 50263 50919 21924 17551 32712 6656 16207 13897 8027 10895 10420 4504 4553 28995 11641 6389 3477 3186 2103 2756 3911 2974 3795 1638 13021 1530 5582 6391 1687
internal_count=101182 50263 50919 21924 17551 32712 6656 16207 13897 8027 10895 10420 4504 4553 28995 11641 6389 3477 3186 2103 2756 3911 2974 3795 1638 13021 1530 5582 6391 1687
is_linear=0
shrinkage=0.03


Tree=25
num_leaves=31
num_cat=0
split_feature=0 0 0 83 72 0 0 82 83 72 8 83 80 0 83 0 75 83 80 78 78 65 83 80 78 83 83 69 80 75
split_gain=47798.4 3286.04 1895.92 1386.44 1008.37 661.531 419.67 417.248 388.257 376.778 307.129 268.465 229.858 222.175 212.332 247.099 211.934 191.802 172.155 167.574 162.656 151.46 147.903 141.83 134.238 133.369 125.278 135.374 111.608 144.372
threshold=487.50000000000006 556.50000000000011 451.11842105263162 -0.248252468714347 0.52631578947367086 503.50000000000006 654.50000000000011 -0.65106671239330405 -0.91959550581536675 -8.8000000000000096 471.38260869565221 0.36243803828370164 313.50000000000006 500.50000000000006 -0.42261826174069955 437.21052631578954 -5.3410663590103402 0.65934581510006873 84.500000000000014 5.5000000000000009 4.5000000000000009 6.5851071643681633 -0.89194178735545482 215.50000000000003 4.5000000000000009 0.098011308799811445 0.8604686372286926 56.463269420134047 50.500000000000007 -12.445678518824961
decision_type=2 2 2 2 2 2 2 2 2 2 2 2 2 2 2 2 2 2 2 2 2 2 2 2 2 2 2 2 2 2
left_child=2 4 14 8 5 11 9 19 18 26 17 -2 23 22 15 -1 -9 -7 28 25 -20 -13 -6 -10 -17 -5 -3 -28 29 -4
right_child=1 6 3 7 13 10 -8 16 12 -11 -12 21 -14 -15 -16 24 -18 -19 20 -21 -22 -23 -24 -25 -26 -27 27 -29 -30 -31
leaf_value=-0.94490178363738031 0.05338834257951703 0.63320325736373773 0.37154498998574409 -0.28222039904428925 1.088810895780252 0.19734233171025492 4.6195230712275555 -0.3833530711029266 -0.13004297652002322 1.000066163812338 0.1819700590835589 -0.044526397838634178 0.073755332761307385 0.65982993531536804 -0.85793904633498352 -0.2633028448016671 -0.15112496738315256 -0.0069216063787462187 0.57730434002856834 -0.30197677929579581 -0.12208943747044884 -0.23453794154634067 0.096415336316542838 -0.3515292125281303 -0.45938535328466457 -0.073180859867984505 0.11324111718162896 -0.23136668756608458 -0.28285596271516111 -0.16772999112415959
leaf_weight=7730 1945 2366 235 734 626 2121 15694 7837 3644 9456 4261 1716 728 5788 17354 2219 1843 2373 1407 629 476 713 1554 2078 1692 1687 1558 92 359 267
leaf_count=7730 1945 2366 235 734 626 2121 15694 7837 3644 9456 4261 1716 728 5788 17354 2219 1843 2373 1407 629 476 713 1554 2078 1692 1687 1558 92 359 267
internal_value=-0.00122389 0.0195294 -0.0217099 -0.0150512 0.0105094 0.00539886 0.0260533 -0.0214623 -0.00617259 0.0221641 0.0101584 -0.00412731 -0.0101933 0.018928 -0.0267439 -0.0236014 -0.0245116 0.00468454 0.0032776 -0.0117788 0.00835828 -0.0107765 0.0107552 -0.0122133 -0.0174456 -0.00818621 0.0144578 0.00810236 -0.00782715 0.00130616
internal_weight=101182 50263 50919 21924 21097 13129 29166 12730 9194 13472 8755 4374 6450 7968 28995 11641 9680 4494 2744 3050 1883 2429 2180 5722 3911 2421 4016 1650 861 502
internal_count=101182 50263 50919 21924 21097 13129 29166 12730 9194 13472 8755 4374 6450 7968 28995 11641 9680 4494 2744 3050 1883 2429 2180 5722 3911 2421 4016 1650 861 502
is_linear=0
shrinkage=0.03


Tree=26
num_leaves=31
num_cat=0
split_feature=59 59 59 83 72 76 56 72 56 83 59 40 59 83 59 80 83 32 83 67 72 75 83 83 78 10 83 78 31 83
split_gain=45941.2 2704.93 2506.36 1198.43 1034 639.784 493.574 414.684 401.598 377.45 288.844 261.57 255.257 324.859 246.501 200.981 195.36 184.479 173.219 171.398 165.123 159.768 158.593 153.627 148.157 145.394 140.803 139.533 148.385 121.444
threshold=493.50000000000006 567.25000000000011 461.09210526315798 -0.84915165824291594 -1.2499999999999998 5.5000000000000009 506.50000000000006 4.5000000000000009 655.83333333333337 0.95032354012166631 481.50000000000006 466.50000000000006 445.0789473684211 -0.26932402956675633 512.50000000000011 84.500000000000014 0.75894212529897775 459.50000000000006 0.91959550581536709 436.15789473684214 -5.1999999999999877 -6.024713352525338 0.71473537162315182 -0.96863394805116487 4.5000000000000009 444.48260869565223 -0.98658463173998423 4.5000000000000009 487.50000000000006 -0.91080963307804841
decision_type=2 2 2 2 2 2 2 2 2 2 2 2 2 2 2 2 2 2 2 2 2 2 2 2 2 2 2 2 2 2
left_child=2 4 7 15 6 21 17 12 9 20 16 22 -1 24 23 26 -7 -2 -12 -9 -3 -5 -8 -6 -14 -24 -4 28 -17 -21
right_child=1 8 3 5 14 10 11 19 -10 -11 18 -13 13 -15 -16 27 -18 -19 -20 29 -22 -23 25 -25 -26 -27 -28 -29 -30 -31
leaf_value=-0.92220087494493386 -0.11551633060965456 0.49106430408814727 0.26385342155508285 -0.36083808410950496 1.8031278078639152 -0.18168609397749919 0.16020938460654691 -0.855507900217641 4.510937379090727 0.096271507372505311 -0.0056592949441278502 0.25006366675609315 -0.21833580154216234 -0.4266042077129748 0.70265594169970824 0.61913775546704386 -0.35385150961562656 0.016990769223005485 -0.20571554225504143 0.047972220888761963 1.2924473551627875 -0.11063072966281311 -0.072421621147227597 0.1711133362679709 -0.36612838385678004 0.039882544306643695 -0.19734246830277186 -0.05419378526471462 -0.42743321514985494 -0.25792892656233446
leaf_weight=21639 1447 3810 335 4041 590 5358 2643 1175 15540 1766 2817 1962 2355 6194 5926 1620 1027 1627 427 641 6748 1228 697 3280 1369 2311 698 494 115 1302
leaf_count=21639 1447 3810 335 4041 590 5358 2643 1175 15540 1766 2817 1962 2355 6194 5926 1620 1027 1627 427 641 6748 1228 697 3280 1369 2311 698 494 115 1302
internal_value=-0.00128912 0.019843 -0.0206262 -0.0115961 0.0115655 -0.0152022 0.00511106 -0.0253549 0.025927 0.0218772 -0.0106009 0.00920764 -0.0263866 -0.0223931 0.0186054 0.0048719 -0.0143043 -0.00503317 -0.00330878 -0.0149077 0.0240247 -0.0236066 0.00592834 0.0127091 -0.0153817 0.00121535 -0.00606093 0.00994036 0.0139441 -0.00942747
internal_weight=101182 48347 52835 18160 20483 14898 10687 34675 27864 12324 9629 7613 31557 9918 9796 3262 6385 3074 3244 3118 10558 5269 5651 3870 3724 3008 1033 2229 1735 1943
internal_count=101182 48347 52835 18160 20483 14898 10687 34675 27864 12324 9629 7613 31557 9918 9796 3262 6385 3074 3244 3118 10558 5269 5651 3870 3724 3008 1033 2229 1735 1943
is_linear=0
shrinkage=0.03


Tree=27
num_leaves=31
num_cat=0
split_feature=0 0 0 83 73 0 0 82 72 0 83 44 83 80 83 72 83 83 0 0 80 73 78 73 83 21 0 36 83 26
split_gain=45513.3 3401.66 1825.47 1394.49 1029.3 572.981 520.53 483.627 439.204 362.029 358.558 252.949 242.502 224.329 216.223 178.7 173.069 172.027 185.27 169.215 158.513 154.23 148.302 145.36 137.653 137.145 136.631 133.375 125.771 125.458
threshold=486.50000000000006 554.50000000000011 447.18421052631584 -0.20576496797711571 -6.5921052631578894 506.50000000000006 660.10000000000014 -0.66746801135786415 -5.1999999999999877 503.50000000000006 -0.91959550581536675 469.50000000000006 0.40274668985873718 313.50000000000006 -0.96863394805116487 6.2500000000000009 0.83743052905771542 -0.42261826174069955 431.17105263157902 477.50000000000006 215.50000000000003 -6.1184210526315885 5.5000000000000009 -51.499999999999993 0.59130964836358235 575.50000000000011 474.22368421052641 540.00434782608704 0.098011308799811445 462.12500000000006
decision_type=2 2 2 2 2 2 2 2 2 2 2 2 2 2 2 2 2 2 2 2 2 2 2 2 2 2 2 2 2 2
left_child=2 4 17 10 5 12 8 22 16 14 15 24 -2 20 -6 25 -3 18 -1 -9 26 -21 28 -18 -7 27 -12 -4 -5 -14
right_child=1 6 3 7 9 11 -8 19 -10 -11 13 -13 29 -15 -16 -17 23 -19 -20 21 -22 -23 -24 -25 -26 -27 -28 -29 -30 -31
leaf_value=-1.0268467144813949 0.034134926240375021 0.64757626124077605 -0.1817142398747319 -0.26841240451529413 1.1880861800250897 0.17417426028995464 4.6156092577180061 -0.38673430199441783 1.1047674209739238 0.5134050796746823 -0.18998174230680917 0.22436151181308331 -0.14567737312698226 0.050859580510459634 0.092804574554073149 0.62289853723065502 -0.097346063602969934 -0.86453484869658659 -0.43868001882633845 -0.22768004334797468 -0.33297860418137304 -0.05386791325062177 -0.29838073769086065 0.12160858439858657 0.0052592744716810098 0.58127755077283494 -0.0032937404474211005 0.51643868954513494 -0.075514771060781527 -0.035969424061636911
leaf_weight=6128 1496 3602 1743 714 592 1518 15012 8486 8326 7153 3136 1576 1330 829 3694 848 257 15545 4408 1376 2465 725 656 2288 2950 281 1104 221 1775 948
leaf_count=6128 1496 3602 1743 714 592 1518 15012 8486 8326 7153 3136 1576 1330 829 3694 848 257 15545 4408 1376 2465 725 656 2288 2950 281 1104 221 1775 948
internal_value=-0.00135316 0.0187072 -0.0215336 -0.0156267 0.00955814 0.00243171 0.0253024 -0.0219411 0.0212386 0.0156737 -0.00746584 0.00815831 -0.00673828 -0.0109963 0.00877467 0.00113348 0.0151508 -0.0270496 -0.0240806 -0.0250101 -0.0128164 -0.0173677 -0.0116043 0.00915436 0.00451041 -0.00329786 -0.00929427 -0.00610534 -0.00825181 -0.0128991
internal_weight=101182 50742 50440 24359 21257 9818 29485 13732 14473 11439 10627 6044 3774 7534 4286 3093 6147 26081 10536 10587 6705 2101 3145 2545 4468 2245 4240 1964 2489 2278
internal_count=101182 50742 50440 24359 21257 9818 29485 13732 14473 11439 10627 6044 3774 7534 4286 3093 6147 26081 10536 10587 6705 2101 3145 2545 4468 2245 4240 1964 2489 2278
is_linear=0
shrinkage=0.03


Tree=28
num_leaves=31
num_cat=0
split_feature=1 1 1 83 73 1 1 82 83 83 83 1 83 44 80 83 1 73 75 72 1 78 83 26 15 63 83 82 8 78
split_gain=44479.4 3353.73 1818.1 1380.19 981.705 566.113 539.338 481.969 463.359 348.462 343.971 308.161 248.808 233.277 210.023 180.186 193.66 174.221 171.822 165.733 158.196 143.367 142.062 134.315 131.091 145.305 124.086 118.486 115.992 115.782
threshold=486.50000000000006 556.50000000000011 447.18421052631584 -0.20576496797711571 -5.0657894736842186 506.50000000000006 668.50000000000011 -0.66746801135786415 0.88186879444286481 -0.96863394805116487 -0.96863394805116487 503.50000000000006 0.40274668985873718 469.50000000000006 313.50000000000006 -0.44228869021900119 431.17105263157902 -54.499999999999993 -5.3410663590103402 -12.749999999999998 474.22368421052641 5.5000000000000009 0.55557023301960218 462.12500000000006 452.02000000000004 469.23684210526318 0.098011308799811445 -0.9108096330780483 446.06521739130443 4.5000000000000009
decision_type=2 2 2 2 2 2 2 2 2 2 2 2 2 2 2 2 2 2 2 2 2 2 2 2 2 2 2 2 2 2
left_child=2 4 15 10 5 12 8 21 19 -6 24 -11 -2 22 20 16 -1 -10 -9 -3 29 26 -7 -14 -4 -26 -5 -28 -24 -12
right_child=1 6 3 7 9 13 -8 18 17 11 14 -13 23 -15 -16 -17 -18 -19 -20 -21 -22 -23 28 -25 25 -27 27 -29 -30 -31
leaf_value=-0.99913949133648083 0.036753131346721375 0.6157044119776276 0.66475931891666162 -0.26036003237983552 2.4423340085555321 0.18879632300311158 4.837140979986466 -0.37104727590412268 -0.14084101465968843 0.095727995823382345 -0.19591644875226705 0.3910384131125107 -0.14166518005896761 0.22087703350835597 0.051708288250932807 -0.83859880323568969 -0.42543495334437353 0.14813744039952439 -0.15825798619703846 1.0881385966175059 -0.049652607557966917 -0.28942931556013435 -0.046936233086976809 -0.031891912450159904 -0.21291435875306688 0.23168398197183138 0.097664094070347568 -0.18928190012567711 0.032741029189652694 -0.31692471992744342
leaf_weight=6001 1618 1604 814 714 1952 1574 14166 8763 192 3494 4276 5714 1363 1688 936 15767 4313 2971 1824 10233 1761 656 807 1024 536 495 872 903 2342 1809
leaf_count=6001 1618 1604 814 714 1952 1574 14166 8763 192 3494 4276 5714 1363 1688 936 15767 4313 2971 1824 10233 1761 656 807 1024 536 495 872 903 2342 1809
internal_value=-0.00143381 0.0183974 -0.0213837 -0.0154888 0.00942935 0.00280474 0.0250309 -0.0217707 0.0210624 0.0156112 -0.00736987 0.0131672 -0.00604269 0.00833235 -0.00984368 -0.0268885 -0.0237961 0.0108556 -0.0248344 0.0237884 -0.011446 -0.0114517 0.00490834 -0.0121972 0.00440249 -0.00270058 -0.00815542 -0.00390034 0.00122762 -0.0137376
internal_weight=101182 50742 50440 24359 21576 10416 29166 13732 15000 11160 10627 9208 4005 6411 8782 26081 10314 3163 10587 11837 7846 3145 4723 2387 1845 1031 2489 1775 3149 6085
internal_count=101182 50742 50440 24359 21576 10416 29166 13732 15000 11160 10627 9208 4005 6411 8782 26081 10314 3163 10587 11837 7846 3145 4723 2387 1845 1031 2489 1775 3149 6085
is_linear=0
shrinkage=0.03


Tree=29
num_leaves=31
num_cat=0
split_feature=1 1 1 73 73 1 83 1 73 1 83 44 83 83 1 73 83 83 74 83 80 83 73 1 65 10 83 71 65 83
split_gain=43295.3 3342.55 1859.14 1355.21 1021.09 560.093 530.773 502.434 435.587 390.098 275.405 268.136 223.764 214.908 211.414 190.922 186.33 170.459 158.885 148.694 139.311 139.093 150.239 137.917 126.903 123.218 105.399 102.803 100.753 99.914
threshold=486.50000000000006 564.50000000000011 447.18421052631584 1.2105263157894799 -5.0657894736842186 505.50000000000006 0.36243803828370164 674.50000000000011 -31.499999999999996 513.50000000000011 -0.94331137514050678 469.50000000000006 0.40274668985873718 -0.97381903846659723 473.17105263157902 3.5000000000000004 -0.72982064943493963 0.49049438445969401 452.86127206535599 0.91959550581536709 84.500000000000014 0.36243803828370164 -51.499999999999993 475.50000000000006 6.5851071643681633 444.48260869565223 0.95688340256707771 437.21052631578954 11.194391150331748 0.55557023301960218
decision_type=2 2 2 2 2 2 2 2 2 2 2 2 2 2 2 2 2 2 2 2 2 2 2 2 2 2 2 2 2 2
left_child=2 4 15 6 5 12 14 8 21 13 20 17 -2 -6 16 -1 18 -7 -4 -15 -5 -3 -23 29 -14 -19 -10 -17 -27 -12
right_child=1 7 3 10 9 11 -8 -9 26 -11 23 -13 24 19 -16 27 -18 25 -20 -21 -22 22 -24 -25 -26 28 -28 -29 -30 -31
leaf_value=-0.81344083913861875 0.031313212349381274 0.90217081354491135 -0.38646310768646458 -0.16285210037314499 1.4810718340111595 0.23254284875562803 -0.36126922414515206 4.9620267505868725 1.0476532305621469 0.64326693774583787 -0.12754591743187915 0.21367590067502987 -0.046098454698694696 0.15929663830482013 -0.08151114808385386 -0.75935211770537536 -0.31718996596901716 -0.053942948563133655 -0.068899819445402383 -0.098493000238460693 0.36457646033129149 -0.078303519493434809 0.12240285642582308 -0.010600031823997255 -0.21230235122172017 0.047332580562755022 0.1457962163101274 -0.28084959046500585 -0.058587847225934409 -0.2772497516810114
leaf_weight=20752 1540 1689 534 496 822 1727 7385 13553 9822 5722 4445 1923 1455 4815 2166 3199 4581 830 1156 382 1321 368 1713 1629 809 2408 669 2130 495 646
leaf_count=20752 1540 1689 534 496 822 1727 7385 13553 9822 5722 4445 1923 1455 4815 2166 3199 4581 830 1156 382 1321 368 1713 1629 809 2408 669 2130 495 646
internal_value=-0.00153817 0.0180273 -0.0212208 -0.0152597 0.00954586 0.00305926 -0.0204574 0.025018 0.0210831 0.0157253 -0.00562509 0.00787744 -0.00629093 0.0103899 -0.0153125 -0.0267873 -0.0181038 0.00448215 -0.00957836 0.0081314 0.00473432 0.0123302 0.00713112 -0.00842687 -0.0122901 0.000874933 0.0242267 -0.0217086 0.00379029 -0.0108576
internal_weight=101182 50742 50440 24359 22928 11187 15822 27814 14261 11741 8537 7383 3804 6019 8437 26081 6271 5460 1690 5197 1817 3770 2081 6720 2264 3733 10491 5329 2903 5091
internal_count=101182 50742 50440 24359 22928 11187 15822 27814 14261 11741 8537 7383 3804 6019 8437 26081 6271 5460 1690 5197 1817 3770 2081 6720 2264 3733 10491 5329 2903 5091
is_linear=0
shrinkage=0.03


Tree=30
num_leaves=31
num_cat=0
split_feature=0 0 0 83 72 0 0 73 73 83 73 8 0 80 83 0 26 83 78 80 32 61 19 83 0 80 83 0 63 78
split_gain=42232.2 3319.98 1871.67 1400.84 1037.42 622.439 502.329 419.334 411.839 309.126 294.979 276.678 203.763 202.217 193.49 191.163 164.856 163.883 160.5 142.894 141.645 138.931 138.367 121.547 120.597 119.718 119.164 118.409 114.763 110.86
threshold=486.50000000000006 568.40000000000009 445.0789473684211 -0.248252468714347 1.2500000000000002 505.50000000000006 680.20000000000016 -28.699999999999985 0.48301820728295303 -0.96863394805116487 -12.499999999999998 471.38260869565221 503.50000000000006 305.50000000000006 0.7445585721445509 478.50000000000006 463.50000000000006 -0.47136869107721086 4.5000000000000009 215.50000000000003 473.50000000000006 2.8047578630496459 536.12500000000011 0.91959550581536709 464.25000000000006 189.00000000000003 -0.89194178735545482 474.22368421052641 431.17105263157902 4.5000000000000009
decision_type=2 2 2 2 2 2 2 2 2 2 2 2 2 2 2 2 2 2 2 2 2 2 2 2 2 2 2 2 2 2
left_child=2 4 17 9 5 10 7 20 15 21 16 14 26 19 -7 -5 -2 18 28 25 -3 -4 -21 -12 -10 27 -6 29 -1 -11
right_child=1 6 3 8 12 11 -8 -9 24 13 23 -13 -14 -15 -16 -17 -18 -19 -20 22 -22 -23 -24 -25 -26 -27 -28 -29 -30 -31
leaf_value=-0.85657380686463569 -0.13997422641199647 0.11341589400121449 -0.079699886703079134 -0.35556202585012497 0.98315839104291058 0.19002933936597061 5.2031659480692651 1.0295798977554853 -0.21339841590779315 -0.13048013377403719 0.053943709282929714 0.16943853419809785 0.76003691595487566 0.040075260656727778 -0.0093367848745231179 -0.14278123346963012 -0.0059320574846077534 -0.81903761396446095 -0.79961821843164271 -0.34127751699777092 0.50771982799466631 0.53346148147182015 0.018994939230738622 -0.088463167854754651 -0.076452039841361161 0.6274569286259245 0.11276542655430319 -0.0094514328097960731 -0.36379835255445186 -0.29739131696108639
leaf_weight=1998 1443 2344 1044 9716 763 2809 12909 9978 1707 2592 2893 5047 5314 1111 2406 1936 868 15028 5353 2441 1870 927 349 426 1561 132 1672 1186 2209 1150
leaf_count=1998 1443 2344 1044 9716 763 2809 12909 9978 1707 2592 2893 5047 5314 1111 2406 1936 868 15028 5353 2441 1870 927 349 426 1561 132 1672 1186 2209 1150
internal_value=-0.00156842 0.0177553 -0.0210079 -0.0153706 0.00953841 0.00514925 0.0249224 0.0210228 -0.0213482 -0.00721092 -0.00286574 0.00954662 0.0185377 -0.00957677 0.00469843 -0.0239884 -0.011093 -0.0269339 -0.0238528 -0.0112721 0.0130811 0.0035431 -0.0167241 0.00286355 -0.0119293 -0.0082626 0.0113411 -0.00901948 -0.0194551 -0.0116369
internal_weight=101182 50742 50440 25852 23641 15892 27101 14192 14920 10932 5630 10262 7749 8961 5215 11652 2311 24588 9560 7850 4214 1971 2790 3319 3268 5060 2435 4928 4207 3742
internal_count=101182 50742 50440 25852 23641 15892 27101 14192 14920 10932 5630 10262 7749 8961 5215 11652 2311 24588 9560 7850 4214 1971 2790 3319 3268 5060 2435 4928 4207 3742
is_linear=0
shrinkage=0.03


Tree=31
num_leaves=31
num_cat=0
split_feature=0 0 0 83 73 0 0 83 73 0 32 83 83 83 72 0 19 24 78 73 0 83 73 65 80 73 10 70 73 17
split_gain=40951 3292.92 1906.71 1424.54 996.483 620.558 544.327 423.341 399.802 310.63 294.579 270.244 212.93 212.537 196.519 191.099 185.009 179.253 171.157 165.488 143.532 139.656 135.826 120.929 117.418 106.63 106.418 106.025 100.929 94.0194
